%YAML:1.0
my_svm: !!opencv-ml-svm
   svm_type: NU_SVC
   kernel: { type:LINEAR }
   nu: 2.9999999999999999e-02
   term_criteria: { epsilon:2.2204460492503131e-16, iterations:10000 }
   var_all: 3780
   var_count: 3780
   class_count: 2
   class_labels: !!opencv-matrix
      rows: 1
      cols: 2
      dt: i
      data: [ -1, 1 ]
   sv_total: 1
   support_vectors:
      - [ 2.99386512e-02, 1.99928731e-02, 1.55936526e-02, 3.08412537e-02,
          -1.13026686e-01, 4.20425050e-02, -9.63074900e-03,
          7.29890019e-02, 1.69785351e-01, 2.81631220e-02, 5.21668196e-02,
          5.07458374e-02, 1.37355357e-01, -1.08015940e-01,
          7.64821544e-02, 6.41470170e-03, 4.32864912e-02, 9.61469263e-02,
          -7.40125477e-02, -3.21586523e-03, 1.59751493e-02,
          2.94247381e-02, -9.07250028e-03, -3.92665807e-03,
          -9.49847251e-02, -4.67370711e-02, 5.10969460e-02,
          -8.06346014e-02, -5.98957017e-02, -1.09965682e-01,
          3.04940287e-02, -2.38995366e-02, 1.24011262e-04,
          -5.41744567e-02, 2.49193199e-02, 1.31885028e-02,
          3.51908654e-02, 8.10697153e-02, 8.42614025e-02, 1.20761529e-01,
          -1.01454116e-01, 6.36822358e-02, 9.78242233e-03,
          -2.79077468e-03, 3.98835242e-02, 2.73433402e-02,
          -8.24946072e-03, 5.89796565e-02, 8.19642469e-02,
          -1.33194029e-01, 4.48684432e-02, 1.49486633e-02,
          4.03149687e-02, 4.14759926e-02, -4.35383245e-02,
          4.17592153e-02, -1.79198012e-02, 7.67643824e-02,
          -2.08251216e-02, 2.20651720e-02, -3.52745205e-02,
          3.69015299e-02, -4.59724804e-03, -1.06107168e-01,
          4.21424955e-02, -1.67282109e-04, 3.58067676e-02,
          -1.98384356e-02, 4.25226651e-02, -7.57148536e-03,
          8.56557190e-02, -3.00999824e-02, 6.71622232e-02,
          -3.30993868e-02, 1.52753582e-02, 9.82231721e-02,
          -8.78126398e-02, 3.71861719e-02, 2.17640847e-02,
          7.29792118e-02, 5.92787229e-02, 3.86749245e-02,
          -5.63175939e-02, -2.74936780e-02, 1.18224584e-01,
          -1.06410921e-01, 9.32527632e-02, 5.15066721e-02,
          6.52865618e-02, 7.09410533e-02, -6.12371452e-02,
          -1.49734113e-02, -3.22656259e-02, 3.96737419e-02,
          5.65513410e-03, 1.85110997e-02, -1.99024309e-03,
          7.32812509e-02, -1.54278548e-02, -7.45760202e-02,
          -7.54272342e-02, -2.69512720e-02, 6.75360933e-02,
          -7.16172829e-02, 1.77215822e-02, 3.35075967e-02,
          4.36532162e-02, -4.21286300e-02, 4.14142087e-02,
          -1.12682534e-02, -1.01395771e-02, 9.08769220e-02,
          -6.89483210e-02, 9.80663151e-02, 7.26767257e-02,
          4.89338674e-02, 5.52586652e-02, 4.57260534e-02, 6.95790572e-04,
          -1.66440383e-02, 7.82449991e-02, -1.79017279e-02,
          1.61325321e-01, 4.51699421e-02, 5.56324050e-02, 4.75836266e-03,
          -7.02019641e-03, -2.94716768e-02, -2.35452652e-02,
          4.63647731e-02, -3.25168855e-02, 1.20881824e-02,
          4.01016325e-02, 3.21926177e-02, -3.19934115e-02,
          -2.09739059e-02, -2.46607661e-02, -7.79128894e-02,
          5.11820894e-03, -1.54514089e-02, 6.27084523e-02,
          -2.77786832e-02, -2.12799795e-02, -8.31423476e-02,
          4.40086424e-02, 2.69195419e-02, 4.68099266e-02, 9.75432768e-02,
          1.88382659e-02, 1.46122769e-01, 6.83576688e-02, 5.68449795e-02,
          6.37279823e-03, 2.77502332e-02, 7.81543106e-02, 7.00436980e-02,
          1.26874954e-01, 3.76245007e-02, 1.34713531e-01, 6.50557280e-02,
          9.75511596e-02, 2.96058487e-02, -1.81854796e-02,
          3.47796232e-02, 2.11533159e-02, 6.17854334e-02, 8.10985342e-02,
          7.26494193e-02, -7.34468699e-02, -1.10733815e-01,
          -5.27877435e-02, -4.51655835e-02, -3.99734341e-02,
          -2.49534026e-02, 5.41160852e-02, 1.01243295e-01,
          6.57810569e-02, -8.10551271e-02, -4.79606725e-02,
          -8.24344084e-02, 5.68003207e-02, 6.22459836e-02,
          5.82388863e-02, 1.17843956e-01, -2.86789564e-03,
          7.71047473e-02, 2.26129740e-02, 1.07115962e-01, 9.80028287e-02,
          7.20767304e-02, 6.87337667e-02, 9.72466394e-02, 1.36026055e-01,
          -1.15854993e-01, 3.20166834e-02, -1.61066633e-02,
          9.38768461e-02, 1.28379360e-01, -2.17566658e-02,
          -2.51177303e-03, -1.34097086e-02, 9.07220095e-02,
          4.32279892e-02, 1.51619175e-02, -5.60463630e-02,
          1.07607653e-03, 5.41839469e-03, -1.30965263e-02,
          3.91454902e-03, -2.85051987e-02, 5.39053604e-02,
          -8.20130631e-02, -1.44670978e-02, -9.30423141e-02,
          -2.89177466e-02, 2.20868667e-03, 1.83480456e-02,
          5.49768656e-02, 8.65483284e-02, 1.39843479e-01,
          -7.99220279e-02, 6.36226758e-02, -1.91390775e-02,
          9.25541744e-02, 8.36420730e-02, 3.35421003e-02, 5.51022999e-02,
          7.60869309e-02, 1.49027929e-01, -1.04022119e-03,
          1.04471929e-01, -4.20377310e-03, 9.30257142e-02,
          1.13975555e-01, -2.75388006e-02, 3.42597365e-02,
          1.55895622e-02, 5.92886284e-02, -1.57392491e-02,
          -1.97228212e-02, -6.69004694e-02, -9.15402919e-02,
          -2.22124066e-02, 7.51298526e-03, 7.35844001e-02,
          2.56256014e-02, 9.80978310e-02, 1.06044047e-01, 5.01987077e-02,
          -5.78548238e-02, -2.13694219e-02, -5.73413707e-02,
          4.08435315e-02, 3.78338955e-02, 4.23496701e-02, 1.02100521e-01,
          -6.42502913e-03, 9.60890353e-02, 4.18041460e-02,
          8.24977830e-02, 8.82174969e-02, 7.60984942e-02, 2.68650055e-02,
          4.88477461e-02, 6.72823638e-02, -3.58585082e-02,
          1.26528829e-01, 5.04482314e-02, 9.18912366e-02, 6.03246652e-02,
          2.03661788e-02, 7.34073445e-02, 4.42277640e-02, 6.47033155e-02,
          5.70642464e-02, 4.74035032e-02, -7.50329122e-02,
          -3.40160914e-02, -7.46123269e-02, 8.15392062e-02,
          3.70226540e-02, 3.09906229e-02, 6.60542548e-02, 8.28325152e-02,
          8.28521475e-02, -3.26132774e-02, 2.58184783e-03,
          -7.03475997e-02, -1.10375201e-02, 1.25239976e-02,
          -1.81023423e-02, 4.05606441e-02, -1.05143800e-01,
          1.40811294e-01, 7.25624263e-02, 5.28678373e-02, 1.63568296e-02,
          6.79760352e-02, 6.12108149e-02, 1.22392569e-02, 1.19450770e-01,
          -1.09586656e-01, 1.55316219e-01, 9.28346291e-02,
          8.96104723e-02, 6.04810268e-02, 5.57786301e-02, 1.75459944e-02,
          -1.19988306e-03, 7.09551498e-02, 2.97117140e-02,
          8.71536955e-02, -4.89947535e-02, -3.14909071e-02,
          -7.56430626e-02, 8.81764367e-02, 8.00546557e-02,
          4.97211842e-03, 8.36111605e-02, -3.27617973e-02,
          6.62361830e-02, 1.40294135e-02, -1.29554942e-02,
          -1.87301803e-02, -1.36438815e-03, 5.09662330e-02,
          -3.00508235e-02, 9.90777165e-02, -1.00101188e-01,
          1.37538984e-01, 7.15916380e-02, 7.17336982e-02,
          -2.01154724e-02, 6.06089197e-02, 6.46161586e-02,
          1.14568258e-02, 1.10725738e-01, -3.83899547e-02,
          1.16867214e-01, 9.79509857e-03, 3.19149606e-02, 1.24286851e-02,
          3.31983827e-02, 2.21232511e-02, -1.68817360e-02,
          1.08523257e-01, -1.82450358e-02, 5.44165559e-02,
          -2.28006206e-02, -3.82205509e-02, -7.61287957e-02,
          -3.30956690e-02, -1.41873267e-02, -4.96933162e-02,
          7.50150681e-02, 3.61057594e-02, 7.99150690e-02,
          -3.70599888e-02, -5.20656537e-03, -5.51562719e-02,
          8.78031999e-02, 8.40700120e-02, 5.41563183e-02, 1.34774223e-01,
          -2.53683273e-02, 9.80665088e-02, -2.73240972e-02,
          4.85868640e-02, 3.31486464e-02, 7.64192045e-02, 5.98139614e-02,
          5.17377518e-02, 1.36043340e-01, -6.75969524e-03,
          1.28436327e-01, 6.08425494e-03, 1.10743977e-01, 6.35173321e-02,
          -5.25071360e-02, 2.18290891e-02, -2.43281331e-02,
          6.22380599e-02, 3.17391716e-02, 5.54547682e-02,
          -6.84470907e-02, -1.28225544e-02, -4.87324707e-02,
          -7.30473101e-02, 2.44377721e-02, -4.96903323e-02,
          6.64125979e-02, 4.28757584e-03, 7.03757852e-02,
          -6.72316626e-02, -1.30152842e-02, -4.70969900e-02,
          7.61171430e-02, 6.27937317e-02, 1.92860328e-02, 1.04326531e-01,
          -8.88310373e-03, 1.14415117e-01, 5.95211349e-02,
          6.02482185e-02, 5.01863398e-02, 3.77857089e-02, 2.55211499e-02,
          9.81634296e-03, 9.85236391e-02, -1.44375646e-02,
          1.87614143e-01, 8.12425986e-02, 5.79545349e-02, 5.30853905e-02,
          1.10068256e-02, 3.66537273e-02, -7.11371303e-02,
          1.44129898e-02, -3.45074758e-02, -9.27115791e-03,
          -4.58709635e-02, -4.97847423e-02, -6.08358905e-02,
          3.36635821e-02, 1.88343469e-02, -8.18656087e-02,
          2.45058909e-02, -5.74484430e-02, 6.67196587e-02,
          -6.15328141e-02, 1.18639264e-02, -1.61728524e-02,
          3.85239087e-02, -1.55085642e-02, -2.72160787e-02,
          4.42543812e-02, -4.25358899e-02, 1.62939653e-01,
          -2.84977397e-03, 3.94487306e-02, 5.28098419e-02,
          9.61160734e-02, 5.39775006e-02, 1.83578748e-02, 1.34367988e-01,
          -8.25805515e-02, 9.23035741e-02, 1.33320261e-02,
          3.63324806e-02, 6.16991930e-02, 2.61361450e-02,
          -9.82961524e-03, -8.16748962e-02, 3.12632695e-02,
          -1.86678693e-02, 9.05000865e-02, -5.04024252e-02,
          4.48663421e-02, 2.18800027e-02, 6.51218221e-02,
          -2.46251430e-02, -7.25480467e-02, 7.11790919e-02,
          1.50091713e-02, 6.44726530e-02, -4.11628783e-02,
          2.62847543e-02, 3.49749140e-02, 1.27178788e-01, 8.12055320e-02,
          2.82111727e-02, 1.08826473e-01, -1.33794874e-01,
          4.65799272e-02, -2.32546516e-02, 1.97485872e-02,
          6.41379058e-02, 1.26051605e-01, 1.18479028e-01, 4.45186794e-02,
          9.71776173e-02, -1.93115938e-02, 1.10095151e-01,
          1.68279726e-02, -2.86192261e-03, 4.98842373e-02,
          1.25243468e-02, 8.41037277e-03, -5.67702316e-02,
          4.75026146e-02, 2.77315248e-02, -1.25646470e-02,
          -6.20987490e-02, -2.93451198e-03, -8.93612765e-03,
          1.21002365e-02, -2.81734355e-02, -8.47715810e-02,
          9.02836677e-03, 5.91921099e-02, 4.87252101e-02,
          -2.48779841e-02, 4.76640277e-02, 2.05159467e-02,
          1.48517758e-01, 9.07887220e-02, 2.38511804e-02, 1.08048707e-01,
          -1.57327894e-02, 1.10206887e-01, 3.26441526e-02,
          -8.65183902e-05, 5.65425903e-02, 3.49602215e-02,
          3.12989242e-02, 1.68295018e-02, 9.52052623e-02, 4.56715859e-02,
          6.39833510e-02, 1.43850688e-02, -3.56190875e-02,
          -2.31482759e-02, 8.46818909e-02, -2.89947931e-02,
          -6.71109483e-02, 4.71061729e-02, 3.57548445e-02,
          -1.49283735e-02, -5.08768409e-02, 2.10551973e-02,
          -4.44917753e-03, 5.08607067e-02, 2.04100013e-02,
          -8.60840604e-02, 4.11245935e-02, 6.53119236e-02,
          3.46934348e-02, -1.13404309e-03, 3.78314033e-02,
          -4.34913412e-02, -1.15060702e-01, -4.18168865e-02,
          6.61883643e-03, 1.35873072e-02, 1.26491133e-02, 3.00649963e-02,
          -5.46973236e-02, 2.99892370e-02, 3.30466330e-02,
          3.64595745e-03, -1.25723029e-03, -2.17145327e-02,
          3.10197007e-02, -1.80076715e-02, -7.90543563e-04,
          -5.66884279e-02, 6.71527162e-02, 1.09733596e-01,
          -7.82467127e-02, -1.62356347e-02, -4.60130870e-02,
          2.06085611e-02, 2.60003917e-02, 2.70022321e-02,
          -6.91468120e-02, 4.42244448e-02, 1.59677528e-02,
          -1.57689583e-02, -5.92890680e-02, -6.29902259e-02,
          -2.39489712e-02, 6.40159147e-03, 6.49425462e-02,
          -5.49392439e-02, 3.95963807e-03, 5.65151088e-02,
          1.28186774e-03, 3.15672755e-02, -2.58658169e-04,
          6.98674843e-02, -2.86181960e-02, 2.85666008e-02,
          -4.04557325e-02, 5.41479886e-02, 1.00482136e-01,
          -3.01715601e-02, 1.00806065e-01, 3.27190831e-02,
          6.37845844e-02, -2.30737869e-02, 7.29521215e-02,
          -4.11955528e-02, 6.34346679e-02, 4.46391776e-02,
          2.78009810e-02, -6.27021939e-02, -1.28019545e-02,
          3.92554514e-02, 5.12913391e-02, 7.90627599e-02,
          -1.48891462e-02, 2.23854650e-02, 1.01623327e-01,
          -4.87080254e-02, -1.14868835e-01, -9.23198462e-02,
          -5.42952083e-02, -6.14507645e-02, 5.59621751e-02,
          -1.54693257e-02, 7.49563351e-02, 9.97119397e-02,
          4.04901057e-02, 8.41999277e-02, 2.02331655e-02, 5.44057637e-02,
          5.30540720e-02, 3.94365378e-02, 1.21748468e-04, 5.75634055e-02,
          2.17990056e-02, 5.12309894e-02, 7.54524544e-02, 1.20997485e-02,
          3.47230509e-02, 1.14016728e-02, 1.45177487e-02,
          -8.67755897e-03, 5.40187471e-02, 4.99559008e-02,
          -2.00220626e-02, -3.51579189e-02, -4.14300710e-02,
          -1.21404836e-02, 4.16694842e-02, 4.01207246e-02,
          1.54269510e-03, 2.53629666e-02, 3.92277800e-02,
          -4.71285060e-02, -3.66479531e-02, -1.00557804e-01,
          -9.81144756e-02, -1.58184282e-02, 5.73584139e-02,
          -6.01381697e-02, -5.87897860e-02, -9.19665173e-02,
          6.81848750e-02, 9.98579934e-02, 6.94806427e-02, 3.47716846e-02,
          4.09218483e-02, -5.44887362e-03, 1.63076464e-02,
          7.16277063e-02, 1.06302887e-01, 4.22499441e-02, 9.88201946e-02,
          5.36696578e-04, -4.65996377e-02, 4.56748493e-02,
          2.02472918e-02, 1.51643613e-02, 4.69507501e-02, 8.02396834e-02,
          -2.17173174e-02, 5.17034493e-02, -1.89684220e-02,
          -7.10388124e-02, 3.01748351e-03, 2.78702397e-02,
          -9.62505117e-03, 2.70324405e-02, -4.04368937e-02,
          -3.54882739e-02, -2.38673519e-02, -9.90091264e-02,
          -1.12194054e-01, -5.49141914e-02, -4.63178679e-02,
          -5.47758602e-02, 4.24108133e-02, -3.38752493e-02,
          4.09975350e-02, 8.48417357e-02, 3.46095227e-02, 1.77628025e-02,
          9.11843926e-02, 5.75214885e-02, 3.53049785e-02, 8.46257582e-02,
          5.77093996e-02, 5.50213940e-02, 5.21753132e-02, 4.20540236e-02,
          5.61208352e-02, 1.14948206e-01, 5.57513796e-02,
          -7.32612424e-03, 8.38538036e-02, 5.89032993e-02,
          -8.82195868e-03, -3.62025052e-02, -4.90313694e-02,
          -4.98085245e-02, -3.01284771e-02, -6.69271946e-02,
          -6.35783076e-02, 3.29885855e-02, -2.99118813e-02,
          -7.25132897e-02, -1.60520807e-01, -9.30106863e-02,
          -7.70787522e-02, 7.11785257e-03, -2.90383156e-02,
          -2.47519258e-02, 3.28801535e-02, -3.08282580e-03,
          4.53947447e-02, 1.52712921e-02, 5.55473603e-02, 7.62730762e-02,
          1.26029491e-01, 5.76901361e-02, 2.80229300e-02, 2.16868147e-02,
          3.45481895e-02, 8.07812158e-03, 5.96403182e-02, 6.06352761e-02,
          3.55631597e-02, 7.27998316e-02, 6.12721369e-02, 1.33424653e-02,
          1.01551674e-02, 3.12967561e-02, -3.84900048e-02,
          -1.19476601e-01, -5.89609183e-02, -1.25307804e-02,
          2.00222284e-02, -8.93162750e-03, 2.32270565e-02,
          -2.72230599e-02, -4.35091630e-02, 8.94075056e-05,
          -7.78700486e-02, -4.35918607e-02, -4.37682942e-02,
          1.15116509e-02, 7.89212342e-03, 3.23062278e-02,
          -2.74190735e-02, -3.60769928e-02, 2.40746271e-02,
          8.25536251e-02, 7.86497444e-02, 1.30969891e-02, 4.75754738e-02,
          4.30792868e-02, 4.77430187e-02, 2.41958024e-03,
          -2.38373922e-03, 5.48604988e-02, 7.74833858e-02,
          7.61176050e-02, 3.42114680e-02, 1.03551157e-01, 3.74466926e-02,
          3.52377705e-02, 5.86345866e-02, 6.10898994e-02,
          -1.30551318e-02, -6.81558847e-02, -3.59470956e-02,
          -4.60211895e-02, -7.42781069e-03, -8.98091346e-02,
          1.25593059e-02, -1.75049715e-02, -3.83982025e-02,
          1.17118098e-02, -5.48661202e-02, 1.15177473e-02,
          -1.75850913e-02, 1.02741551e-02, -5.25896959e-02,
          -1.02696028e-02, 1.17780305e-02, -1.67670976e-02,
          9.06554684e-02, 1.93730686e-02, 5.75878695e-02, 5.35897128e-02,
          9.12561342e-02, 1.80167351e-02, 8.45956150e-03, 6.89426064e-02,
          5.72259985e-02, 8.55342224e-02, 4.69882675e-02, 8.43882412e-02,
          8.49069953e-02, 1.82781592e-01, 1.25636637e-01, 5.16365394e-02,
          2.37000398e-02, 4.85290308e-03, -6.22115918e-02,
          -7.35465065e-02, 7.25211808e-03, 7.81468209e-03,
          -1.68058593e-02, -2.36110445e-02, -2.40755416e-02,
          -1.82998627e-02, -4.40583043e-02, -7.39219114e-02,
          -6.12620786e-02, -4.65783849e-02, -2.49338001e-02,
          6.14741258e-02, 2.55693607e-02, 1.64392255e-02, 5.36482930e-02,
          2.26666201e-02, 5.97508512e-02, 4.51255739e-02, 2.39584092e-02,
          1.46132633e-02, 9.68707055e-02, 5.19777425e-02,
          -1.28997201e-02, 3.16047929e-02, 3.82997282e-02,
          1.11046195e-01, 2.97409259e-02, 1.12872580e-02, 2.22943239e-02,
          1.21006854e-01, 8.18295404e-02, 2.45978385e-02, 8.70969333e-03,
          3.18174772e-02, -9.95010287e-02, -2.80722138e-02,
          -1.27820102e-02, -1.93832368e-02, 8.26008618e-03,
          -3.90909277e-02, -3.03058475e-02, 8.01932183e-04,
          -7.43976533e-02, 1.18104713e-02, -3.21290344e-02,
          -3.78411487e-02, -5.94583936e-02, 4.71398719e-02,
          -2.68494934e-02, -3.00628133e-03, 2.96059698e-02,
          6.44327775e-02, 2.50066072e-02, -1.35049308e-02,
          1.08779995e-02, 7.19658211e-02, 9.16980729e-02, 5.08185327e-02,
          2.94531565e-02, 3.93104739e-02, -4.61748801e-02,
          1.56695750e-02, 2.01469641e-02, 2.39203423e-02, 7.60384724e-02,
          9.44528505e-02, 7.60515332e-02, 3.55092622e-02, 7.86759332e-02,
          3.50114442e-02, -9.57828164e-02, -4.23516631e-02,
          -1.61566716e-02, 2.78844591e-03, 1.45539893e-02,
          -4.60059531e-02, -4.84865606e-02, -9.88203101e-03,
          -2.58450508e-02, -3.10094692e-02, 1.37642976e-02,
          1.33270817e-02, -4.14468087e-02, 9.85125173e-03,
          -4.00403142e-02, -7.40877390e-02, -1.15104290e-02,
          1.87080372e-02, 3.10882311e-02, 2.12645642e-02, 1.80844602e-03,
          2.82836556e-02, 4.16580290e-02, 7.57626221e-02, 4.16056328e-02,
          6.72691688e-02, 3.55499685e-02, -2.97511611e-02,
          -4.74096276e-03, -2.13020016e-02, 2.61325706e-02,
          7.95807615e-02, 1.01711206e-01, 7.20595717e-02, 1.03560202e-01,
          -2.47970838e-02, -3.88754718e-02, -9.02388303e-04,
          -5.36526181e-02, -4.36898507e-02, -4.28685360e-03,
          5.07758185e-03, -6.63697869e-02, -3.65395136e-02,
          7.13576004e-03, -7.94165656e-02, -2.09282078e-02,
          -6.94744438e-02, 8.97015538e-03, 3.58348973e-02,
          2.31748112e-02, -3.45321633e-02, 2.48134229e-02,
          -1.04636110e-01, 8.12220678e-04, 2.05307007e-02,
          1.47747351e-02, 4.56889942e-02, 8.23618770e-02, 6.04724810e-02,
          4.33998257e-02, 7.28950873e-02, -6.58279434e-02,
          9.50630456e-02, 4.65371832e-02, -2.47094431e-03,
          4.32197452e-02, 6.07668012e-02, 8.64290595e-02, 3.58201563e-02,
          1.21072106e-01, -1.76343403e-03, -7.77544454e-02,
          -2.84213596e-03, 5.12652472e-03, 5.85011281e-02,
          -9.00979433e-03, 2.06504222e-02, -1.37992585e-02,
          -3.34409974e-03, -1.55343816e-01, -5.93829155e-02,
          -5.68825006e-03, 3.58954892e-02, 4.63927090e-02,
          -5.97452465e-03, -4.78450954e-03, 3.35708633e-02,
          -8.13534018e-03, -3.55743952e-02, 8.57978016e-02,
          6.91502914e-02, 1.27827534e-02, 4.09522727e-02, 7.12026134e-02,
          8.71151909e-02, -1.94814317e-02, 2.45803632e-02,
          1.10817270e-03, 1.29576340e-01, 1.84462536e-02, 4.56073806e-02,
          6.11671358e-02, 9.17538181e-02, 9.63614658e-02, 4.77771200e-02,
          6.53308481e-02, 8.62460881e-02, -6.16385527e-02,
          1.39492685e-02, 4.28736676e-03, 1.42405620e-02,
          -5.71772903e-02, -5.87373227e-02, -7.04764277e-02,
          -1.15337186e-01, -3.59793715e-02, -1.53162079e-02,
          -3.70464064e-02, -2.49007307e-02, 5.21627674e-03,
          1.19152693e-02, -1.37271616e-03, -3.56066860e-02,
          -5.40015325e-02, 3.09799053e-02, 8.43609497e-02,
          -5.78976469e-03, -4.71207267e-03, 6.13707080e-02,
          6.74597993e-02, -9.98375751e-03, -4.53451909e-02,
          2.74448972e-02, 6.32905811e-02, 6.89903349e-02,
          -4.46793949e-03, -6.08451013e-03, 6.90840781e-02,
          9.82493311e-02, 1.63347162e-02, -2.77794488e-02,
          2.25511976e-02, 7.69368932e-02, -1.97796710e-02,
          -4.13943678e-02, -4.04729396e-02, -5.47413481e-04,
          -1.16451122e-02, 1.15573918e-02, -4.87382039e-02,
          -7.73881376e-02, -3.98265570e-02, -2.11603893e-03,
          2.92569473e-02, -9.16533917e-03, 5.83840013e-02,
          6.90625459e-02, 9.01510473e-03, -4.74233255e-02,
          -4.85329702e-02, -8.12609494e-03, 9.11532789e-02,
          3.12130637e-02, 1.30053135e-02, 5.64973392e-02, 3.07143331e-02,
          -4.62477840e-02, -9.07176584e-02, 5.21085982e-04,
          6.52224571e-02, 6.55162036e-02, 6.41643479e-02, 2.78800242e-02,
          7.37720653e-02, 6.97797984e-02, 2.40283161e-02,
          -1.27526382e-02, 1.29559282e-02, 8.19280278e-03,
          5.75493462e-02, 3.67362909e-02, -7.39358133e-04,
          7.12183416e-02, -1.78093780e-02, -7.64982924e-02,
          -2.13554446e-02, -6.22920750e-04, 8.54717218e-04,
          4.41957675e-02, 4.80431952e-02, 3.00093200e-02, 5.41240200e-02,
          2.49754563e-02, -5.20038009e-02, -3.02007776e-02,
          -3.01456754e-03, -2.46276669e-02, 2.80040479e-03,
          7.47243315e-03, 1.72945820e-02, 3.27424780e-02, 4.86947654e-04,
          -2.94726584e-02, -1.94949340e-02, 2.53272355e-02,
          5.49941882e-02, 8.49494860e-02, -5.15078567e-02,
          -7.60142738e-03, -7.88327493e-03, -2.20586006e-02,
          3.40214111e-02, -1.71672124e-02, 1.36677995e-02,
          1.50226429e-01, 1.48180658e-02, 2.78033726e-02, 1.14543317e-02,
          4.30532824e-03, -4.60746028e-02, -4.51457016e-02,
          -4.50059632e-03, -2.64748223e-02, -4.56027091e-02,
          1.45450244e-02, -1.01886922e-02, -2.01505143e-02,
          -5.33059388e-02, -7.99095854e-02, 9.80347302e-03,
          2.72985827e-03, 6.19831542e-03, 3.87091860e-02, 6.57634512e-02,
          -2.59117521e-02, 2.66927592e-02, 3.44245881e-02,
          7.88767636e-03, 5.79298213e-02, 2.91220890e-03, 1.80227812e-02,
          1.22073531e-01, 6.29540086e-02, -3.41738351e-02,
          -7.14053167e-03, -4.29929309e-02, -5.68656959e-02,
          1.51287671e-02, 1.03689162e-02, 3.19713727e-02, 1.08301587e-01,
          -3.25416983e-03, 1.06336270e-02, 1.96557306e-02,
          -8.29346385e-03, -8.18557292e-02, 1.21534606e-02,
          1.35783860e-02, 4.20532450e-02, 3.01599503e-02,
          -9.73122008e-03, -1.10496301e-02, -4.37052958e-02,
          -1.09256115e-02, -3.57945599e-02, 2.57201008e-02,
          -1.68571807e-02, 7.36044198e-02, 6.13622554e-03,
          6.80263434e-03, -2.62129158e-02, 3.21067427e-03,
          -8.83342419e-03, 7.49209151e-02, 1.88997742e-02,
          2.43750382e-02, 3.20767090e-02, 5.18987440e-02, 1.35207968e-02,
          3.55164297e-02, -1.78650822e-02, -8.42637643e-02,
          -7.31613627e-03, 2.40058582e-02, -5.92334531e-02,
          -4.83084060e-02, 4.10691760e-02, 9.06127878e-03,
          3.94498371e-02, -3.39166597e-02, 3.06360014e-02,
          4.38645929e-02, -1.76445395e-02, -2.26559583e-02,
          1.80674102e-02, -1.00246363e-03, -1.10821694e-03,
          -2.94356961e-02, -8.95830244e-02, -1.24805078e-01,
          -3.64827700e-02, -2.01808475e-02, -2.36518169e-03,
          2.29407847e-02, 3.95344757e-02, 4.23454493e-02, 7.66931623e-02,
          6.14133626e-02, -5.19237667e-02, 5.09185381e-02,
          7.86270294e-03, -5.60301449e-03, 2.71297041e-02,
          2.23039668e-02, 5.92316389e-02, 4.66051623e-02, 1.17762536e-02,
          -4.94482694e-03, -7.58234086e-03, -6.23687692e-02,
          -6.15410171e-02, 2.80735432e-03, 3.43128182e-02,
          3.20086032e-02, 4.12702747e-02, -2.39079110e-02,
          -5.81428781e-02, 4.00506938e-03, 7.20825419e-03,
          3.46481018e-02, 4.18462828e-02, 3.23298983e-02,
          -9.23166424e-03, -2.58733071e-02, -1.00761928e-01,
          -1.03980929e-01, -2.72005331e-04, -4.19562273e-02,
          1.04088848e-02, 3.16854790e-02, -7.93488417e-03,
          7.21877143e-02, 3.40237208e-02, 4.83768582e-02, 1.79230273e-02,
          2.28709690e-02, -4.30695005e-02, -7.99034443e-03,
          4.43931967e-02, 5.88971041e-02, 1.14753984e-01,
          -2.76896469e-02, 1.00929653e-02, 2.16542184e-02,
          7.03040510e-02, -6.49508536e-02, 2.78015379e-02,
          5.35153411e-02, 1.43405929e-01, -2.05240119e-02,
          -6.88330317e-03, -2.85270642e-02, -7.17891566e-03,
          7.54537955e-02, -1.08442456e-02, 3.76672065e-03,
          1.52956164e-02, -4.79497202e-02, -4.23795320e-02,
          2.73042526e-02, -2.27963347e-02, 2.83884746e-03,
          9.21474397e-02, -8.37674439e-02, 1.65027231e-02,
          -1.42531144e-02, -6.81477338e-02, 8.24466869e-02,
          -2.09597237e-02, -1.50972009e-02, 3.58469458e-03,
          6.49195462e-02, -2.00168099e-02, 4.14828174e-02,
          4.31100801e-02, 4.42773849e-02, 4.82969992e-02, 2.28905529e-02,
          -4.84304801e-02, -8.84726178e-03, 6.98444545e-02,
          2.33274605e-03, 4.42339033e-02, 7.97490031e-02, 7.07897246e-02,
          -8.09968710e-02, -4.60554706e-03, -2.98630297e-02,
          6.57667546e-03, 5.99961169e-02, -4.31335121e-02,
          -1.65415963e-03, -3.58432718e-02, -1.02613881e-01,
          6.32088333e-02, 5.82520012e-03, 8.40568077e-03,
          -3.62304524e-02, 1.41842872e-01, -4.98340018e-02,
          -1.10446250e-04, 3.52192372e-02, 1.19306631e-02,
          1.75740737e-02, -2.37894412e-02, -2.93580089e-02,
          -2.05744710e-02, 6.26081079e-02, -7.81228319e-02,
          9.45204869e-03, 6.50519282e-02, 6.20327368e-02, 3.45599800e-02,
          3.20407525e-02, 8.75875056e-02, 5.63868284e-02, 4.97286022e-02,
          -7.64140338e-02, -3.67484353e-02, 1.64047051e-02,
          5.11742383e-02, -2.07870994e-02, -1.38599193e-02,
          -6.24755509e-02, -7.79536664e-02, 6.23683725e-03,
          -4.28827293e-02, 4.35508380e-04, 3.38069238e-02,
          3.50326709e-02, 9.70807206e-03, 7.78699443e-02, 5.68106398e-02,
          3.84980254e-02, 1.13662094e-01, 6.14191629e-02, 6.98729977e-02,
          7.95271993e-02, 4.67593744e-02, 2.84815691e-02, 4.87217531e-02,
          7.11362734e-02, 1.99038461e-02, 4.09176052e-02,
          -3.02607585e-02, -1.66845378e-02, -5.24828490e-03,
          7.69454241e-02, 8.69433507e-02, 7.30241984e-02, 4.36432734e-02,
          -2.60722991e-02, 4.80761230e-02, -1.36216348e-02,
          5.69182113e-02, 8.60966742e-02, 1.42193347e-01,
          -5.42395450e-02, 1.04957707e-02, 3.64074558e-02,
          -3.81547399e-02, 6.68186471e-02, 1.04650389e-03,
          3.99981551e-02, 2.39699334e-02, 8.67910404e-03, 1.54244229e-02,
          -1.77553929e-02, 3.61451656e-02, -1.63561068e-02,
          -8.66912212e-03, -5.36992848e-02, 3.77430469e-02,
          -7.75131769e-03, 3.40289958e-02, 4.54779565e-02,
          6.63425624e-02, 7.20792189e-02, 8.82677641e-03, 2.72813737e-02,
          -6.72436431e-02, 6.71212142e-03, 8.12252238e-03,
          5.03724366e-02, 8.25230926e-02, 4.90344167e-02, 4.94111776e-02,
          -2.02266909e-02, 7.14568645e-02, -4.56121601e-02,
          3.17371227e-02, 5.54990433e-02, 1.02706335e-01,
          -4.25790101e-02, -4.19162586e-02, 5.68661978e-03,
          -6.61789998e-03, 6.70680497e-03, -8.73171836e-02,
          5.02760476e-03, -3.04323453e-02, -1.54988356e-02,
          -4.37144600e-02, 2.19378574e-03, 6.19713515e-02,
          1.73999853e-02, 1.01934426e-01, -5.64595945e-02,
          6.14441298e-02, 1.98284760e-02, 1.10778892e-02, 4.48137373e-02,
          1.71279181e-02, 5.26001491e-02, 1.47876348e-02, 1.31351545e-01,
          -3.79366949e-02, 2.41198353e-02, -2.95313727e-02,
          -3.02345213e-03, 1.25304699e-01, 7.24750459e-02,
          6.18374459e-02, -1.05713326e-02, 5.72525263e-02,
          -2.96617355e-02, 3.28651257e-02, -6.23392127e-03,
          8.21885020e-02, 8.19536485e-03, 1.47377150e-02, 6.30285814e-02,
          3.22479606e-02, 3.64373289e-02, -9.32970196e-02,
          -2.51552891e-02, -1.10853978e-01, -4.73013222e-02,
          9.23850015e-02, -1.30648613e-02, 4.84686680e-02,
          1.10985304e-03, 4.13639247e-02, -5.15590571e-02,
          -8.81403685e-03, -2.88432613e-02, 4.60378304e-02,
          1.40165374e-01, 6.78058788e-02, 2.41804179e-02,
          -6.34754077e-03, 4.72742133e-02, -7.53008341e-03,
          -2.56116111e-02, 1.34838382e-02, 1.57603517e-01,
          1.19229324e-01, 2.85081957e-02, -8.40016920e-03,
          -1.09745050e-02, 7.24367201e-02, 1.07476283e-02,
          -7.45873433e-03, 5.31462394e-02, 1.64389133e-01,
          7.68840266e-03, -8.12827125e-02, -3.28550552e-04,
          -2.77884249e-02, 9.77405533e-03, -5.10853380e-02,
          4.35668946e-04, -2.12702081e-02, 3.73642109e-02,
          -2.57728249e-02, 4.60813940e-03, -2.97893770e-02,
          -1.53842559e-02, -4.75640856e-02, -8.09200630e-02,
          1.64353792e-02, 1.21545875e-02, 5.71472086e-02, 3.44445966e-02,
          6.11128379e-03, 1.60670318e-02, 3.51278335e-02, 3.38143632e-02,
          -8.64737667e-03, -1.82330348e-02, 2.49808468e-02,
          5.88951372e-02, 3.95742804e-02, 2.05651578e-02, 5.47057837e-02,
          7.10406676e-02, 3.86182442e-02, 1.79663568e-03,
          -1.24648903e-02, 9.89549514e-03, 5.92864789e-02,
          -9.45644602e-02, -2.35693064e-02, -1.15323300e-02,
          -1.35144871e-02, 2.24210005e-02, -5.64174838e-02,
          7.98929110e-03, -4.67369631e-02, -3.12392656e-02,
          -6.21805415e-02, -2.54772119e-02, 3.35598327e-02,
          2.92325895e-02, 7.19427317e-02, -3.08319032e-02,
          1.68862529e-02, -2.65448354e-02, -2.78976522e-02,
          3.68461721e-02, 3.44719216e-02, 3.41897458e-02, 2.61129867e-02,
          -1.03853717e-02, -1.03436969e-01, -7.09328800e-02,
          -3.58518921e-02, 3.75668854e-02, 4.96831834e-02,
          3.04774772e-02, 5.72287366e-02, 5.04973195e-02, 4.61306013e-02,
          -2.85338517e-02, -2.70456616e-02, 4.35498804e-02,
          1.12062871e-01, -9.99895111e-02, 7.36763875e-04,
          4.08707932e-02, 1.03968782e-02, 2.88684666e-02,
          -1.19382456e-01, -4.00380939e-02, -6.32061511e-02,
          -4.97683063e-02, -3.69042857e-03, -1.96239874e-02,
          2.48647500e-02, 1.99561380e-02, 6.53949678e-02,
          -7.32323378e-02, -1.13176471e-02, 1.24098035e-02,
          2.15343982e-02, 1.64460335e-02, -2.05214396e-02,
          2.17132401e-02, 1.55499279e-02, -4.81631607e-02,
          -2.03723684e-02, -7.17551485e-02, -4.68571596e-02,
          8.80835727e-02, 5.10033555e-02, 3.25599350e-02, 3.47788706e-02,
          1.30238645e-02, 7.62371421e-02, 4.15847301e-02,
          -2.20778696e-02, -2.38224305e-02, 7.72129893e-02,
          -2.99293362e-02, -3.66694555e-02, -4.36199680e-02,
          7.41062802e-04, -3.45594399e-02, -8.59597176e-02,
          -1.17220841e-01, -9.27117541e-02, 2.92675272e-02,
          2.27447953e-02, -2.62661502e-02, -1.74623169e-02,
          -3.18609700e-02, -8.46930547e-04, 6.43819273e-02,
          -1.35538941e-02, -1.00083522e-01, 1.02693327e-01,
          6.06702790e-02, 5.74592426e-02, 4.46221866e-02, 4.70507480e-02,
          -3.80880176e-03, -3.04053649e-02, -3.28006744e-02,
          -6.59514740e-02, 9.94172785e-03, 1.18339725e-01,
          7.90979639e-02, 6.22234195e-02, 6.60569966e-02, 5.66768497e-02,
          -2.61474345e-02, -2.17484906e-02, -3.64989452e-02,
          2.31583770e-02, 3.38485129e-02, -1.42617831e-02,
          -6.50828779e-02, -1.79078523e-02, -7.39072636e-02,
          4.35582250e-02, -4.33441857e-03, -9.14419144e-02,
          4.22861166e-02, 1.00567332e-02, 3.14776190e-02, 1.01642385e-02,
          1.95978098e-02, 2.28730310e-02, -8.00592173e-03,
          -5.74061014e-02, 2.07147258e-03, 3.29016596e-02,
          5.02497256e-02, 8.70379731e-02, 7.34356465e-03, 1.00334380e-02,
          -3.53934765e-02, 7.85923470e-03, 3.56480223e-03,
          -1.88684855e-02, -6.38335720e-02, 1.41399913e-02,
          4.48183566e-02, 2.39576083e-02, 3.64914001e-03,
          -6.15358874e-02, 4.28365692e-02, -2.86774221e-03,
          2.44894456e-02, -2.46178685e-03, -4.00276482e-02,
          1.12027936e-01, 1.43901091e-02, 2.83233318e-02,
          -8.09361935e-02, 4.79729287e-03, 1.31648278e-03,
          5.99996261e-02, -6.02896363e-02, 1.81675963e-02,
          8.55494812e-02, 1.69323361e-03, 1.70229841e-02,
          -5.29594682e-02, 3.91389839e-02, -1.25245508e-02,
          4.83922474e-02, -5.31052984e-02, 1.94462854e-02,
          1.12280762e-02, 5.95571361e-02, -2.22486705e-02,
          -5.91005795e-02, 8.40375200e-03, 3.34280655e-02,
          5.88077344e-02, 4.97121960e-02, 8.27916861e-02, 5.53108146e-03,
          -1.36523480e-02, 6.09264076e-02, 7.95231014e-03,
          -5.39390966e-02, -2.34963857e-02, 5.46613000e-02,
          9.92686823e-02, -1.12953987e-02, 8.17421526e-02,
          -1.41577376e-02, 2.37693731e-03, 3.58904824e-02,
          2.83732656e-02, -3.84617876e-03, 2.65893042e-02,
          -5.19049913e-02, -2.26492546e-02, 9.41247866e-02,
          -8.49980935e-02, -3.23487271e-04, 1.14604654e-02,
          -3.45514230e-02, -1.70699470e-02, 7.07246736e-02,
          2.73943804e-02, 9.45490003e-02, 1.45461308e-02,
          -4.31647338e-02, 2.42258329e-02, 1.04850352e-01,
          -4.57903631e-02, 1.15877455e-02, 4.47950736e-02,
          5.91363944e-02, 4.67481390e-02, 2.78413761e-02,
          -2.52504330e-02, -5.25421910e-02, 5.79323620e-02,
          -2.78898738e-02, 3.85209061e-02, -1.86105017e-02,
          3.60617577e-03, 8.21557939e-02, 1.15828276e-01, 2.00914145e-02,
          -8.71240627e-03, 2.27177609e-02, -8.59513655e-02,
          2.42662672e-02, 1.15958825e-01, 8.37571099e-02, 2.73513217e-02,
          6.65612221e-02, -4.71028015e-02, -1.14908695e-01,
          -3.28588486e-02, -8.16286430e-02, 7.61417346e-03,
          4.15804312e-02, 3.11015546e-03, 9.03563052e-02, 3.13990600e-02,
          -4.23272094e-03, -2.13561822e-02, 1.64813977e-02,
          -3.41528375e-03, 4.23078388e-02, -3.20988521e-02,
          -7.99166039e-04, 1.32197112e-01, 7.60599524e-02,
          -2.66498933e-03, -7.89868087e-02, 9.37282145e-02,
          -7.14135868e-03, 2.08281334e-02, 4.43001324e-03,
          -1.13792839e-02, -1.10575007e-02, 7.87148699e-02,
          4.60743941e-02, -1.74578298e-02, 4.00863662e-02,
          5.78115694e-03, 3.36528867e-02, 7.49461027e-03,
          -1.31904967e-02, 1.16631621e-02, 1.73702314e-02,
          -2.64537875e-02, -9.49804485e-02, 2.61924434e-02,
          -3.42935324e-02, -2.80984100e-02, -3.36188227e-02,
          4.18719687e-02, 1.02880642e-01, 3.29105332e-02,
          -6.03160635e-03, -7.01212659e-02, 5.97713888e-02,
          -3.33951674e-02, -1.44335360e-03, 5.41826477e-03,
          -5.07583246e-02, 3.19396481e-02, 9.17252451e-02,
          2.76601650e-02, 1.22827794e-02, 4.53407727e-02,
          -8.35194364e-02, 8.71039089e-03, 7.87161384e-03,
          -3.47219929e-02, -5.43131586e-03, 7.97704458e-02,
          3.52239758e-02, -3.33024375e-02, 8.85204896e-02,
          -1.81537960e-02, -3.76897864e-03, 1.03998408e-02,
          -9.61844530e-03, -9.71406847e-02, 1.05519518e-01,
          1.20293066e-01, -1.07365232e-02, 9.96717587e-02,
          -3.26733105e-02, -1.68951191e-02, 6.69413581e-02,
          -1.05673954e-01, -8.15613568e-03, -1.38459234e-02,
          -7.17132837e-02, -2.51808502e-02, 9.96568874e-02,
          -2.10916041e-03, 3.68110500e-02, 1.55925648e-02,
          -4.04519886e-02, 1.08236425e-01, 1.72637142e-02,
          -3.98329459e-02, -3.28524038e-02, 8.37811381e-02,
          -3.07490751e-02, 1.93016808e-02, 5.76149020e-03,
          6.42189384e-02, 6.55006664e-03, 1.06546983e-01, 1.62203144e-02,
          -1.35478622e-03, 1.04614861e-01, -5.00612222e-02,
          3.22640054e-02, 9.15527120e-02, 1.85633581e-02, 1.00840747e-01,
          9.28262398e-02, 1.17994994e-02, 2.18189918e-02, 1.21317163e-01,
          -1.45720402e-02, 5.73087893e-02, 1.18923120e-01,
          6.09981008e-02, 3.18118334e-02, 1.63627379e-02,
          -3.45029198e-02, -9.51604843e-02, -5.82510875e-05,
          -1.66104063e-02, -1.27195157e-02, -2.30457485e-02,
          1.88899972e-03, 3.64225507e-02, 8.98064524e-02, 2.48871800e-02,
          -7.22751394e-03, 1.20957561e-01, 5.03911711e-02,
          4.48453762e-02, 6.02371469e-02, 3.69364135e-02, 3.58028039e-02,
          9.23535749e-02, 4.19404358e-03, -7.17583252e-03,
          7.01056123e-02, -4.09450009e-02, 1.32533617e-03,
          1.18881008e-02, 2.77824420e-02, 8.95155296e-02, 6.60613999e-02,
          2.05477066e-02, -1.76518485e-02, 1.82812307e-02,
          -6.99557215e-02, -7.67436670e-03, 4.50159349e-02,
          6.38107955e-02, -1.83623657e-02, 1.30139273e-02,
          1.62720103e-02, 4.49443981e-03, 9.63642821e-02, 1.26070054e-02,
          3.08876712e-04, 3.09549477e-02, -2.28054002e-02,
          4.38739322e-02, 4.94269505e-02, 2.64193546e-02,
          -1.29890544e-02, 7.03127012e-02, -1.72567591e-02,
          9.70272534e-03, -7.04015121e-02, -4.89564054e-02,
          6.38237819e-02, 5.38579635e-02, 1.94971785e-02,
          -6.24465873e-04, 6.98415861e-02, -3.10939997e-02,
          1.08441683e-02, 3.72081995e-02, 8.81469436e-03, 1.02721170e-01,
          7.69279450e-02, 8.44462682e-03, -7.56275207e-02,
          8.01551417e-02, 2.33546551e-02, 3.71674336e-02, 1.02207482e-01,
          1.98384225e-02, 5.73786572e-02, 5.03402390e-02, 3.60439830e-02,
          -2.41663400e-02, 2.40354445e-02, 9.77739226e-03,
          3.66370119e-02, -6.56517148e-02, -2.49482952e-02,
          1.95212122e-02, 8.27362761e-02, 6.67836517e-02, 1.12626818e-03,
          1.29139319e-01, -1.60484891e-02, 9.52311307e-02,
          -4.70994040e-02, -4.82754558e-02, 4.17656079e-02,
          7.15303719e-02, 6.08929840e-05, -1.22035518e-01,
          9.74239968e-03, 1.82496440e-02, 6.82417154e-02, 8.12448859e-02,
          -1.21625804e-03, 8.32639858e-02, 9.51048136e-02,
          6.06617779e-02, 9.22472775e-03, 5.70931286e-02,
          -3.20037343e-02, 2.00883262e-02, 5.49483150e-02,
          8.91999081e-02, -1.56241888e-02, 6.42606243e-02,
          7.49952495e-02, 3.41794305e-02, 7.46476278e-02,
          -5.49582504e-02, 3.29734012e-02, -4.02533859e-02,
          -4.52169590e-02, 3.54693830e-02, 1.81149095e-02,
          8.42425898e-02, 4.20581214e-02, 8.95729437e-02,
          -9.34939738e-03, -4.13159234e-03, -1.61929931e-02,
          5.16602136e-02, 1.93474479e-02, 2.23653819e-02, 1.12185506e-02,
          6.35197992e-03, 4.86901999e-02, -4.30079922e-02,
          -2.04337072e-02, 3.55915762e-02, 4.25454341e-02,
          3.43242548e-02, 3.46169136e-02, 4.49588485e-02, 3.25762145e-02,
          1.04629293e-01, -2.50006747e-02, 4.10814881e-02,
          1.29694194e-01, 3.81103493e-02, -1.35336854e-02,
          -1.23114176e-02, 7.00667128e-02, 1.98521540e-02,
          4.66472507e-02, -6.82694018e-02, -6.33324822e-03,
          -1.71909276e-02, -5.92698390e-03, -3.01223388e-03,
          7.70089179e-02, 9.96173769e-02, 4.19796407e-02,
          -1.03010738e-03, -7.50335231e-02, -6.61327876e-03,
          -3.43800634e-02, 3.17000635e-02, 1.39134256e-02,
          2.33048145e-02, 3.97500023e-02, 2.52260901e-02, 5.75862490e-02,
          -4.08616699e-02, 4.59297001e-02, 9.84441787e-02,
          2.60929391e-02, 3.91281396e-02, 8.45647678e-02, 1.10644400e-01,
          1.01885188e-03, 8.54614601e-02, 1.01090474e-02, 3.58829536e-02,
          8.83661434e-02, -2.44123098e-02, -1.40907206e-02,
          2.78334282e-02, 5.10006361e-02, 1.51650235e-02, 5.06853275e-02,
          -6.63147196e-02, -2.12215763e-02, -6.39099255e-02,
          1.51425106e-02, 6.00677431e-02, 4.09565978e-02, 1.02343313e-01,
          2.44670399e-02, 6.61310926e-02, -6.10607602e-02,
          5.11451112e-03, -6.43591657e-02, 3.54304202e-02,
          -4.73642871e-02, 2.57093664e-02, 6.94202334e-02,
          -2.32872777e-02, 3.45860533e-02, -5.71723133e-02,
          -8.04884359e-03, 1.01656495e-02, -5.87258488e-02,
          -9.01817903e-03, 9.55262396e-04, 8.27472657e-02,
          -3.55501324e-02, -5.23068151e-03, -8.27157944e-02,
          6.40338659e-02, 3.40864733e-02, 1.73681751e-02,
          -2.29129735e-02, 3.37775908e-02, 7.10247234e-02,
          -2.60963012e-02, 2.44941749e-03, -8.28913227e-02,
          -1.88852735e-02, -9.70535874e-02, -4.25182804e-02,
          4.17486653e-02, -1.80750452e-02, 7.22745899e-03,
          -1.38391936e-02, 5.59694134e-02, -2.64712144e-02,
          4.36560102e-02, -1.11858128e-02, 5.30367084e-02,
          -2.68396940e-02, -4.63036783e-02, -2.75470037e-02,
          -6.78608194e-02, -2.80406307e-02, -5.86404800e-02,
          3.05286013e-02, -6.70055225e-02, -4.26223874e-02,
          8.36303681e-02, 4.19877172e-02, 4.81829606e-02,
          -1.31810866e-02, -8.77020299e-04, -1.92950834e-02,
          4.36320528e-02, 1.04457783e-02, 4.64949869e-02, 2.22710557e-02,
          -8.13604966e-02, -8.48780125e-02, -1.95993260e-02,
          -2.75117811e-02, -5.64032830e-02, -4.36792970e-02,
          -6.97655827e-02, 1.37957102e-02, 9.77405906e-02,
          -1.98550485e-02, 5.21246204e-03, 2.05623154e-02,
          2.07001548e-02, -3.83918062e-02, -9.67842247e-03,
          -7.39807710e-02, 1.26407221e-01, 2.43679769e-02,
          4.64353105e-03, -2.11156439e-02, -6.02686405e-02,
          -8.34811404e-02, -4.78677154e-02, 4.61416366e-03,
          -5.17768785e-02, 2.65357038e-03, 1.31436363e-01,
          9.71831530e-02, 2.36845016e-02, 1.01991259e-02, 4.46122233e-03,
          -3.08543276e-02, 2.08906718e-02, -3.02440184e-03,
          1.21539727e-01, 1.10567547e-01, -1.48839829e-02,
          -5.67102022e-02, -7.81887956e-03, -8.02008808e-02,
          -1.44545604e-02, -1.89514793e-02, -3.89179140e-02,
          1.03762880e-01, 9.16056857e-02, 2.83952653e-02,
          -3.33492644e-02, 1.07112229e-02, -1.86607148e-02,
          -9.71009303e-03, -1.90015491e-02, 5.64745665e-02,
          1.11700237e-01, 1.07549869e-01, 4.24640514e-02,
          -2.08772607e-02, 1.91250574e-02, -4.97162454e-02,
          -6.63426593e-02, -3.56247462e-02, 4.11403738e-02,
          1.18560404e-01, 1.79325659e-02, 3.40246260e-02,
          -9.98760536e-02, -5.44413105e-02, -3.73250507e-02,
          -7.13164061e-02, -3.15528922e-02, 8.33394825e-02,
          1.13843158e-01, 3.26707587e-02, 1.36496946e-01, 4.89520431e-02,
          6.94497153e-02, -2.19267756e-02, 2.09627412e-02,
          -8.15541111e-03, 7.36432746e-02, -1.87975485e-02,
          1.47369616e-02, 3.31653506e-02, -1.96090546e-02,
          5.48446812e-02, -1.52066229e-02, -1.73327909e-03,
          -1.81192290e-02, 3.55437286e-02, -3.97623256e-02,
          -5.95480017e-02, 4.07118201e-02, -2.38374388e-03,
          3.08672190e-02, -1.24902856e-02, 3.00477557e-02,
          7.50918165e-02, 8.92031491e-02, -6.33258596e-02,
          -4.77817468e-02, -2.44936831e-02, -7.81846642e-02,
          2.38207192e-03, -5.25867492e-02, 2.37340238e-02,
          1.67142339e-02, 2.18621362e-02, -3.63158919e-02,
          6.71970949e-04, 1.11382632e-02, -6.73520118e-02,
          1.12440251e-02, 3.99032421e-03, 4.33262363e-02,
          -1.46102384e-02, 1.38879111e-02, 3.90755050e-02,
          5.99568151e-02, 6.53052106e-02, -1.14508700e-02,
          -1.46504510e-02, -3.32984924e-02, -5.58822863e-02,
          -9.14231241e-02, 4.94088307e-02, 1.31424546e-01,
          2.31737532e-02, -1.31226480e-02, -4.03326936e-02,
          1.47633749e-04, 3.18881124e-03, 3.19098867e-02, 1.59974564e-02,
          -4.89420258e-02, -2.69356649e-03, 6.68068277e-03,
          -1.50055466e-02, -1.66319292e-02, -2.93368343e-02,
          -3.21155302e-02, 8.84525776e-02, 7.73533899e-03,
          3.85892317e-02, 8.02304000e-02, 5.22753298e-02, 3.98426093e-02,
          3.51433679e-02, -1.61999725e-02, 4.88348156e-02,
          1.07366266e-02, 3.89778018e-02, 1.11733064e-01, 1.67116076e-01,
          1.61453499e-03, 7.95160905e-02, 3.25240307e-02,
          -5.48882671e-02, -3.09131183e-02, -8.21168870e-02,
          -3.78207453e-02, 2.99114343e-02, 2.86433417e-02,
          -5.39114028e-02, 3.96220535e-02, 5.91772310e-02,
          2.75689978e-02, 6.61873147e-02, 3.19087342e-03, 1.08999275e-02,
          2.04901285e-02, -2.50270385e-02, -5.76532260e-02,
          -1.35090770e-02, -4.93673794e-03, -5.79240248e-02,
          -4.98057809e-04, -3.66473347e-02, 8.97298305e-05,
          5.54589368e-02, -1.73635744e-02, 1.06860313e-03,
          1.01897530e-01, 1.16535246e-01, 6.47035940e-03, 2.98815966e-02,
          -3.14752455e-03, 2.93425843e-02, 5.85607067e-02,
          -1.05477097e-02, -2.61254981e-02, 2.42773537e-02,
          2.24863179e-02, -3.87219302e-02, 1.89064145e-02,
          -6.47310987e-02, -4.77102101e-02, -6.61971867e-02,
          -6.06593862e-03, -1.36587154e-02, 2.47600470e-02,
          4.84063514e-02, 8.15634849e-04, 4.96826991e-02,
          -7.89217930e-03, 3.56971435e-02, 1.15518138e-01,
          6.58859313e-02, -4.22613062e-02, -7.67963603e-02,
          -5.16087227e-02, -2.52103731e-02, 2.80929543e-02,
          -9.62258801e-02, -5.54341786e-02, 8.46719649e-03,
          4.63882973e-03, -4.53130491e-02, 5.73338494e-02,
          3.30965444e-02, 1.09670432e-02, 1.30663425e-01, 2.02988107e-02,
          4.55584154e-02, -1.86130051e-02, -7.11283013e-02,
          -3.55686285e-02, 7.63166472e-02, 8.13068673e-02,
          1.06751677e-02, 1.66192695e-01, 4.78187837e-02, 9.69870910e-02,
          9.62946042e-02, -7.05921426e-02, -7.31213614e-02,
          -7.76167260e-03, 3.23054679e-02, 4.57947329e-02,
          7.97234997e-02, -3.83992009e-02, -7.11841695e-03,
          -3.31667252e-02, -5.08003980e-02, -1.03556074e-01,
          -1.23977186e-02, 2.63858791e-02, 1.24824708e-02,
          3.74954753e-02, 1.13552548e-02, 4.88192737e-02, 7.05922320e-02,
          -1.45784346e-02, -2.75680646e-02, 3.40365879e-02,
          -1.46861398e-03, -2.72727851e-02, 1.18831173e-01,
          1.69870127e-02, 3.95911708e-02, 3.90620064e-03,
          -4.77621630e-02, 1.17957860e-01, 3.24336179e-02,
          4.44911867e-02, 1.89630520e-02, 9.14828852e-02, 6.38214638e-03,
          3.56637500e-02, 4.75372188e-02, 6.94288462e-02,
          -6.45858273e-02, -2.93138213e-02, 7.17169279e-03,
          7.57266162e-03, 6.91079795e-02, -1.55029492e-02,
          -5.34491837e-02, -6.70086369e-02, -5.39001338e-02,
          9.52460468e-02, 1.01700062e-02, -2.00624876e-02,
          -6.14721775e-02, 6.98965266e-02, 8.48762225e-03,
          -2.65796408e-02, -5.55401482e-02, 5.16447499e-02,
          4.35951725e-02, -3.76686752e-02, -1.42271845e-02,
          -2.37156805e-02, 6.99885711e-02, -3.68640050e-02,
          3.98194231e-02, -1.94548108e-02, 8.08985997e-03,
          8.45562145e-02, 5.73137887e-02, 8.27436745e-02,
          -1.33167757e-02, 3.94582376e-02, -8.59830901e-02,
          -3.28721304e-04, 8.60100891e-03, 7.47615844e-02,
          -1.27010532e-02, -3.20523642e-02, 5.15069393e-03,
          -4.67587039e-02, 1.23450108e-01, -5.50278602e-03,
          -4.49821614e-02, -1.26029208e-01, -4.73811728e-04,
          6.31935909e-05, -7.76803028e-03, 4.52965423e-02,
          -2.24345196e-02, 5.33756316e-02, 6.04515104e-03,
          1.10652214e-02, -7.08587170e-02, 9.13407002e-03,
          -6.18081586e-03, 1.14651229e-02, 5.38447127e-02,
          1.22842221e-02, 1.75902992e-02, -3.66284177e-02,
          -2.05743359e-03, -2.29226537e-02, -5.29080033e-02,
          -1.81881096e-02, 6.50066510e-02, 4.46383767e-02,
          -3.88039723e-02, 1.15454048e-01, -2.87116505e-02,
          4.67138365e-02, 2.17973255e-02, -4.70768847e-02,
          -9.35678408e-02, -3.92464884e-02, 1.83544755e-02,
          2.05545649e-02, 6.57191351e-02, 3.35760489e-02, 2.59157340e-03,
          -3.61106917e-02, -5.49219027e-02, -2.14320677e-03,
          -1.10789342e-02, 2.99493186e-02, -3.33253294e-02,
          4.93649691e-02, 4.08891290e-02, 5.12771755e-02, 7.06628561e-02,
          5.09275496e-03, 3.17384042e-02, 1.01252183e-01, 4.58475389e-02,
          -4.07376364e-02, 1.65976807e-02, -3.97836380e-02,
          2.80640516e-02, 2.04400532e-02, -6.93994835e-02,
          8.77497867e-02, 7.10671395e-02, 6.16338365e-02, 1.81028955e-02,
          8.24468434e-02, -5.79637215e-02, 4.51119654e-02,
          6.78584799e-02, 1.11773852e-02, 3.84147428e-02, 1.33938938e-02,
          7.40471110e-02, -1.75969806e-02, 3.33656120e-04,
          -1.16559956e-02, 2.55890787e-02, 7.47239888e-02,
          6.92523196e-02, -4.92076203e-02, -2.69155316e-02,
          -3.60193327e-02, -6.76897764e-02, -2.39625927e-02,
          -8.32110718e-02, -1.17891235e-03, 3.44198979e-02,
          -3.27106914e-03, 1.86834354e-02, 1.15026748e-02,
          6.67182915e-03, -2.42156778e-02, 4.89393175e-02,
          -4.90705967e-02, 2.99443342e-02, 4.51864861e-02,
          -1.92197803e-02, 9.57674310e-02, 2.92837191e-02,
          6.36369502e-03, -5.75408824e-02, 3.88489664e-02,
          -2.62787156e-02, 7.72697851e-02, 9.56463516e-02,
          2.26360988e-02, -4.10926603e-02, -7.83415213e-02,
          -3.34635600e-02, -7.34126642e-02, -2.11062864e-03,
          -1.84973341e-03, 6.29689917e-02, 6.38665557e-02,
          -8.30936953e-02, 1.00902207e-01, -3.40090320e-02,
          -2.84531284e-02, -1.05404578e-01, -5.12845591e-02,
          -4.06556651e-02, 7.45350644e-02, 8.88534263e-02,
          4.32460643e-02, -2.37610843e-02, -1.24830520e-03,
          -2.34031137e-02, -2.00890601e-02, 4.22223657e-02,
          -1.89358983e-02, 1.08323544e-02, 3.76700275e-02,
          -3.74395512e-02, -3.07607222e-02, 3.27267721e-02,
          6.20412193e-02, -2.07514726e-02, 5.05559854e-02,
          -3.17535512e-02, 1.48983737e-02, 1.10338055e-01,
          2.49451939e-02, 4.07659821e-02, -4.94355075e-02,
          -3.77321802e-02, -1.08353183e-01, -5.83190322e-02,
          -3.77631336e-02, 1.12638073e-02, 2.20735762e-02,
          -3.78590673e-02, 9.75244865e-02, 2.65408829e-02,
          1.69994570e-02, -8.15309882e-02, 2.94388179e-02,
          -4.72893864e-02, 2.57130470e-02, 1.19305506e-01,
          5.46813123e-02, -8.30449611e-02, -1.08509863e-04,
          5.85105829e-02, 4.81288787e-03, 3.12972590e-02,
          -5.33359870e-02, 9.71753523e-03, 1.96113400e-02,
          -8.78366008e-02, 8.24020058e-03, -3.25375237e-02,
          7.98587501e-02, 4.62407991e-02, 8.93933047e-03,
          -2.92441901e-02, 8.74554887e-02, 5.59947416e-02,
          2.48160567e-02, -2.72904560e-02, -2.37856116e-02,
          -1.59133654e-02, -5.24996854e-02, 4.21652384e-02,
          -6.10605739e-02, 3.44989896e-02, 4.84904349e-02,
          -1.61041711e-02, -3.54786334e-03, -7.23617245e-03,
          9.04650912e-02, -1.69920083e-02, 2.64731627e-02,
          -1.94322076e-02, 9.48399454e-02, 2.25884020e-02,
          2.60185134e-02, -3.88220996e-02, -1.05981916e-01,
          -2.56661959e-02, -4.30382900e-02, -5.08509763e-02,
          -3.42762396e-02, 2.56150793e-02, -7.38163143e-02,
          -6.77071512e-02, 7.20763952e-02, 4.94111292e-02,
          7.29941055e-02, 3.01382970e-03, -5.16651105e-03,
          1.14210481e-02, 3.10214646e-02, -1.39431469e-03,
          6.08235374e-02, -6.00873977e-02, -4.58597988e-02,
          2.35601999e-02, -3.58372107e-02, -4.91918996e-02,
          -3.65731940e-02, 3.12397908e-02, -1.17202453e-01,
          -9.35118496e-02, 2.23267525e-02, -3.02520338e-02,
          1.21461153e-02, -3.20682228e-02, 6.22044690e-02,
          2.29306892e-02, 7.77867809e-02, -2.52003744e-02,
          3.22902016e-02, 3.23217958e-02, 3.56635749e-02, 3.84294465e-02,
          -3.97415310e-02, -7.08745569e-02, -2.58391108e-02,
          -2.62571238e-02, -5.31652458e-02, -2.73960340e-03,
          9.24038738e-02, 3.18655260e-02, 7.25608617e-02, 4.33841832e-02,
          4.60531563e-02, -9.10806004e-03, 4.02226932e-02,
          3.01955678e-02, 1.36140481e-01, -8.07863250e-02,
          -1.41353160e-01, -9.66635868e-02, -8.07836354e-02,
          -8.99472758e-02, -4.70004529e-02, -3.38962153e-02,
          -7.88804665e-02, -1.95241813e-02, -1.25523203e-03,
          -7.10320398e-02, 2.96294745e-02, -1.71716604e-02,
          5.56150498e-03, -5.18599525e-02, 2.23560035e-02,
          2.10566316e-02, 3.94820534e-02, 4.83365096e-02,
          -2.93315556e-02, -3.28331068e-02, 1.35657340e-02,
          -1.48568880e-02, -5.93374744e-02, -4.00428241e-03,
          4.13618647e-02, 1.10275924e-01, 1.11009013e-02,
          -1.12635754e-02, -7.65304193e-02, -8.30740184e-02,
          -7.95051157e-02, -4.08856459e-02, -3.40065844e-02,
          7.28616491e-02, 1.12262487e-01, -4.97974455e-02,
          -8.74350369e-02, -1.15223108e-02, -1.75574850e-02,
          -4.62317914e-02, -1.63787436e-02, 2.85006929e-02,
          4.00771387e-02, 4.72671911e-02, -1.83264166e-02,
          -2.03283560e-02, -3.88038866e-02, -6.36120960e-02,
          -3.91816534e-02, 2.51279846e-02, 7.35128447e-02,
          8.22235271e-02, 5.91556728e-02, -2.14359108e-02,
          9.86888036e-02, 2.46806145e-02, 1.35952588e-02, 3.12827118e-02,
          1.99028067e-02, 7.25414976e-03, 4.32251506e-02,
          -1.54136466e-02, -1.47926835e-02, 3.97869796e-02,
          5.11232438e-03, -3.40827578e-03, -5.71404584e-02,
          -3.55129391e-02, -3.26530039e-02, -7.30923787e-02,
          -1.23894913e-02, 2.04550475e-02, 9.83228013e-02,
          9.73280892e-03, 8.84975959e-03, 1.97265483e-02, 8.59793946e-02,
          3.92492190e-02, 4.79293168e-02, -5.12982626e-03,
          -4.19681659e-03, 1.98652521e-02, 3.47896740e-02,
          -1.71384402e-02, -7.09342286e-02, -1.48074813e-02,
          -5.78287765e-02, -2.17483379e-02, 1.55738750e-02,
          -2.83872779e-03, -2.08834689e-02, -1.45487217e-02,
          -2.44376138e-02, -2.53542978e-02, 2.50546690e-02,
          -1.06924726e-03, -5.22312969e-02, 2.66205054e-02,
          3.27668823e-02, 1.34659298e-02, 1.99832115e-02,
          -5.37348771e-03, -1.03381917e-01, -2.72399560e-02,
          -3.47533114e-02, 3.11999787e-02, 7.39233866e-02,
          -3.35863866e-02, -3.27902362e-02, 3.29095647e-02,
          -1.67327374e-02, -8.96839146e-03, -2.33716704e-02,
          -4.44611944e-02, -2.20656991e-02, -5.23109827e-03,
          -5.26768081e-02, 1.88079546e-03, 7.74859264e-02,
          8.73849615e-02, 4.39639688e-02, 2.76357606e-02, 3.92556041e-02,
          2.89062299e-02, 2.19804030e-02, -5.74492791e-04,
          5.03430553e-02, 5.44475988e-02, 4.75040004e-02, 2.77843010e-02,
          -6.99323881e-03, -7.73151964e-03, 5.81585541e-02,
          6.86478317e-02, 9.39890146e-02, 3.04952767e-02, 2.18798313e-02,
          -1.41294841e-02, -5.09940945e-02, -9.07764658e-02,
          -1.46986261e-01, -2.82443594e-02, 6.52215406e-02,
          -2.67454423e-02, 1.65635832e-02, 5.33046350e-02,
          5.60011454e-02, 5.55401221e-02, 2.75466614e-03, 1.01470407e-02,
          -1.52215343e-02, -4.76951636e-02, 1.78159308e-03,
          2.68410724e-02, -2.05584988e-02, -2.41435319e-03,
          -1.61408707e-02, -7.18206614e-02, -6.36598766e-02,
          -2.69978773e-02, 2.24459525e-02, 5.21946661e-02,
          1.92297194e-02, 3.39024290e-02, 2.99239065e-02, 6.92458004e-02,
          -3.08988634e-02, -4.66517545e-02, 5.08899651e-02,
          1.50930688e-01, -2.41849087e-02, -2.57348586e-02,
          -4.29795906e-02, -2.72253174e-02, 3.83350961e-02,
          -1.26524001e-01, -1.49736434e-01, -2.68247575e-02,
          1.21718077e-02, 1.45657279e-03, 2.09734403e-02,
          -4.08306681e-02, -2.54780203e-02, 1.00934587e-01,
          -3.21628340e-02, -3.37869413e-02, -6.03427179e-03,
          4.79050353e-03, -2.03281268e-02, 7.46965269e-03,
          -7.74920285e-02, -8.43723938e-02, 7.35872984e-02,
          -6.81108087e-02, -7.67674148e-02, -2.30258591e-02,
          7.26292888e-03, -1.00310758e-01, 5.52791543e-02,
          3.34814377e-02, 1.26262766e-03, 3.28212902e-02,
          -3.43491510e-02, -5.43994233e-02, 1.53612979e-02,
          -1.55880293e-02, -8.50075390e-03, 5.83708510e-02,
          3.27392705e-02, -1.95224546e-02, 2.15774146e-03,
          -2.46378668e-02, -1.93623882e-02, 5.93266543e-03,
          -8.28159973e-03, 1.28520159e-02, 6.00328036e-02,
          -2.59503792e-03, -4.97814864e-02, 4.31113280e-02,
          -4.72011194e-02, -3.44202085e-03, -1.41088553e-02,
          -1.70669868e-03, 8.98125954e-03, 8.47230181e-02,
          -3.75772938e-02, -1.06477365e-01, -3.84710468e-02,
          -4.46720421e-02, 2.34742500e-02, 7.93641731e-02,
          3.32454331e-02, -2.00628340e-02, 2.52532191e-03,
          -1.14159333e-03, 1.69585906e-02, 5.72076812e-02,
          -1.06728738e-02, -5.41873462e-02, -7.76549894e-03,
          5.63920476e-02, 2.38056760e-02, -1.79778785e-02,
          -3.55826467e-02, -6.39126971e-02, 7.82966092e-02,
          -3.95915397e-02, -5.08763380e-02, -5.63311689e-02,
          4.31895480e-02, -4.99608517e-02, -1.97307742e-03,
          -3.29407901e-02, -3.09025459e-02, 3.01068816e-02,
          -8.36931635e-03, 1.45912450e-02, 5.16017191e-02,
          7.26830820e-03, 2.21744943e-02, 9.41339321e-03,
          -5.68348393e-02, -7.27829188e-02, 4.90763709e-02,
          -2.43953746e-02, 2.79672425e-02, 5.23405597e-02,
          7.38834664e-02, -3.90897766e-02, -5.97991757e-02,
          -6.23698533e-02, -8.62152800e-02, 6.23808354e-02,
          -5.28478473e-02, -8.07511061e-02, -1.06763758e-01,
          3.70626850e-03, 3.49344860e-04, 2.23726444e-02, 6.88454974e-03,
          -2.89620813e-02, 7.77199417e-02, 2.80959671e-03,
          -2.53117364e-03, -1.66511443e-02, 8.03056732e-02,
          2.88706999e-02, 1.03196837e-02, -7.48589113e-02,
          -1.43329933e-01, -1.55076645e-02, -3.06189992e-02,
          -2.77278647e-02, 4.58237827e-02, 5.94700500e-02,
          1.15483589e-01, 1.05506264e-01, -2.08005197e-02,
          -8.93185735e-02, -6.45290241e-02, -1.98904444e-02,
          2.14347476e-03, 8.42244700e-02, 6.54817298e-02,
          -6.35142252e-02, -6.64424105e-03, 3.01606413e-02,
          -1.17668211e-02, 2.19635367e-02, -5.36409989e-02,
          -2.43388135e-02, -5.08266836e-02, 1.37359239e-02,
          3.27527290e-03, 4.66649756e-02, 7.60731250e-02,
          -1.34732276e-02, 2.90385783e-02, 1.59277953e-02,
          3.35485525e-02, 6.27449825e-02, 7.03740418e-02, 3.69400829e-02,
          6.05849288e-02, 1.45202419e-02, -4.26286161e-02,
          -5.81393093e-02, -8.47651884e-02, -2.09055524e-02,
          -2.33802702e-02, -1.41208591e-02, 5.44654317e-02,
          4.58425982e-03, 5.28516732e-02, -5.32057434e-02,
          -1.80453584e-02, -3.76766622e-02, 3.38777378e-02,
          2.64346637e-02, 1.27267493e-02, 5.74551057e-03,
          -1.60030625e-03, 6.41136467e-02, -2.29423773e-02,
          5.19641954e-03, -1.68442931e-02, -2.63250060e-02,
          3.11444048e-02, 5.43723591e-02, -2.10467372e-02,
          -4.46869954e-02, -1.33206705e-02, -4.85394560e-02,
          -4.35218401e-02, -1.05946682e-01, -4.31227162e-02,
          -2.65693311e-02, 5.65104000e-02, -3.77956554e-02,
          5.14144369e-04, -1.20718330e-02, -5.02189398e-02,
          3.36691104e-02, 1.96666624e-02, 2.89180018e-02,
          -2.39766296e-02, -5.17253317e-02, 4.78127822e-02,
          1.67390257e-02, 2.84724310e-02, -4.95839082e-02,
          2.63710767e-02, 2.01760884e-02, 8.94499123e-02, 7.24322572e-02,
          3.57407108e-02, -2.31795460e-02, -7.31433481e-02,
          -5.71937263e-02, -8.57514367e-02, -1.39516694e-02,
          -4.89052683e-02, 3.10154632e-02, -1.03041930e-02,
          8.85243528e-03, -1.36697702e-02, -7.13272393e-02,
          -4.56201211e-02, -5.11770025e-02, -2.75568962e-02,
          -9.71556976e-02, -3.66602354e-02, -4.97548245e-02,
          2.07735114e-02, 3.93860005e-02, -8.02385062e-03,
          -4.34724055e-02, -1.02826975e-01, 1.99296065e-02,
          4.20540087e-02, 9.76963118e-02, 4.96090129e-02, 2.94067338e-02,
          2.28712335e-02, 5.72403371e-02, -3.24621052e-02,
          -6.69946000e-02, -1.85111016e-02, -7.31712431e-02,
          3.57141830e-02, -1.31560080e-02, 4.30973470e-02,
          -8.55425894e-02, -1.07097425e-01, -4.77808937e-02,
          -3.46166976e-02, -2.14233845e-02, -7.81108290e-02,
          -1.93827115e-02, -3.40886451e-02, -5.71791753e-02,
          4.46732575e-03, -1.39717627e-02, -2.31241379e-02,
          -5.27768657e-02, 3.69171165e-02, -5.10081835e-02,
          2.15804297e-03, 3.97785363e-04, 1.34351826e-03,
          -1.21744432e-01, -1.99705847e-02, -2.51482446e-02,
          -2.11632065e-02, 1.49796354e-02, -3.92323099e-02,
          1.98912080e-02, -3.30493301e-02, -3.44908014e-02,
          -3.17354985e-02, 8.68430361e-04, 3.45207681e-03,
          -2.61389557e-03, 4.01610062e-02, 8.96826095e-05,
          2.22352426e-02, -1.14909010e-02, 6.52502775e-02,
          -6.92709610e-02, -5.51388636e-02, -5.38503975e-02,
          -4.25376892e-02, 6.23661093e-02, -4.72652949e-02,
          -3.25518735e-02, -2.41798311e-02, -5.02824672e-02,
          -3.18989679e-02, -2.34915800e-02, -1.40155703e-02,
          -7.80967101e-02, 1.51723018e-02, 9.57671460e-03,
          4.02937196e-02, 3.44231608e-03, -2.86827004e-03,
          -1.19901799e-01, -9.84140262e-02, -9.15158466e-02,
          -3.05127390e-02, 8.26736242e-02, 1.58433020e-02,
          -4.04233821e-02, 9.39767808e-03, -3.74686322e-03,
          1.67211157e-03, -1.41951079e-02, -2.94150431e-02,
          -4.65451218e-02, 9.10999551e-02, 6.22032210e-02,
          1.34218484e-02, 2.49572136e-02, 4.82770912e-02,
          -2.96377894e-02, -9.74031091e-02, -7.35986105e-04,
          -6.31146729e-02, -6.45568268e-03, -1.88903380e-02,
          -2.16159001e-02, -8.55168551e-02, -1.13693140e-01,
          9.84732062e-03, -6.14937395e-02, -3.16318087e-02,
          -6.76213056e-02, 2.02201102e-02, -1.17643224e-02,
          3.30557413e-02, -3.22513320e-02, 1.99456513e-03,
          -3.16979587e-02, -1.62626319e-02, -4.42034714e-02,
          -1.10322602e-01, 2.09512338e-02, 1.39166247e-02,
          -2.52557211e-02, -7.06658065e-02, -4.09484841e-02,
          7.73632526e-02, 2.36155968e-02, -1.81578826e-02,
          -7.68970400e-02, -5.00138523e-03, 8.43453780e-03,
          1.80700701e-02, -1.27372900e-02, 4.07936834e-02,
          -8.01265761e-02, -1.24244131e-01, -9.71529409e-02,
          -4.41048592e-02, -3.29253413e-02, -1.15604857e-02,
          -1.01403669e-02, -7.28478357e-02, -4.25033681e-02,
          -2.39905026e-02, -2.79688891e-02, 2.85357814e-02,
          -3.23745385e-02, -4.86083375e-03, 4.42957431e-02,
          5.68881817e-02, 3.48129794e-02, 5.98098040e-02, 7.73171009e-03,
          -7.43715465e-02, -9.13772285e-02, -8.49472210e-02,
          -5.46084866e-02, -2.43862495e-02, -6.38499334e-02,
          -4.89587225e-02, -1.84616633e-02, 8.59223530e-02,
          4.98787849e-04, 1.58112347e-02, -5.89081906e-02,
          2.04068236e-02, 5.66032454e-02, 3.91435958e-02, 1.63232386e-02,
          7.13088512e-02, -6.40008673e-02, -5.28261326e-02,
          2.20848341e-02, -1.13258315e-02, -4.54109944e-02,
          2.45426665e-03, -2.20059399e-02, -3.34363021e-02,
          5.28489202e-02, 1.90114006e-02, -4.77936864e-02,
          -6.76193926e-03, -1.96423917e-03, -1.58285722e-02,
          1.64652038e-02, 1.17518259e-02, 6.51731342e-02, 1.05953343e-01,
          2.95778494e-02, -5.51891923e-02, -4.32710275e-02,
          -8.89167562e-02, -5.32882549e-02, -4.64183427e-02,
          -8.39950517e-03, -5.65989390e-02, 5.97157702e-02,
          8.73614685e-04, -5.94449528e-02, -3.91289741e-02,
          -9.86318383e-03, 8.43696110e-03, 2.63677532e-04,
          6.06464455e-03, 5.96568361e-02, 1.04764678e-01, 2.17254609e-02,
          1.04889952e-01, -7.92712346e-03, 2.34425440e-02,
          1.10749938e-02, 5.19850664e-02, 2.36352459e-02, 5.81419915e-02,
          1.68243051e-02, -1.03651546e-02, 4.00876924e-02,
          1.51232844e-02, -3.63164442e-03, -9.35679376e-02,
          -1.45092800e-01, -1.38234034e-01, -6.54377118e-02,
          -3.07860449e-02, -6.67773653e-03, 1.05241358e-01,
          4.55906913e-02, 3.61763053e-02, -9.56493057e-03,
          7.79916272e-02, 9.44197103e-02, 8.79652351e-02, 3.70252170e-02,
          -5.92745142e-03, 9.53102112e-02, 2.10462138e-02,
          3.15641128e-02, -1.34722307e-01, 2.82738432e-02,
          -1.90353263e-02, 1.55544402e-02, 3.45286168e-02,
          -6.67526620e-03, -2.14495864e-02, 2.17910372e-02,
          1.63804158e-03, 2.10626870e-02, -7.68178701e-02,
          -4.40157317e-02, -4.30402608e-04, -1.73776336e-02,
          1.90703459e-02, 5.04330844e-02, 8.25548470e-02, 7.72819668e-02,
          7.32848644e-02, -1.76840741e-02, -1.52303558e-02,
          1.68570206e-02, 2.47055236e-02, -1.74893420e-02,
          8.42702091e-02, 7.59427398e-02, 5.89494668e-02,
          -6.68419898e-02, 7.89191723e-02, 5.15914448e-02,
          7.30449241e-03, -3.50320004e-02, 5.92389703e-02,
          3.81509215e-02, 7.13877529e-02, 7.36099780e-02,
          -1.09006666e-01, 8.44628960e-02, 2.64647081e-02,
          1.28161665e-02, 4.23649065e-02, -8.76021106e-03,
          -3.97320129e-02, -3.01294997e-02, 4.96728346e-02,
          1.02919571e-01, -1.28950765e-02, -1.86216254e-02,
          4.90065850e-02, 4.22075428e-02, -5.32929935e-02,
          -1.45047838e-02, -4.30203825e-02, 3.41803804e-02,
          2.09614132e-02, -1.85982630e-01, -1.66883484e-01,
          -1.15028687e-01, -4.42029573e-02, 5.86878695e-03,
          2.42635305e-03, 4.08439264e-02, 9.31767374e-02,
          -3.94559279e-02, 9.16444957e-02, 4.61847037e-02,
          1.57924462e-02, 5.64895421e-02, 5.56046031e-02, 5.59689477e-02,
          3.78634408e-02, 1.22872397e-01, -4.54088077e-02,
          1.06157660e-01, 6.09993935e-02, -1.79396532e-02,
          3.98944989e-02, -3.56690250e-02, -8.41650832e-03,
          -7.95664415e-02, -7.36349868e-03, 1.19187683e-01,
          -7.13247387e-03, -9.52818170e-02, -3.03270854e-02,
          1.62234027e-02, -4.20524143e-02, -3.46409455e-02,
          -1.08007878e-01, -5.87280206e-02, 3.76014039e-02,
          -1.06979638e-01, -1.32460579e-01, -1.14256158e-01,
          -2.26471331e-02, 4.84805033e-02, 4.95827198e-02,
          3.95132378e-02, 9.34067070e-02, -4.93004220e-03,
          7.09930882e-02, 2.98461691e-02, 4.99064736e-02, 6.97757900e-02,
          3.95925827e-02, 3.48358341e-02, 2.79143499e-03, 5.99816665e-02,
          -8.25562403e-02, 1.56090688e-02, -1.01494892e-02,
          -2.35249735e-02, -1.81610172e-03, -5.59700876e-02,
          -1.05134370e-02, -5.98181449e-02, -1.75944977e-02,
          8.95594209e-02, 2.66446220e-03, -1.90875493e-02,
          -3.28964293e-02, -8.61105770e-02, -7.49163032e-02,
          2.18761507e-02, -2.89559625e-02, -4.86795865e-02,
          4.81309975e-03, -6.42239675e-02, -5.17999120e-02,
          1.62677225e-02, -3.15287374e-02, 4.40626591e-02,
          3.50495279e-02, 3.35827619e-02, 7.10914806e-02, 1.57307591e-02,
          6.96489736e-02, 4.15207371e-02, -2.55604703e-02,
          1.18977372e-02, 5.78616075e-02, 8.46241117e-02, 5.10622486e-02,
          3.65195237e-02, -7.97356814e-02, 7.46432841e-02,
          3.12284566e-02, 8.25439990e-02, 7.33341649e-02,
          -1.40236780e-01, -7.95829762e-03, -1.82895195e-02,
          1.10963415e-02, 8.20314139e-02, 1.18123842e-02, 3.83588369e-03,
          2.34809052e-02, -1.15240872e-01, -8.88563246e-02,
          -2.50378177e-02, -5.73341213e-02, -7.78094772e-03,
          5.61179630e-02, 3.54465991e-02, -2.19390448e-02,
          8.55975377e-04, -8.02525505e-02, -3.58184264e-03,
          5.06524630e-02, 8.53292644e-02, 7.65850767e-02,
          -3.15264501e-02, 4.49687056e-02, -1.40040228e-03,
          3.27574722e-02, 3.70483696e-02, -2.85052042e-02,
          5.62516153e-02, 1.05695233e-01, 6.77157342e-02,
          -2.19373628e-02, 6.16825856e-02, 8.60313177e-02,
          3.00794598e-02, -4.20617071e-05, -1.05161004e-01,
          -4.18126173e-02, -9.12820697e-02, -2.95505058e-02,
          5.63809760e-02, 5.44148358e-03, -1.52642401e-02,
          6.46819687e-03, -9.99232903e-02, 1.52930962e-02,
          4.05458063e-02, -2.13143080e-02, 1.56609602e-02,
          7.33963698e-02, 2.36848444e-02, 4.00808789e-02, 1.04682846e-02,
          -7.81874359e-02, -5.38717816e-03, 7.54026100e-02,
          5.64327873e-02, 6.13648184e-02, -6.02888362e-03,
          4.35946509e-02, 7.06999302e-02, -3.60577949e-03,
          -5.64163253e-02, 3.45585644e-02, 9.04673636e-02,
          6.53350353e-02, 8.42175558e-02, 1.02985464e-01, 8.16363394e-02,
          1.19088799e-01, 3.88780497e-02, -7.98882619e-02,
          -2.47265287e-02, 5.43395570e-03, -2.24602018e-02,
          -3.63492817e-02, -5.32153156e-03, -3.92997973e-02,
          1.33003229e-02, -3.02070864e-02, -5.54562844e-02,
          9.97167453e-03, 2.41606478e-02, 7.69911380e-03,
          -1.66403018e-02, 3.27909030e-02, -9.71099511e-02,
          -7.29728192e-02, -3.25431526e-02, -5.51302731e-03,
          -7.13648181e-03, 3.41424420e-02, -7.54170632e-03,
          1.36563480e-02, -2.05763765e-02, 4.03272137e-02,
          6.97200000e-02, 1.42194498e-02, -3.44644636e-02,
          1.27707973e-01, 4.41003814e-02, 2.16257963e-02, 5.97818987e-04,
          -2.76984945e-02, 7.24430149e-03, 7.88315833e-02,
          5.02878353e-02, 8.26080441e-02, -8.99582654e-02,
          2.09564506e-03, -4.79978435e-02, -1.94181204e-02,
          3.85877565e-02, -5.06226730e-04, -1.53478971e-02,
          -5.19928336e-02, -1.14625022e-01, -5.69771975e-02,
          1.95378512e-02, -3.73564363e-02, -2.99230758e-02,
          9.25706849e-02, 6.21574670e-02, 9.02104080e-02, 3.39339413e-02,
          -7.22949281e-02, 2.29533259e-02, 9.31559503e-03,
          -3.78140062e-02, -2.04618685e-02, -7.83394277e-02,
          3.60321216e-02, 6.98089004e-02, 3.00246272e-02,
          -2.44543701e-03, 5.04419804e-02, 1.11903496e-01,
          7.61556029e-02, 5.30950800e-02, -1.09076025e-02,
          7.78240785e-02, 1.38050452e-01, 1.08907230e-01, 1.21267149e-02,
          -7.63963014e-02, -4.75874990e-02, -9.77541804e-02,
          -1.06529586e-01, 7.71810021e-03, 1.23066315e-02,
          6.29271790e-02, 5.92317022e-02, -6.32120073e-02,
          -2.32730098e-02, 3.69996466e-02, -5.53854853e-02,
          -6.75670579e-02, 2.27548312e-02, -4.51511070e-02,
          1.94940455e-02, -1.08198356e-02, -5.57720512e-02,
          -1.99689381e-02, 1.10360645e-01, 4.61288914e-02,
          7.31130391e-02, -5.72804660e-02, -1.84175968e-02,
          7.63428584e-02, 5.79257980e-02, -2.91266367e-02,
          -2.02465877e-02, 6.34353384e-02, 3.18785273e-02,
          6.23063818e-02, -7.61403283e-03, 1.10952538e-02,
          7.44092911e-02, 7.11152852e-02, -2.85946671e-02,
          -9.89565179e-02, -5.23918271e-02, -2.71529891e-02,
          -3.90513241e-02, 4.49311994e-02, -6.37970027e-03,
          2.46470515e-02, -5.07863611e-03, -7.80630335e-02,
          -8.61566514e-02, -7.56516382e-02, -2.12407149e-02,
          -1.26768472e-02, 3.90901230e-02, -1.44785307e-02,
          -7.49519840e-03, -3.80352736e-02, -4.74703833e-02,
          -2.80152149e-02, -1.55285737e-02, -3.96139454e-03,
          5.40023334e-02, -2.32387483e-02, 4.82886024e-02,
          6.82166144e-02, 5.77738695e-02, -1.02356775e-02,
          -3.49880084e-02, 3.47765945e-02, 6.74835816e-02,
          -1.15065800e-03, -1.27940942e-02, 5.24775349e-02,
          4.15264964e-02, 2.05124058e-02, 3.09664346e-02,
          -1.17911994e-01, -9.46195126e-02, -8.88188779e-02,
          -2.62176450e-02, 1.00680580e-02, -2.83089727e-02,
          -3.85474898e-02, -3.09697283e-03, -9.38657224e-02,
          -2.62511952e-04, -1.33677237e-02, -6.80979937e-02,
          -3.34768966e-02, 6.35711327e-02, 3.80748585e-02,
          -2.64621787e-02, -7.49586429e-03, -8.66178796e-03,
          -6.10058531e-02, 4.00438122e-02, 5.19708507e-02,
          2.63957195e-02, -1.06877916e-01, -3.57473269e-03,
          2.32117493e-02, 3.32315266e-02, -4.11886424e-02,
          3.16741318e-02, 7.42799416e-02, 7.70570561e-02, 7.85073489e-02,
          -5.58333211e-02, 4.52437475e-02, 5.50477877e-02,
          6.87722713e-02, 1.55426627e-02, -6.10961430e-02,
          -3.44489925e-02, -6.15426302e-02, -1.00151025e-01,
          1.85266342e-02, 6.87551859e-04, -2.09877845e-02,
          -5.80691397e-02, -9.51893553e-02, -3.93173322e-02,
          -7.80851990e-02, -2.58239098e-02, -8.16879049e-02,
          1.28777698e-02, -2.13314723e-02, 5.51372208e-03,
          -1.95729267e-02, -3.14519480e-02, -3.53679806e-02,
          5.44183003e-03, 8.06165710e-02, 2.78699677e-02,
          -9.28300992e-02, 4.88073751e-02, 4.71527465e-02,
          4.36174311e-02, -2.75110248e-02, 1.00746145e-02,
          1.00398902e-02, 1.44617394e-01, 9.10498202e-02,
          -4.37416211e-02, 5.46308123e-02, 8.16958547e-02,
          5.04598729e-02, 5.01447544e-02, -7.18760714e-02,
          -1.26618102e-01, -1.08994305e-01, -8.74630734e-02,
          -1.81304794e-02, -2.28552278e-02, -3.18888426e-02,
          -3.17856371e-02, -4.03116308e-02, 3.62733863e-02,
          -4.90570925e-02, -2.21837852e-02, -5.37351705e-02,
          3.30362506e-02, 1.81089863e-02, 4.52528186e-02, 1.18399067e-02,
          3.26582454e-02, -2.35298835e-02, -4.12261896e-02,
          3.81684341e-02, 2.47755125e-02, -1.82187244e-01,
          -5.45206072e-04, 3.07832547e-02, 2.54509132e-02,
          3.37100141e-02, 4.70757531e-03, 1.93295572e-02, 7.72493556e-02,
          1.09537607e-02, -9.39712077e-02, 8.77380371e-02,
          7.63903335e-02, 6.27715513e-02, 2.70777792e-02,
          -6.54056901e-03, -1.42539114e-01, -6.59735724e-02,
          -7.91461989e-02, -4.21114489e-02, -2.91968184e-03,
          8.75036977e-03, -3.58561054e-02, -1.01967703e-03,
          -5.39464429e-02, -1.13154903e-01, -5.45754321e-02,
          -2.98283957e-02, 3.20984912e-03, 8.01119208e-03,
          -4.78228275e-03, 1.24265077e-02, 3.41788456e-02,
          -1.65925231e-02, -5.42665049e-02, 1.56134795e-02,
          2.99929753e-02, -1.02220222e-01, 1.16795674e-01,
          1.41550284e-02, -1.41107049e-02, -4.54007043e-03,
          3.62741724e-02, 3.81719247e-02, 6.88601509e-02, 4.08105999e-02,
          -6.74307719e-03, 1.07374169e-01, 1.62807591e-02,
          1.78360287e-02, 6.91588372e-02 ]
   decision_functions:
      -
         sv_count: 1
         rho: 2.1370679135184609e+00
         alpha: [ 1. ]
         index: [ 0 ]
