%YAML:1.0
my_svm: !!opencv-ml-svm
   svm_type: NU_SVC
   kernel: { type:LINEAR }
   nu: 8.9999999999999997e-02
   term_criteria: { epsilon:2.2204460492503131e-16, iterations:10000 }
   var_all: 324
   var_count: 324
   class_count: 2
   class_labels: !!opencv-matrix
      rows: 1
      cols: 2
      dt: i
      data: [ -1, 1 ]
   sv_total: 1
   support_vectors:
      - [ -4.34540749e-01, -9.12396133e-01, -7.81869113e-01,
          -9.41445410e-01, 1.57597154e-01, 1.82219374e+00,
          1.20829380e+00, 1.28033328e+00, 9.51990247e-01,
          -1.60216361e-01, -1.50429690e+00, 3.12648237e-01,
          1.24666405e+00, 3.70945781e-01, 7.58010268e-01, 1.55325532e-01,
          7.85502195e-01, -4.50944304e-01, 4.47302610e-01,
          6.22048795e-01, -1.01891482e+00, -1.56637216e+00,
          -5.15052915e-01, -1.31236995e-03, 2.63803363e-01,
          3.39214861e-01, 4.49533880e-01, 9.02002335e-01, 5.74771345e-01,
          4.56189439e-02, 5.91066241e-01, 5.38363338e-01, 5.50919771e-01,
          -9.13384497e-01, -3.50760818e-01, -4.55885679e-02,
          -9.15485799e-01, 3.01470071e-01, 4.92720872e-01,
          9.33752477e-01, 6.60516739e-01, -1.17280674e+00,
          -2.47400552e-02, -3.33744496e-01, -5.55180311e-01,
          2.93749839e-01, 2.32184514e-01, 6.41293347e-01, 4.65232313e-01,
          5.68666041e-01, -3.22943628e-01, 8.72666895e-01,
          8.51785094e-02, -1.97991799e-03, -2.93427944e-01,
          -9.35213387e-01, -1.36157703e+00, -5.09470701e-01,
          9.06044543e-02, -2.26415217e-01, -1.12077087e-01,
          8.46311808e-01, 6.02673590e-01, 3.24107707e-01, 8.30239177e-01,
          -3.97293456e-02, 1.70795217e-01, -2.26464748e-01,
          -1.54915765e-01, -2.51305372e-01, 5.97005904e-01,
          8.40596378e-01, -7.26511061e-01, 1.57707423e-01,
          -7.40119040e-01, -6.62488341e-01, 7.20348507e-02,
          -1.52102336e-01, -6.24187171e-01, -1.45658779e+00,
          -1.27162087e+00, 9.36059415e-01, 1.68740845e+00,
          8.79400373e-01, 6.81855142e-01, 2.12288722e-01,
          -2.02352598e-01, -9.28536892e-01, -1.36737978e+00,
          -2.59312857e-02, -4.32754755e-01, -1.28125572e+00,
          -1.40690362e+00, -1.18094659e+00, -4.35659200e-01,
          -2.77440175e-02, -4.38851237e-01, 2.14308172e-01,
          -3.69064510e-02, 4.88506556e-02, -8.00443590e-01,
          -7.34354779e-02, -3.38902771e-02, -6.31549060e-01,
          -1.39835274e+00, -7.72391260e-01, 6.13978565e-01,
          4.38138932e-01, 3.91464114e-01, 9.78340924e-01, 4.45969254e-01,
          4.61642981e-01, -3.03815931e-01, -7.18528569e-01,
          -6.10478699e-01, -1.42814204e-01, -6.75186276e-01,
          -3.68029028e-01, -2.04719231e-01, 5.16405642e-01,
          8.49835992e-01, 8.36843073e-01, 6.56163454e-01, 3.69524002e-01,
          3.04049641e-01, 1.42952517e-01, 5.79788387e-01,
          -2.97779262e-01, -3.64826888e-01, -4.94063236e-02,
          2.38373071e-01, 5.79143941e-01, 1.16102445e+00, 4.49806660e-01,
          -2.88981467e-01, -4.48163360e-01, 2.42238238e-01,
          -5.14758527e-02, 6.77312136e-01, 4.52880859e-01,
          1.39717793e+00, 5.48081756e-01, -1.30901501e-01,
          -3.69198799e-01, -4.59485948e-01, 7.03328133e-01,
          5.04600525e-01, 1.56499505e-01, -8.51850033e-01,
          -8.82569611e-01, 2.40656525e-01, -3.79608393e-01,
          -4.95333761e-01, -2.15415433e-01, 9.05311346e-01,
          1.05482876e+00, 5.89810252e-01, -5.32780141e-02,
          4.02022935e-02, -4.70196724e-01, 5.61965585e-01,
          -2.68266350e-02, -6.11122966e-01, -1.21741116e-01,
          1.30829081e-01, -2.45401710e-01, -1.22625816e+00,
          2.92784423e-01, 8.95246267e-01, 1.06042850e+00,
          -4.20966782e-02, -5.82380652e-01, -1.50401294e-01,
          4.20346484e-02, 8.12990144e-02, -6.36668503e-01,
          1.30440259e+00, 1.10579312e+00, 1.23262155e+00, 2.43180901e-01,
          -5.87660074e-01, -1.91916332e-01, 6.32364988e-01,
          4.77430165e-01, -8.36120427e-01, -1.05574822e+00,
          -9.27908659e-01, -1.11552322e+00, -1.05800319e+00,
          1.48461029e-01, -3.46853256e-01, 1.12842810e+00,
          4.02822614e-01, -9.98507917e-01, -4.00049269e-01,
          -1.80253878e-01, -7.32127130e-01, -4.58495766e-01,
          -7.55495846e-01, -1.36026657e+00, -4.30845618e-01,
          -5.20165145e-01, -5.44276357e-01, -3.57803136e-01,
          -9.52121243e-02, 5.51366150e-01, -9.73171592e-02,
          -4.22920287e-02, -1.48375764e-01, -5.19411154e-02,
          -2.47608826e-01, -6.35440648e-01, 3.55497152e-01,
          6.79054260e-01, -4.80913445e-02, -3.82553935e-01,
          7.07436502e-01, -2.31919333e-01, 2.65309572e-01,
          -1.11829996e-01, -1.55120283e-01, -9.07922626e-01,
          -8.00908089e-01, 5.76549508e-02, 1.18888009e+00,
          4.25920367e-01, 3.05324018e-01, -1.35379523e-01,
          8.10850382e-01, 2.76822597e-01, 2.70712399e-03,
          -3.40225279e-01, 6.36638165e-01, 1.14223695e+00,
          1.34043014e+00, 1.74593294e+00, 2.11651754e+00, 1.72572160e+00,
          6.50469601e-01, -5.69033325e-01, -1.22901928e+00,
          -3.80598217e-01, 9.38679874e-02, -3.72206978e-02,
          8.82777333e-01, -3.04310434e-02, 8.01129282e-01,
          3.86047065e-01, 1.63618362e+00, 4.76119936e-01,
          -1.09425819e+00, -4.07386363e-01, 2.79905081e-01,
          4.71200556e-01, -1.03808470e-01, -8.38036463e-02,
          -3.67535502e-01, -6.75048232e-01, -1.26199627e+00,
          -6.81535184e-01, -1.37557298e-01, 5.53010702e-01,
          4.10458028e-01, -8.55908930e-01, 3.21960390e-01,
          -3.95033330e-01, -2.30680872e-03, 3.56698841e-01,
          5.61053336e-01, 1.25540566e+00, -2.74461985e-01,
          1.41261697e-01, -9.20531079e-02, -1.10540128e+00,
          -4.45532858e-01, 6.74786329e-01, 8.32777381e-01,
          4.88398522e-01, -2.10136130e-01, -2.17065603e-01,
          -1.02495290e-01, 1.88466460e-02, 5.23460954e-02,
          3.19996625e-01, 6.94637358e-01, 7.77247310e-01, 8.83756399e-01,
          -2.41486385e-01, 2.32587323e-01, 7.40999341e-01,
          8.08395684e-01, -3.28871489e-01, 6.83783367e-02,
          -5.63404858e-01, -1.50820184e+00, -1.19447482e+00,
          2.24216565e-01, 1.04825851e-02, 3.29548091e-01,
          -1.03455555e+00, -9.60477591e-01, 6.20274425e-01,
          1.30952609e+00, 9.78635997e-02, -2.28694588e-01,
          -3.48759264e-01, -6.02453291e-01, -9.04250681e-01,
          2.37439245e-01, -2.07869306e-01, -3.52186054e-01,
          3.87381911e-02, -1.00445008e+00, 1.64156526e-01,
          3.44481081e-01, 5.02742469e-01, -1.75558710e+00,
          -8.42882812e-01, -6.39567554e-01, 6.34652674e-01,
          1.08908534e+00, 5.53363919e-01, 7.20684648e-01, 5.73335588e-01 ]
   decision_functions:
      -
         sv_count: 1
         rho: -6.3455736928135564e-01
         alpha: [ 1. ]
         index: [ 0 ]
