%YAML:1.0
my_svm: !!opencv-ml-svm
   svm_type: NU_SVC
   kernel: { type:LINEAR }
   nu: 8.9999999999999997e-02
   term_criteria: { epsilon:2.2204460492503131e-16, iterations:10000 }
   var_all: 3840
   var_count: 3840
   class_count: 2
   class_labels: !!opencv-matrix
      rows: 1
      cols: 2
      dt: i
      data: [ -1, 1 ]
   sv_total: 1
   support_vectors:
      - [ -1.01990358e-04, 5.56432606e-05, -1.37943935e-05,
          -8.49737480e-05, 7.17686125e-05, 4.56998032e-06,
          -1.06857893e-04, 6.74340772e-05, 4.67400105e-06,
          -9.63175189e-05, 6.22858497e-05, 1.72553212e-06,
          -1.10842244e-04, 6.83109320e-05, 7.07041363e-06,
          -1.00148456e-04, 7.19437303e-05, 1.68908045e-05,
          -7.70654005e-05, 7.02269535e-05, 6.44568263e-06,
          -4.82210271e-05, 1.12795140e-04, 3.87493783e-05,
          -6.96240968e-05, 8.70095027e-05, 1.23415293e-06,
          -7.07231738e-05, 7.56509471e-05, -1.39054910e-05,
          -8.91866875e-05, 6.83503094e-05, -1.39997046e-05,
          -8.31906727e-05, 6.84725019e-05, -3.01013074e-07,
          -1.19200624e-04, 5.42194684e-05, -1.85451318e-05,
          -9.37407021e-05, 7.07880245e-05, 4.42318787e-06,
          -8.88309660e-05, 7.45619254e-05, 6.10906409e-06,
          -6.06732792e-05, 1.04023115e-04, 3.11131917e-05,
          -5.51683625e-05, 1.00980775e-04, 5.85535017e-05,
          -3.94378949e-05, 1.05764884e-04, 7.12247784e-05,
          -4.38319257e-05, 9.83627688e-05, 4.52974564e-05,
          -6.22865118e-05, 7.74497894e-05, 3.60416816e-05,
          -8.46990442e-05, 4.45936566e-05, 2.17123215e-05,
          -9.16780991e-05, 5.16332402e-05, 2.55347004e-05,
          -8.60064611e-05, 6.10685529e-05, 2.83640347e-05,
          -6.26981710e-05, 8.91967284e-05, 4.25308062e-05,
          -6.81567617e-05, 6.49556823e-05, 2.32909097e-05,
          -5.64852417e-05, 6.45548571e-05, 2.06683508e-05,
          -8.11807113e-05, 6.21537984e-05, 4.74826584e-06,
          -7.70710685e-05, 5.30791258e-05, 6.25406756e-06,
          -6.40450744e-05, 7.40246251e-05, -4.52948143e-06,
          -5.26407566e-05, 8.07461984e-05, 3.87323411e-07,
          -4.64751574e-05, 6.23817104e-05, 1.72126893e-05,
          -2.90561384e-05, 7.36590810e-05, 2.72653488e-05,
          -4.44220750e-05, 7.11656612e-05, 3.34786237e-05,
          -2.05930046e-05, 7.71737978e-05, 6.80700759e-05,
          -3.47853638e-05, 5.99474115e-05, 5.67042480e-05,
          -6.24000386e-05, 4.22882949e-05, 4.41924567e-05,
          -9.47445878e-05, 2.00007707e-05, 1.60978670e-05,
          -6.80760641e-05, 3.61358943e-05, 2.23894494e-05,
          -6.81156525e-05, 2.66808202e-05, 8.28499833e-06,
          -7.27154620e-05, 3.36298435e-05, 6.73910790e-06,
          -7.53529603e-05, 3.31786796e-05, 3.07308619e-05,
          -5.77097271e-05, 4.23644487e-05, 4.35499969e-05,
          -7.52774795e-05, 4.73996079e-05, 3.57265126e-05,
          -6.06487629e-05, 4.31546650e-05, 3.52187672e-05,
          -5.79049884e-05, 3.75216732e-05, 2.14212268e-05,
          -5.95773636e-05, 4.03981467e-05, 3.80834827e-05,
          -5.00446840e-05, 4.41460870e-05, 6.02597247e-05,
          -3.76259050e-05, 6.85308260e-05, 8.64704780e-05,
          -7.86208839e-05, 4.82373907e-05, 5.18221495e-05,
          -8.10563652e-05, 4.48477949e-05, 4.82877440e-05,
          -8.58809508e-05, 3.76093631e-05, 4.37544113e-05,
          -6.16375401e-05, 3.83113802e-05, 5.18566776e-05,
          -6.72241222e-05, 2.33080100e-05, 5.71252931e-05,
          -5.53864847e-05, 1.45074955e-05, 5.20372851e-05,
          -4.99559865e-05, 2.20156630e-06, 2.65804574e-05,
          -4.73971158e-05, 1.68523839e-05, 4.11989204e-05,
          -6.57181154e-05, 2.00869854e-05, 5.48114331e-05,
          -6.69507135e-05, 3.23134227e-05, 6.47573033e-05,
          -9.88345055e-05, 1.72546115e-05, 3.40430997e-05,
          -6.52099261e-05, 2.94912006e-05, 4.48282080e-05,
          -5.99179839e-05, 1.50943179e-05, 4.09974018e-05,
          -4.98970512e-05, 1.92967782e-05, 5.86907408e-05,
          -4.83551667e-05, 2.35297593e-05, 6.52781018e-05,
          -5.04786804e-05, 3.21727566e-05, 8.21212307e-05,
          -6.29231363e-05, 2.49156747e-05, 7.21112883e-05,
          -7.25772406e-05, 2.08468555e-05, 6.99599914e-05,
          -9.04542030e-05, 1.03460807e-05, 5.12803490e-05,
          -7.39110692e-05, 9.48362322e-06, 6.40121070e-05,
          -5.60222761e-05, -4.56776752e-06, 6.62488455e-05,
          -7.42801130e-05, -2.26672018e-05, 4.88109254e-05,
          -1.02697377e-04, -3.18994134e-05, 5.46856536e-05,
          -1.03576720e-04, -2.06724053e-05, 6.23755623e-05,
          -1.17276410e-04, -2.41370817e-05, 3.95770730e-05,
          -1.14561517e-04, -2.68531749e-05, 3.60072991e-05,
          -1.05098130e-04, -2.20634211e-05, 3.94553754e-05,
          -8.84246983e-05, -1.49020680e-05, 3.38548125e-05,
          -9.60610923e-05, -3.05965368e-05, 3.23070635e-05,
          -9.13236217e-05, -4.82114483e-05, 3.19913815e-05,
          -1.03435079e-04, -4.67863028e-05, 2.87459716e-05,
          -1.28988715e-04, -5.05487842e-05, 2.94495730e-05,
          -1.11240479e-04, -6.25310931e-05, 2.19927024e-05,
          -1.02722210e-04, -4.81353600e-05, 2.95518912e-05,
          -1.17121934e-04, -4.94706437e-05, 4.37028866e-05,
          -1.00709629e-04, -5.16228793e-05, 5.36297957e-05,
          -1.09779248e-04, -5.12017432e-05, 4.76548594e-05,
          -9.18008736e-05, -3.66792083e-05, 5.98990046e-05,
          -9.77138116e-05, -4.14852184e-05, 4.01589095e-05,
          -1.09389439e-04, -5.17737317e-05, 2.53379058e-05,
          -1.37503215e-04, -8.24556628e-05, 2.48191154e-05,
          -1.16753916e-04, -5.89657357e-05, 3.85046078e-05,
          -1.28989632e-04, -4.63195865e-05, 4.68173203e-05,
          -9.20910679e-05, -3.73592484e-05, 5.39617722e-05,
          -7.50937106e-05, -3.99206474e-05, 2.28695189e-05,
          -1.05444509e-04, -8.62931047e-05, 2.88531936e-07,
          -1.06858635e-04, -8.71448210e-05, -3.27310590e-06,
          -1.04639126e-04, -7.01497411e-05, 2.26590546e-05,
          -1.10671179e-04, -9.67880187e-05, 1.79242325e-05,
          -1.14879178e-04, -9.35020435e-05, 1.85645895e-05,
          -1.09130255e-04, -8.45070244e-05, 3.24829343e-05,
          -1.02113539e-04, -7.03414262e-05, 4.76776622e-05,
          -9.92512505e-05, -6.18767517e-05, 4.99983107e-05,
          -7.94118168e-05, -3.81306818e-05, 5.89779593e-05,
          -1.10318535e-04, -6.37870689e-05, 3.35784061e-05,
          -1.05914311e-04, -5.87602553e-05, 3.17469021e-05,
          -1.10921988e-04, -5.93864024e-05, 3.57851859e-05,
          -1.18725977e-04, -7.81264098e-05, 2.14167649e-05,
          -1.28551066e-04, -6.86330022e-05, 2.20691345e-05,
          -1.17688578e-04, -7.61935080e-05, 9.71508871e-06,
          -1.29217093e-04, -9.44566345e-05, -1.50928263e-05,
          -1.08077933e-04, -8.48753552e-05, -2.49125407e-07,
          -1.04630177e-04, -9.87259991e-05, -1.00509833e-05,
          -1.08771033e-04, -8.60264190e-05, -8.44249428e-07,
          -8.84702749e-05, -9.45005086e-05, -4.50418656e-06,
          -9.83283462e-05, -9.32467156e-05, 3.34423999e-06,
          -1.14725233e-04, -1.01840960e-04, 2.22689300e-06,
          -1.00267760e-04, -9.68190798e-05, 5.30632997e-06,
          -1.06050546e-04, -1.13826973e-04, 2.59834701e-06,
          -1.09258712e-04, -1.04347229e-04, 1.05136523e-05,
          -1.14546150e-04, -9.42441620e-05, 1.17339396e-05,
          -1.20955199e-04, -8.25439929e-05, 1.72575783e-05,
          -1.18699449e-04, -8.90208539e-05, 2.02371630e-05,
          -8.67130948e-05, -6.27706177e-05, 3.51041854e-05,
          -9.58656092e-05, -5.29766985e-05, 5.48352727e-05,
          -7.35149370e-05, -4.30360378e-05, 5.39234679e-05,
          -8.68058341e-05, -6.13576485e-05, 2.91567594e-05,
          -8.99732258e-05, -8.17163964e-05, 2.58554992e-05,
          -7.61415649e-05, -7.77674577e-05, 1.41610844e-05,
          -4.44402358e-05, -4.33557871e-05, 4.77057474e-05,
          -5.69092590e-05, -4.83291697e-05, 5.71956953e-05,
          -6.88741857e-05, -6.27079280e-05, 3.05672911e-05,
          -8.11913342e-05, -5.74808910e-05, 2.88161191e-05,
          -6.68246648e-05, -5.37846390e-05, 4.67135906e-05,
          -7.14560883e-05, -5.98608895e-05, 3.94861163e-05,
          -8.57790073e-05, -5.40733308e-05, 3.96560863e-05,
          -8.51906589e-05, -4.69333718e-05, 4.69646038e-05,
          -7.44416902e-05, -2.69675820e-05, 6.47860434e-05,
          -9.27042493e-05, -4.89449631e-05, 3.80675592e-05,
          -7.68859027e-05, -4.95072236e-05, 3.09957177e-05,
          -1.00479796e-04, -6.65928819e-05, 3.62806204e-05,
          -7.55695874e-05, -5.84749650e-05, 5.49391953e-05,
          -6.42859595e-05, -4.93219231e-05, 4.19895332e-05,
          -6.67606073e-05, -6.07903748e-05, 4.68771104e-05,
          -4.36337723e-05, -5.96055943e-05, 4.96536995e-05,
          -2.22349554e-05, -2.24415835e-05, 8.54433238e-05,
          -2.41902490e-05, -2.63081984e-05, 8.86948910e-05,
          2.45581930e-07, -3.29603677e-06, 9.45474676e-05,
          6.73844943e-06, -3.36465860e-06, 8.29074197e-05,
          3.26406303e-06, -9.46332693e-06, 7.18356096e-05,
          -4.03141757e-06, -1.86983107e-05, 5.05740973e-05,
          -5.22665323e-06, -1.16253486e-05, 5.42513117e-05,
          -2.34808231e-05, -7.65411733e-06, 5.51325902e-05,
          -1.31609950e-05, 1.82947190e-06, 6.32026131e-05,
          -3.60569102e-05, -2.04848857e-05, 5.32914564e-05,
          -2.03651925e-05, -1.44899568e-05, 4.94965243e-05,
          -2.90760872e-05, -3.98533230e-05, 2.71103581e-05,
          -2.73428559e-05, -4.90387938e-05, 1.20920968e-05,
          -7.40844825e-06, -3.79211633e-05, 2.45854080e-05,
          -1.12580847e-05, -4.42601558e-05, 3.38117934e-05,
          -6.09895651e-05, -6.21971631e-05, 1.33478643e-05,
          -6.37125631e-05, -5.48182652e-05, 2.23822899e-05,
          -5.07275836e-05, -4.89653430e-05, 2.43266841e-05,
          -2.90095231e-05, -3.59238838e-05, 4.39069663e-05,
          -3.79239100e-05, -4.76487148e-05, 6.56498451e-05,
          -3.56800738e-05, -4.80729032e-05, 5.97503349e-05,
          -3.75709787e-05, -5.70991469e-05, 4.93463631e-05,
          -3.94094313e-05, -5.56054329e-05, 5.26821023e-05,
          -4.26186343e-05, -5.22542105e-05, 5.92291835e-05,
          -3.66442509e-05, -4.35047477e-05, 7.61755509e-05,
          -3.85677886e-05, -5.96996033e-05, 4.78746479e-05,
          -3.45503940e-05, -6.38022248e-05, 5.17690933e-05,
          -2.70975270e-05, -4.63223114e-05, 7.66260782e-05,
          -1.40829934e-05, -3.21936604e-05, 7.09680098e-05,
          -1.52683206e-05, -5.29953577e-05, 3.46099005e-05,
          -7.81557628e-06, -6.65400657e-05, 2.22742019e-05,
          -1.70457370e-05, -6.94809642e-05, 1.44832857e-05,
          -3.44601649e-05, -6.87810534e-05, 2.05726319e-05,
          -2.14454449e-05, -6.09691160e-05, 2.47533462e-05,
          -2.41306520e-06, -3.87273067e-05, 4.23486999e-05,
          -2.33888950e-05, -3.72082686e-05, 5.52857091e-05,
          -1.96301953e-05, -4.29635475e-05, 5.56516716e-05,
          -2.11633705e-05, -4.18100899e-05, 6.10658681e-05,
          -6.03292165e-06, -2.35848947e-05, 7.21175893e-05,
          1.37831803e-05, -1.65896345e-05, 8.96411948e-05,
          -2.11192382e-05, -4.41834018e-05, 5.89856245e-05,
          -3.72438262e-05, -6.27700283e-05, 4.89654267e-05,
          -4.90551101e-05, -8.37957923e-05, 5.64431830e-05,
          -7.10751192e-05, -8.71469383e-05, 5.87895847e-05,
          -4.42228011e-05, -6.42611994e-05, 7.03442638e-05,
          -6.12292424e-05, -5.07925615e-05, 7.43495475e-05,
          -6.86770727e-05, -7.15612623e-05, 5.64142210e-05,
          -5.24598836e-05, -7.04914783e-05, 5.19552486e-05,
          -4.73906766e-05, -6.04650704e-05, 6.19592101e-05,
          -4.36526607e-05, -7.82115312e-05, 4.08582273e-05,
          -4.98239970e-05, -7.95341548e-05, 4.51309497e-05,
          -7.03157493e-05, -8.67299532e-05, 5.84298905e-05,
          -6.00174099e-05, -8.82095701e-05, 5.98473998e-05,
          -8.03240400e-05, -8.53035672e-05, 6.63346800e-05,
          -6.91851747e-05, -7.61041083e-05, 8.22751317e-05,
          -4.03595986e-05, -5.81919048e-05, 9.83171121e-05,
          -4.46928279e-05, -6.02485852e-05, 8.65760667e-05,
          -5.86221977e-05, -7.73154752e-05, 5.76789243e-05,
          -4.39490723e-05, -6.69953952e-05, 6.25969260e-05,
          -6.34537209e-05, -7.53519198e-05, 5.21881084e-05,
          -4.54496330e-05, -6.87729116e-05, 5.78691179e-05,
          -4.26822517e-05, -6.28559283e-05, 6.75891861e-05,
          -4.66517668e-05, -8.08815166e-05, 6.42521190e-05,
          -6.04738452e-05, -8.89453077e-05, 3.81211939e-05,
          -8.15442836e-05, -1.05394967e-04, 2.57300962e-05,
          -6.13883749e-05, -8.84366746e-05, 2.22717790e-05,
          -5.67036295e-06, -3.99480014e-05, 5.89215924e-05,
          -7.24732445e-07, -3.70564485e-05, 7.13495538e-05,
          1.33279764e-06, -3.43691572e-05, 7.82217612e-05,
          -2.98457944e-05, -3.59423102e-05, 7.62087075e-05,
          -5.33622151e-05, -5.98564075e-05, 7.01209065e-05,
          -2.23280349e-05, -4.25916623e-05, 6.64684267e-05,
          -2.22702656e-05, -2.47634853e-05, 8.78746650e-05,
          -5.63905451e-05, -5.92463111e-05, 4.04277271e-05,
          -5.25842916e-05, -5.85995986e-05, 2.74150589e-05,
          -5.20518006e-05, -6.27765694e-05, 4.25560356e-05,
          -4.02862825e-05, -5.46190095e-05, 5.57996682e-05,
          -1.60592626e-05, -4.47877137e-05, 7.23067351e-05,
          -6.24282111e-05, -8.96037309e-05, 2.48963515e-05,
          -8.46815892e-05, -9.89997425e-05, -9.91402729e-08,
          -7.40002870e-05, -8.64811445e-05, 1.72481195e-05,
          -4.79776754e-05, -5.58454631e-05, 4.35542861e-05,
          -4.01219477e-05, -5.53262253e-05, 4.65670637e-05,
          -5.64038201e-05, -8.54312602e-05, 3.93135379e-05,
          -4.50822881e-05, -7.27704828e-05, 4.44634097e-05,
          -3.09699426e-05, -4.58592694e-05, 5.08602461e-05,
          -2.90920780e-05, -3.55051779e-05, 7.47109880e-05,
          -1.37549241e-05, -1.41561322e-05, 6.79943623e-05,
          -1.85076642e-05, -1.54602349e-05, 6.25653629e-05,
          -5.43080605e-05, -5.15378488e-05, 4.48437531e-05,
          -4.62003009e-05, -4.27418272e-05, 6.22043517e-05,
          -6.19109996e-05, -4.32823945e-05, 6.75816555e-05,
          -4.04015991e-05, -2.86407794e-05, 8.07530232e-05,
          -1.93332125e-05, -3.28462847e-05, 7.77493769e-05,
          -7.43564597e-05, -7.40351752e-05, 3.00387801e-05,
          -9.57579105e-05, -9.56761069e-05, -5.15652891e-06,
          -7.45487559e-05, -7.76122179e-05, 6.65995867e-06,
          -4.20655670e-05, -5.90579912e-05, 2.48058805e-05,
          -2.10597700e-05, -6.16408361e-05, 2.23543466e-05,
          -4.48925202e-05, -8.82963723e-05, 1.77199422e-06,
          -3.07491719e-05, -6.86713829e-05, 9.87152180e-06,
          -8.07242395e-06, -4.13526650e-05, 3.40424449e-05,
          -9.90896751e-06, -3.12600278e-05, 5.85216185e-05,
          -2.35151401e-05, -2.71358658e-05, 4.67346654e-05,
          -3.06888433e-05, -2.48136857e-05, 7.51866537e-05,
          -4.67508617e-05, -2.96818835e-05, 5.50418044e-05,
          -4.01981633e-05, -2.44662660e-05, 6.31636285e-05,
          -2.94837191e-05, -1.56154656e-05, 6.55395343e-05,
          -1.80540228e-05, -1.25552724e-05, 4.73293803e-05,
          -2.64728096e-05, -2.56229177e-05, 2.78256230e-05,
          -7.54569846e-05, -6.48894129e-05, -1.98002908e-05,
          -5.32170961e-05, -4.23010752e-05, -2.08530419e-05,
          -2.85929927e-05, -2.29219950e-05, 2.15112308e-07,
          4.65486801e-06, -9.52837217e-06, 1.34883148e-05,
          3.77374054e-05, 1.25782090e-05, 3.66347776e-05, 9.65734671e-06,
          -2.42497845e-05, 3.78972400e-05, -8.94670757e-06,
          -4.00345125e-05, 3.06281217e-05, -4.08137093e-05,
          -3.97287622e-05, 2.16931785e-05, -5.49393117e-05,
          -5.37986125e-05, 2.45901319e-05, -7.38400486e-05,
          -5.60160479e-05, 1.78461523e-05, -7.73129286e-05,
          -5.28329438e-05, 2.15208256e-05, -5.60764747e-05,
          -5.45129406e-05, 1.57991290e-05, -4.10647153e-05,
          -4.20275574e-05, 2.12582236e-05, -3.68788424e-05,
          -2.74016566e-05, 3.71441638e-05, -4.81985044e-05,
          -4.33154528e-05, 2.89724485e-05, -6.00165840e-05,
          -4.86286372e-05, 3.76423145e-07, -8.28161210e-05,
          -5.82225694e-05, -2.90463813e-05, -7.58846509e-05,
          -7.02670659e-05, -5.09095153e-05, -8.27183467e-05,
          -8.38708729e-05, -6.40276994e-05, -6.85022751e-05,
          -6.70044610e-05, -2.58363543e-05, -4.33471578e-05,
          -3.95173738e-05, 1.11029603e-05, -5.88745970e-05,
          -2.57413813e-05, 2.91159595e-05, -7.16626600e-05,
          -4.62761964e-05, 1.32836194e-05, -7.79554030e-05,
          -5.84008230e-05, -8.26090036e-06, -8.22213915e-05,
          -4.50169355e-05, 1.25473116e-05, -8.44715687e-05,
          -6.02092550e-05, -4.34870890e-06, -6.29691422e-05,
          -3.93383198e-05, 1.97987283e-05, -7.58781389e-05,
          -4.39358919e-05, 2.17095530e-05, -7.52239939e-05,
          -3.91033936e-05, 1.30504695e-05, -5.18165107e-05,
          -2.09020927e-05, 2.00553131e-05, -3.92518741e-05,
          -1.01361111e-05, 2.88451884e-05, -2.87490748e-05,
          -2.76505762e-05, 2.97047263e-05, -5.10930186e-05,
          -5.32497725e-05, 4.29778402e-06, -5.93414479e-05,
          -5.12846491e-05, -3.14173099e-06, -7.12647161e-05,
          -6.80073354e-05, -1.17344371e-05, -6.01707106e-05,
          -7.88173929e-05, -7.14501266e-06, -4.27243649e-05,
          -5.91386852e-05, 5.06653532e-06, -6.39449208e-05,
          -5.72843819e-05, 1.76328649e-05, -7.95732703e-05,
          -6.60861260e-05, 1.64521352e-05, -6.59415018e-05,
          -3.21081388e-05, 4.63997967e-05, -7.08478110e-05,
          -2.99485964e-05, 5.40107358e-05, -9.22656473e-05,
          -3.73783841e-05, 3.62520004e-05, -7.14848647e-05,
          -2.28414010e-05, 5.93068726e-05, -9.93339927e-05,
          -9.80241566e-06, 5.76999373e-05, -1.08191569e-04,
          -1.11221998e-05, 5.17108128e-05, -8.18790577e-05,
          -1.84602613e-05, 4.90879720e-05, -6.66230480e-05,
          -6.98149233e-06, 5.17366570e-05, -6.23025917e-05,
          -2.27345645e-05, 5.00302849e-05, -6.23033338e-05,
          -3.70515845e-05, 3.13097626e-05, -8.24640520e-05,
          -6.51426672e-05, 2.82114615e-05, -6.98791337e-05,
          -5.66762974e-05, 4.92852305e-05, -4.69306106e-05,
          -3.72467293e-05, 6.15962927e-05, -7.94077496e-05,
          -5.02707881e-05, 3.97580843e-05, -1.19116994e-04,
          -6.50676811e-05, 3.94637354e-05, -9.86043524e-05,
          -5.91549688e-05, 6.23100932e-05, -7.26657017e-05,
          -3.20844738e-05, 7.24355050e-05, -9.31465984e-05,
          -3.85415151e-05, 6.54119503e-05, -1.10432302e-04,
          -6.65224579e-05, 2.88071278e-05, -1.25358754e-04,
          -6.71900052e-05, 2.05892811e-05, -1.40219519e-04,
          -7.51630505e-05, 4.88129590e-05, -1.45802143e-04,
          -8.72780292e-05, 3.43633765e-05, -1.71889900e-04,
          -1.02166559e-04, -8.45596333e-06, -1.45534912e-04,
          -9.52675327e-05, 5.85562702e-06, -1.45930724e-04,
          -1.08377797e-04, 1.46708553e-05, -1.81108640e-04,
          -1.30901957e-04, -1.81090090e-05, -1.83777112e-04,
          -1.33964946e-04, -4.07879597e-05, -1.96617111e-04,
          -1.37632625e-04, -6.14752717e-05, -1.44321602e-04,
          3.54766598e-05, -2.86275535e-05, -1.22534213e-04,
          5.91723947e-05, -6.24354880e-06, -9.70120527e-05,
          9.06806745e-05, -7.98107976e-07, -8.61890949e-05,
          9.56154327e-05, -3.24387338e-06, -6.27266854e-05,
          7.80066548e-05, -1.96805049e-05, -4.01087054e-05,
          8.43245070e-05, -2.05279539e-05, -5.11106737e-05,
          7.01403333e-05, -2.54077549e-05, -2.06555396e-05,
          9.88840693e-05, 7.49430592e-06, -4.14516508e-05,
          8.50840952e-05, -1.29663104e-05, -3.15816105e-05,
          9.39939055e-05, -2.39695601e-05, -4.87814323e-05,
          5.87409886e-05, -3.32844575e-05, -4.67562422e-05,
          5.35606123e-05, -2.21894334e-05, -8.71552838e-05,
          5.38342210e-05, -4.04560851e-05, -9.12664618e-05,
          5.84217596e-05, -3.62627725e-05, -7.98308320e-05,
          6.21385261e-05, -1.62985161e-05, -3.13266282e-05,
          1.04872874e-04, 2.92075947e-05, -2.16950248e-05,
          1.24490994e-04, 3.91147842e-05, -4.01321704e-05,
          1.09422937e-04, 3.66768436e-05, -8.02853829e-05,
          6.41338993e-05, -1.58480289e-05, -7.75782610e-05,
          6.87846477e-05, -2.24028190e-05, -9.00581581e-05,
          5.24233074e-05, -2.73146088e-05, -7.16412542e-05,
          5.23269155e-05, -2.39618112e-05, -7.87578247e-05,
          3.22346932e-05, -2.11009265e-05, -5.67555471e-05,
          6.47494817e-05, 7.39767711e-06, -8.08069672e-05,
          5.29192621e-05, -6.22370862e-06, -7.47898448e-05,
          3.92040020e-05, -2.46448017e-05, -8.76717968e-05,
          3.84312370e-05, -2.16830704e-05, -7.92414576e-05,
          3.78598488e-05, -1.70819676e-05, -7.01530953e-05,
          3.86090287e-05, -3.04712503e-05, -8.08479890e-05,
          2.97091428e-05, -3.55038137e-05, -9.26297071e-05,
          3.27605267e-05, -1.21100884e-05, -4.63349388e-05,
          7.80696864e-05, 2.72099242e-05, -5.07719051e-05,
          8.28870398e-05, 1.53922610e-05, -5.22175724e-05,
          6.59846046e-05, 1.08047452e-05, -7.15809219e-05,
          4.30182772e-05, -1.39795338e-05, -7.08196167e-05,
          5.20639587e-05, -6.60957858e-06, -9.42273764e-05,
          1.34534366e-05, -3.79232042e-05, -8.11611972e-05,
          6.73976183e-06, -5.02408911e-05, -8.99574297e-05,
          -6.49196181e-07, -4.09355162e-05, -7.64328652e-05,
          1.73331864e-05, -1.93169926e-05, -8.03435469e-05,
          8.11235168e-06, -1.97949739e-05, -7.92542196e-05,
          6.13624979e-06, -2.18714758e-05, -9.18452279e-05,
          -1.42837587e-06, -1.93026699e-05, -8.39969944e-05,
          1.36589042e-05, 3.28610781e-06, -8.45074173e-05,
          9.94721086e-06, -4.44398574e-06, -8.02838331e-05,
          6.65978314e-06, 7.91374987e-06, -9.02844840e-05,
          3.55162001e-06, 2.19961512e-05, -4.26595143e-05,
          3.88543012e-05, 6.54164614e-05, -4.68144972e-05,
          4.16722251e-05, 7.41789991e-05, -6.69775181e-05,
          1.92019634e-05, 5.82881148e-05, -6.99037919e-05,
          1.51861423e-05, 3.29473478e-05, -6.05988207e-05,
          2.69429347e-05, 3.45591616e-05, -8.32281439e-05,
          8.43368980e-06, 2.49415552e-05, -8.58610365e-05,
          -1.54905065e-05, -8.54389896e-07, -1.37398180e-04,
          -5.47414929e-05, -3.91865651e-05, -1.19738601e-04,
          -2.52177961e-05, -5.76200046e-06, -1.30499728e-04,
          -2.70060955e-05, 5.48922287e-07, -1.20860270e-04,
          -1.84970322e-05, 1.01100895e-05, -1.00102821e-04,
          -1.73161625e-05, 5.00296892e-06, -8.73358804e-05,
          -1.29070295e-05, 1.98476791e-05, -9.11505267e-05,
          -2.24909272e-05, 2.37507975e-05, -5.75153499e-05,
          8.32652313e-06, 4.00956233e-05, -6.08994887e-05,
          2.14099418e-05, 6.09954404e-05, -4.17263109e-05,
          2.53565922e-05, 6.14733071e-05, -2.33394458e-05,
          2.87342154e-05, 4.60145238e-05, -3.75022682e-05,
          2.12416144e-05, 6.61158265e-05, -6.34192547e-05,
          -4.77084632e-06, 3.25798683e-05, -5.81401946e-05,
          -1.01963169e-05, 3.23760287e-05, -7.52814885e-05,
          -2.81324246e-05, 2.40037461e-05, -7.02653124e-05,
          -4.51240485e-05, 1.21791454e-05, -8.59820721e-05,
          -3.65307642e-05, 1.86572306e-05, -1.05571235e-04,
          -3.29486902e-05, 2.09651953e-05, -1.06388325e-04,
          -5.27684497e-05, 2.10341250e-06, -1.01035723e-04,
          -5.78758736e-05, -1.26899486e-05, -1.00100631e-04,
          -6.24327949e-05, -1.58618805e-05, -7.60420880e-05,
          -3.44189029e-05, 1.33144340e-05, -7.52563719e-05,
          -4.11263827e-05, 1.18018606e-05, -5.81194399e-05,
          -5.23540148e-05, 4.13806617e-07, -8.77374550e-05,
          -5.29289537e-05, 6.00701924e-07, -7.19455347e-05,
          -4.33870773e-05, 1.86868438e-05, -3.82399703e-05,
          -4.60367628e-05, 1.62998240e-05, -4.63033866e-05,
          -2.96316921e-05, 3.81947539e-05, -5.57359999e-05,
          -2.67299729e-05, 2.84478137e-05, -8.18168046e-05,
          -5.02830335e-05, 3.63163690e-06, -1.04742714e-04,
          -7.34767091e-05, -1.77454294e-05, -6.06274989e-05,
          -4.61176605e-05, 1.02272825e-05, -7.44846911e-05,
          -5.03401461e-05, 3.64312764e-05, -6.65757689e-05,
          -4.55691552e-05, 4.61661548e-05, -5.82728935e-05,
          -4.18091404e-05, 6.20029605e-05, -4.58190952e-05,
          -1.97556637e-05, 7.60226321e-05, -3.25623114e-05,
          -1.10322935e-05, 7.46973747e-05, -1.58537168e-05,
          -1.60779546e-05, 7.71090854e-05, -4.79218443e-06,
          -2.07556477e-05, 6.99266748e-05, -2.19229078e-05,
          -5.54769103e-05, 3.65690066e-05, -6.58876015e-05,
          -6.15194949e-05, 2.46592554e-05, -7.15630958e-05,
          -5.28291421e-05, 3.46050801e-05, -7.24863494e-05,
          -7.31317559e-05, -1.00740363e-06, -8.21738431e-05,
          -8.34366874e-05, -5.62646210e-06, -4.63445867e-05,
          -5.68752075e-05, 1.36535082e-05, -1.02471158e-05,
          -2.49032691e-05, 5.26103213e-05, -4.13602429e-05,
          -4.24907739e-05, 2.78493117e-05, -4.03151098e-05,
          -4.85209603e-05, 1.66688533e-05, -3.87465479e-05,
          -4.84306511e-05, 2.54185597e-05, -2.55521882e-05,
          -2.78923035e-05, 4.72414613e-05, -6.20108112e-05,
          -6.42053055e-05, 3.50205300e-05, -5.05821336e-05,
          -5.33846905e-05, 3.42256717e-05, -3.88110311e-05,
          -4.76558234e-05, 5.65107621e-05, -4.27645718e-05,
          -5.75319391e-05, 4.14402966e-05, -6.25182438e-05,
          -6.49458671e-05, 3.15662182e-05, -6.71538437e-05,
          -8.71781303e-05, 3.08619055e-05, -7.16173963e-05,
          -8.84418332e-05, 2.19837948e-05, -6.74208859e-05,
          -6.68333014e-05, 3.61246312e-05, -6.04664383e-05,
          -6.78130746e-05, 3.20576110e-05, -7.65215373e-05,
          -8.44590395e-05, 1.96899764e-05, -7.67158781e-05,
          -8.38089254e-05, 2.95908285e-06, -5.93986006e-05,
          -6.36186378e-05, 2.75192415e-05, -5.68907599e-05,
          -8.68803036e-05, 2.77281288e-05, -5.08671619e-05,
          -7.90523191e-05, 4.02764927e-05, -6.30858121e-05,
          -8.86389607e-05, 5.28666242e-05, -4.59170842e-05,
          -6.66713822e-05, 7.90169797e-05, -5.83243091e-05,
          -6.79410732e-05, 5.65565570e-05, -3.70613125e-05,
          -4.11535839e-05, 6.48344940e-05, -2.16138596e-05,
          -1.61255266e-05, 7.27529259e-05, -2.69035763e-06,
          -1.98899106e-05, 7.73813808e-05, -2.87146104e-05,
          -5.36596381e-05, 6.76343843e-05, -2.64292812e-05,
          -7.13693735e-05, 4.96251705e-05, -4.07980588e-05,
          -7.57965536e-05, 7.55447400e-05, -2.92542500e-05,
          -4.91329884e-05, 9.67805536e-05, -3.24153698e-05,
          -3.85562344e-05, 9.12663891e-05, -4.37409508e-05,
          -4.37475464e-05, 8.08495388e-05, -5.96828977e-05,
          -5.63842623e-05, 3.75290329e-05, -2.85285205e-05,
          -3.93502123e-05, 5.75492413e-05, -1.93539017e-05,
          -5.96560167e-05, 2.62091526e-05, -3.87929758e-05,
          -7.62306372e-05, 1.58786916e-05, -4.59648327e-05,
          -7.13455956e-05, 3.29807845e-05, -4.13449634e-05,
          -5.82869980e-05, 4.90973798e-05, -2.93013418e-05,
          -4.41368502e-05, 6.31851581e-05, -2.03421896e-05,
          -3.54662116e-05, 5.28971577e-05, -2.70062410e-05,
          -3.77184733e-05, 5.02921612e-05, -4.27507439e-05,
          -6.29547212e-05, 2.83440113e-05, -5.64389629e-05,
          -8.56693732e-05, 2.03320815e-05, -3.25623914e-05,
          -7.87035096e-05, 4.01691141e-05, -2.69459342e-05,
          -7.94050720e-05, 7.27890947e-05, -3.94036442e-06,
          -5.07047043e-05, 1.03696009e-04, -1.36724302e-05,
          -4.52269633e-05, 8.58967105e-05, -3.10455039e-06,
          -3.86367319e-05, 8.73540994e-05, 1.19518108e-05,
          -3.12420343e-05, 6.60005608e-05, 3.29171053e-06,
          -2.11930528e-05, 7.11836765e-05, -2.20853253e-05,
          -4.69704210e-05, 4.39090763e-05, -3.42500098e-05,
          -5.71119672e-05, 3.10413743e-05, -8.80892094e-06,
          -3.85765998e-05, 6.97072537e-05, 1.96425572e-06,
          -3.00980410e-05, 7.21214892e-05, -6.37738640e-06,
          -2.48196557e-05, 7.54809080e-05, 1.04607898e-05,
          -1.09317471e-05, 7.74882574e-05, -1.76932008e-05,
          -2.49165023e-05, 5.88181501e-05, -3.57819954e-05,
          -5.95076381e-05, 3.78344630e-05, -2.68527947e-05,
          -7.10763634e-05, 2.68754538e-05, -7.82945335e-06,
          -7.31065593e-05, 3.38570135e-05, -2.73990972e-05,
          -8.18578555e-05, 4.11592337e-05, -4.30528162e-05,
          -8.98859289e-05, 4.57779097e-05, -1.20607156e-05,
          -8.24362214e-05, 2.44206440e-05, -3.24660800e-06,
          -5.89241608e-05, 2.83014833e-05, -1.73674744e-05,
          -7.81887429e-05, 2.48513898e-05, 5.26305212e-06,
          -6.01633583e-05, 3.20379731e-05, -1.36077624e-05,
          -6.91932437e-05, 4.18540440e-05, -1.00992575e-05,
          -5.95792699e-05, 7.62546697e-05, -1.33008816e-05,
          -5.34306564e-05, 8.69249270e-05, -7.19628952e-06,
          -5.31245787e-05, 7.95067972e-05, -2.47906901e-05,
          -6.61268496e-05, 5.55965307e-05, -1.55393027e-05,
          -7.19746458e-05, 3.98384400e-05, -1.91790041e-05,
          -7.22672194e-05, 3.83933948e-05, -4.29240536e-05,
          -9.12092510e-05, 3.13609562e-05, -2.80571894e-05,
          -9.31936665e-05, 4.00405152e-05, -1.88271133e-06,
          -6.84401530e-05, 7.32253102e-05, -1.93477845e-05,
          -6.68140492e-05, 5.81810746e-05, -2.80900404e-05,
          -6.77739517e-05, 5.20482063e-05, 9.69155167e-07,
          -7.36894654e-05, 5.74179794e-05, 1.02379445e-05,
          -7.44904537e-05, 4.82082069e-05, -1.90750743e-05,
          -8.61200751e-05, 3.41305495e-05, -1.61425523e-05,
          -7.57371454e-05, 4.59727671e-05, -9.44680232e-06,
          -7.44619829e-05, 5.32856684e-05, 2.68605381e-05,
          -3.72321447e-05, 8.18763147e-05, 3.79525009e-05,
          -2.07001794e-05, 1.04263148e-04, -2.28914291e-06,
          -5.83687724e-05, 8.92402386e-05, -3.93979462e-05,
          -8.29637502e-05, 7.00986275e-05, -2.24143205e-05,
          -6.91022215e-05, 7.48021339e-05, -3.02504850e-05,
          -6.66820415e-05, 9.51784532e-05, -7.23767062e-06,
          -6.53395400e-05, 9.79914912e-05, 3.57541353e-06,
          -7.38371891e-05, 1.00290941e-04, -2.25260828e-06,
          -9.08644142e-05, 9.81742633e-05, -2.40563568e-05,
          -9.04354019e-05, 9.00463783e-05, -3.67405955e-05,
          -9.73922142e-05, 7.70519473e-05, -3.10108990e-05,
          -1.01485319e-04, 6.01075335e-05, -4.29995089e-05,
          -1.24580838e-04, 4.81925381e-05, -2.45715528e-05,
          -1.04578277e-04, 4.89150625e-05, -3.76555727e-05,
          -8.63158930e-05, 6.56227712e-05, -4.61834425e-05,
          -9.27132423e-05, 5.82852736e-05, -1.19649467e-05,
          -6.09190647e-05, 7.86870005e-05, -2.55917598e-06,
          -6.01642314e-05, 9.71323025e-05, -1.46617440e-05,
          -7.67571837e-05, 8.31890429e-05, -2.84540765e-05,
          -9.24099368e-05, 5.14090971e-05, -4.01913348e-05,
          -9.59241152e-05, 6.27795962e-05, -3.90446403e-05,
          -8.94793120e-05, 5.88933690e-05, -2.56588537e-05,
          -8.16480388e-05, 6.42866071e-05, -3.89306515e-05,
          -1.00574536e-04, 6.73494869e-05, -1.82719104e-05,
          -8.53297315e-05, 9.37203149e-05, -4.62089993e-05,
          -9.11522366e-05, 6.38335550e-05, -8.29929413e-05,
          -1.13559327e-04, 2.88820956e-05, -6.16351463e-05,
          -1.19056640e-04, 3.94889539e-05, -2.48997512e-05,
          -1.04471772e-04, 5.74119113e-05, -1.76800349e-05,
          -9.40373284e-05, 6.93252005e-05, 3.03645766e-06,
          -7.60792027e-05, 8.57627165e-05, -6.98425856e-06,
          -7.17024959e-05, 8.48148338e-05, -5.20113963e-06,
          -7.37862501e-05, 8.57197520e-05, 5.05414846e-06,
          -4.95741842e-05, 1.14163726e-04, -2.84610869e-05,
          -5.50851255e-05, 1.09187436e-04, -3.57113713e-05,
          -9.20449966e-05, 8.31489306e-05, -3.22793894e-05,
          -7.59585892e-05, 8.33274171e-05, 9.58642613e-06,
          -3.34473661e-05, 1.19977565e-04, 2.46570398e-05,
          -4.53732719e-05, 1.07168999e-04, 7.11786333e-06,
          -7.84004951e-05, 6.52077870e-05, 1.28571246e-05,
          -8.70105650e-05, 7.43000201e-05, 5.60461694e-06,
          -8.54066820e-05, 6.82900427e-05, -3.81038735e-05,
          -1.22960511e-04, 5.00406350e-05, -5.96981699e-05,
          -1.35428927e-04, 3.40141632e-05, -1.29163900e-05,
          -8.19589040e-05, 5.86706228e-05, -1.98724447e-05,
          -8.49984644e-05, 5.59608234e-05, -3.34136021e-05,
          -7.50496256e-05, 5.13342420e-05, -3.66818531e-05,
          -7.50029285e-05, 6.61868617e-05, -1.44341129e-05,
          -7.52151318e-05, 8.98334110e-05, -2.80562253e-05,
          -7.44534627e-05, 7.15953283e-05, -8.47879928e-05,
          -1.11391651e-04, 4.68643775e-05, -4.70228333e-05,
          -9.97287570e-05, 5.25898504e-05, -1.44347205e-05,
          -6.46418484e-05, 7.78502799e-05, -1.97651116e-06,
          -5.22229311e-05, 8.14364903e-05, -6.62887442e-06,
          -6.16117977e-05, 7.51998668e-05, 6.08009668e-06,
          -6.82278696e-05, 6.40501385e-05, 3.01543405e-05,
          -3.95022689e-05, 9.26846333e-05, -2.12194809e-05,
          -7.93852669e-05, 4.04595958e-05, -6.76597920e-05,
          -1.30921500e-04, 7.16374552e-06, -3.54204494e-05,
          -7.67054153e-05, 4.53562679e-05, -3.07047485e-05,
          -8.13780207e-05, 3.70671951e-05, -1.64515695e-05,
          -8.53328893e-05, 3.54088043e-05, -1.20164395e-05,
          -7.45955913e-05, 2.50059948e-05, -8.22364564e-06,
          -8.19592315e-05, 3.96115320e-05, 1.81907319e-06,
          -6.85520499e-05, 6.75358897e-05, -4.43702484e-05,
          -8.55872204e-05, 3.41746927e-05, -8.00987691e-05,
          -9.86306695e-05, 3.76062380e-05, -3.38734462e-05,
          -6.08630180e-05, 6.39010905e-05, 3.61761067e-06,
          -3.18714992e-05, 8.59887296e-05, 9.07505523e-07,
          -3.41614650e-05, 8.03417497e-05, 3.38970335e-06,
          -4.10445609e-05, 6.94588307e-05, -2.93431890e-06,
          -5.88182484e-05, 3.67462235e-05, -2.39566834e-05,
          -9.56731092e-05, 8.83565463e-06, -4.20079123e-05,
          -1.17415722e-04, -3.28879032e-05, -3.53198920e-05,
          -1.01360834e-04, -5.42446878e-06, 8.04165575e-06,
          -5.89155570e-05, 4.10174689e-05, 3.85095227e-05,
          -3.44284745e-05, 5.20080648e-05, 1.87397909e-05,
          -4.50419757e-05, 3.79014309e-05, 8.72367673e-06,
          -5.27341581e-05, 2.64075534e-05, -1.05404697e-05,
          -5.88106450e-05, 2.87503208e-05, -2.05077758e-05,
          -4.86000645e-05, 4.21617187e-05, -6.58271092e-05,
          -7.43295677e-05, 7.43583769e-06, -8.55632316e-05,
          -9.12535834e-05, 4.19660864e-06, -5.23501149e-05,
          -8.11830323e-05, 8.37226889e-06, -2.55763080e-05,
          -5.57005878e-05, 3.48210669e-05, -2.97723254e-05,
          -5.83460242e-05, 4.70236446e-05, -2.78669777e-05,
          -5.68739270e-05, 2.92108252e-05, -5.10545833e-05,
          -8.35597748e-05, -1.26008422e-06, -3.35346122e-05,
          -9.01832609e-05, -1.69413761e-06, -4.02031546e-05,
          -1.03169616e-04, -2.88817901e-05, -4.04105413e-05,
          -1.05167361e-04, -1.40254197e-05, -9.75547937e-06,
          -1.00077887e-04, 2.15622931e-05, -1.22440033e-05,
          -9.23680491e-05, 1.75444493e-05, -3.32252093e-05,
          -8.21246504e-05, 2.08437632e-05, -2.35490224e-05,
          -7.73028369e-05, 7.75497938e-06, -2.70831697e-05,
          -6.79100049e-05, 4.61373247e-06, -3.69043955e-05,
          -6.00289823e-05, 2.32774837e-05, -4.45535006e-05,
          -6.96317438e-05, 4.74224362e-06, -3.88164808e-05,
          -4.57744500e-05, 3.92671027e-05, -2.61401619e-05,
          -4.18332165e-05, 4.56072812e-05, -2.52706614e-05,
          -5.11062062e-05, 5.55824772e-05, -5.06516517e-05,
          -7.79888214e-05, 4.13068010e-05, -3.24399480e-05,
          -5.55942679e-05, 3.81649334e-05, -5.10268837e-05,
          -7.45231009e-05, 9.26060511e-06, -6.98154909e-05,
          -1.05814906e-04, -1.92668131e-06, -3.12900047e-05,
          -9.02866013e-05, 4.40189569e-06, -4.34598260e-05,
          -9.55408177e-05, 1.22173660e-05, -3.76884018e-05,
          -1.05801591e-04, 1.99456917e-05, -3.39962535e-05,
          -1.06105443e-04, 1.38233863e-05, -4.73332766e-05,
          -1.06441214e-04, 3.42978637e-05, -4.95562927e-05,
          -1.21830853e-04, 1.60554901e-05, -3.18667444e-05,
          -1.00734425e-04, 2.73724763e-05, -4.27695413e-05,
          -9.84034632e-05, 3.10510259e-05, -3.64410516e-05,
          -9.23824991e-05, 1.96085948e-05, -4.08255582e-05,
          -8.69895521e-05, 3.25617075e-05, -3.98151169e-05,
          -8.32576188e-05, 2.44980365e-05, -2.11711031e-05,
          -6.02901455e-05, 5.44093273e-05, -4.56508642e-05,
          -6.46548142e-05, 4.22782869e-05, -6.19168204e-05,
          -8.28205448e-05, 1.92308562e-05, -5.68835421e-05,
          -9.65571526e-05, 6.53528241e-06, -2.79964770e-05,
          -7.88829784e-05, 1.75342011e-05, -3.05546246e-06,
          -6.48290588e-05, 5.49023425e-05, -2.83023219e-05,
          -7.95782471e-05, 5.29831595e-05, -4.25433209e-05,
          -8.69196010e-05, 4.60339215e-05, -4.53421926e-05,
          -7.83820651e-05, 4.08312189e-05, -5.88630646e-05,
          -7.07631989e-05, 4.62875360e-05, -3.63725521e-05,
          -5.14498242e-05, 5.46577539e-05, -7.13208501e-05,
          -9.22862455e-05, 4.06658255e-05, -7.75282097e-05,
          -1.09401037e-04, 2.65738418e-05, -7.92708088e-05,
          -1.04382023e-04, 9.00301075e-06, -1.04614817e-04,
          -1.22606318e-04, 7.24378333e-06, -8.54366663e-05,
          -1.04381259e-04, -7.16188833e-06, -9.01201274e-05,
          -8.59313441e-05, 1.53176788e-05, -1.05208070e-04,
          -1.05935258e-04, 1.59430383e-05, -1.02755068e-04,
          -9.35341159e-05, 1.27420990e-05, -1.27717241e-04,
          -1.11685993e-04, -8.74852958e-06, -1.31744469e-04,
          -1.28652508e-04, -2.21152077e-05, -1.37457304e-04,
          -1.52334207e-04, -1.94117329e-05, -1.41919620e-04,
          -1.60916272e-04, -2.01475723e-05, -9.07510403e-05,
          8.52230369e-05, -1.09142893e-05, -9.84690196e-05,
          7.15510032e-05, -2.88550400e-05, -1.18971657e-04,
          4.86319150e-05, -4.59048497e-05, -1.19074437e-04,
          5.02269213e-05, -3.62008832e-05, -1.51897533e-04,
          2.91317301e-05, -6.02849723e-05, -1.34845861e-04,
          2.69913471e-05, -6.26530964e-05, -1.26097235e-04,
          4.05034989e-05, -4.96689063e-05, -7.43286364e-05,
          9.56336153e-05, -1.32574069e-05, -5.16704567e-05,
          8.82070672e-05, -1.57957784e-05, -4.82413234e-05,
          7.84507502e-05, -2.16346689e-05, -9.54970310e-05,
          5.31162223e-05, -4.94812666e-05, -1.03890052e-04,
          6.01195352e-05, -3.41077211e-05, -1.07183048e-04,
          6.24148015e-05, -2.34690942e-05, -1.00837933e-04,
          6.26602705e-05, -2.81227331e-05, -1.28840009e-04,
          3.62255414e-05, -2.97035567e-05, -7.25110949e-05,
          8.06797034e-05, 2.00294962e-05, -7.16223149e-05,
          9.71695408e-05, 3.69621775e-05, -6.43933163e-05,
          1.06177045e-04, 6.06319736e-05, -8.09539997e-05,
          8.05548116e-05, 3.29323557e-05, -8.78530700e-05,
          7.70226688e-05, 8.13189217e-06, -9.00946325e-05,
          4.71354724e-05, -1.98418202e-05, -1.01442965e-04,
          3.08077579e-05, -3.66701861e-05, -1.22189551e-04,
          2.41873458e-05, -3.08144299e-05, -1.02310936e-04,
          4.55709378e-05, -1.84374458e-05, -1.06152009e-04,
          3.29519171e-05, 3.25729707e-06, -7.38293238e-05,
          3.96761716e-05, 1.96145975e-05, -1.13424234e-04,
          3.42910716e-05, 1.00926900e-06, -1.12971669e-04,
          3.24093089e-05, 3.23767654e-06, -8.42118970e-05,
          4.98198497e-05, -5.64154448e-07, -1.04109051e-04,
          4.09633358e-05, -3.01798241e-06, -1.21165831e-04,
          2.78828666e-05, -1.63943059e-05, -8.47186020e-05,
          6.33799864e-05, 1.82464355e-05, -6.70579102e-05,
          7.71700506e-05, 3.89477718e-05, -4.34960712e-05,
          7.74161963e-05, 4.00580502e-05, -7.42021875e-05,
          4.44631478e-05, -2.08655115e-06, -8.03781368e-05,
          3.87512810e-05, -5.15728698e-06, -1.07071406e-04,
          1.59190604e-05, -2.61139412e-05, -1.07037740e-04,
          6.24171298e-06, -3.49967049e-05, -1.31777328e-04,
          -4.93610014e-06, -3.20062827e-05, -1.11126588e-04,
          2.28767367e-05, -9.09087521e-06, -1.09623885e-04,
          2.08263991e-05, 1.39121300e-06, -9.86840168e-05,
          2.73588194e-05, 5.63745925e-06, -1.25419334e-04,
          7.02766101e-06, 4.68733424e-06, -9.86637315e-05,
          2.94789115e-05, 4.01667421e-05, -7.34857240e-05,
          3.54775511e-05, 2.03058062e-05, -6.91032910e-05,
          4.07913467e-05, 2.10986836e-05, -7.20683311e-05,
          3.47753885e-05, 1.45690228e-05, -5.46522278e-05,
          4.67825157e-05, 3.01955624e-05, -7.19465534e-05,
          3.68585388e-05, 2.31499107e-05, -6.06700232e-05,
          4.72470419e-05, 4.80359267e-05, -7.53518252e-05,
          2.18673085e-05, 3.54950171e-05, -7.10769527e-05,
          2.99147887e-05, 3.41006125e-05, -7.10156455e-05,
          3.13089913e-05, 2.25728982e-05, -9.42646948e-05,
          -1.25909928e-05, -7.96363383e-06, -1.40364806e-04,
          -4.19979733e-05, -3.08455346e-05, -1.28897111e-04,
          -1.02094182e-05, 4.99393491e-06, -1.17481541e-04,
          -7.62308161e-07, 3.08755079e-05, -1.06580999e-04,
          -3.81617792e-06, 1.66565351e-05, -1.32820598e-04,
          -1.81975847e-05, -4.02384148e-06, -1.01128862e-04,
          9.29511953e-06, 3.42086132e-05, -7.62631753e-05,
          3.07245355e-05, 3.85761305e-05, -5.99089690e-05,
          4.03207450e-05, 5.10146856e-05, -6.39176360e-05,
          3.69380396e-05, 3.04265577e-05, -4.40682452e-05,
          5.64181537e-05, 4.81831412e-05, -4.46463855e-05,
          4.47500715e-05, 3.37505007e-05, -4.23708261e-05,
          3.90734349e-05, 4.15778159e-05, -7.57020316e-05,
          1.52591983e-05, 9.97708298e-08, -5.91789758e-05,
          2.28200352e-05, 1.20144123e-05, -7.28976083e-05,
          5.90377067e-06, -2.64495452e-06, -7.87327444e-05,
          -1.11275003e-05, -6.16425677e-06, -1.15269133e-04,
          -3.13921992e-05, -2.42863571e-05, -1.21329227e-04,
          -1.95656230e-05, -1.49960515e-05, -1.57641451e-04,
          -4.16370240e-05, -3.12078046e-05, -1.25106875e-04,
          -2.66300303e-05, -2.21559130e-05, -1.29757929e-04,
          -2.51114179e-05, 9.38521862e-06, -1.02498474e-04,
          8.26263840e-06, 4.76761343e-05, -6.12418662e-05,
          1.98829457e-05, 3.62309365e-05, -6.26787078e-05,
          1.92029875e-05, 4.45545738e-05, -8.09027188e-05,
          -4.75307797e-06, 3.46399720e-05, -8.26663454e-05,
          -1.86476109e-06, 3.81661193e-05, -8.68217103e-05,
          1.23073141e-05, 2.33105675e-05, -4.86327153e-05,
          4.02053593e-05, 5.92119832e-05, -6.09646377e-05,
          1.33755211e-05, 3.11473013e-05, -8.18842891e-05,
          -1.01316882e-05, 1.51625036e-05, -8.85607224e-05,
          -2.32184084e-05, 7.70731003e-06, -9.70108886e-05,
          -2.79114702e-05, 5.36421840e-06, -1.03658662e-04,
          -2.92889254e-05, 2.01659477e-05, -9.08958900e-05,
          -1.58447601e-05, 3.67079556e-05, -1.09573732e-04,
          -2.31140075e-05, 4.34204303e-05, -7.26853832e-05,
          -6.76714023e-07, 5.11933431e-05, -8.57571504e-05,
          1.42959689e-05, 4.14415445e-05, -5.95830279e-05,
          2.60382167e-05, 5.46275405e-05, -4.58883333e-05,
          -1.26359532e-06, 4.45435035e-05, -9.53884592e-05,
          -3.87082873e-05, 1.75899677e-05, -1.38711315e-04,
          -7.59793984e-05, -1.05705203e-05, -1.12528862e-04,
          -3.78823170e-05, 1.40669390e-05, -1.26651998e-04,
          -3.68028122e-05, 9.15868895e-06, -1.11085792e-04,
          -4.49184008e-05, 1.41025630e-05, -8.84932233e-05,
          -2.74756803e-05, 4.64333516e-06, -7.55351066e-05,
          -4.26880524e-06, 3.17156228e-05, -9.18393634e-05,
          -4.20055949e-05, -3.66435665e-06, -9.13012991e-05,
          -5.20660687e-05, -1.82130807e-05, -9.15866913e-05,
          -3.63609252e-05, 2.71265958e-06, -8.99602237e-05,
          -2.92737241e-05, 2.38489483e-05, -1.25601480e-04,
          -4.97429937e-05, 6.22877224e-06, -1.02749000e-04,
          -3.59832884e-05, 1.01564081e-06, -8.81527740e-05,
          -2.34536310e-05, 3.88069166e-05, -7.72221247e-05,
          -2.72545221e-05, 5.15147804e-05, -5.58855209e-05,
          -3.02030912e-05, 3.19039718e-05, -7.53151107e-05,
          -3.93239934e-05, 3.05135727e-05, -1.10394794e-04,
          -5.43690730e-05, 2.26293705e-05, -9.44854328e-05,
          -3.26094196e-05, 3.81909995e-05, -8.38968263e-05,
          -2.20424736e-05, 4.56701855e-05, -7.76841625e-05,
          -2.48618016e-05, 5.91359931e-05, -6.00947387e-05,
          -1.86292109e-05, 5.04289783e-05, -3.76201169e-05,
          1.47658448e-05, 6.18327831e-05, -6.14420424e-05,
          -9.69654957e-06, 2.27092351e-05, -6.29926799e-05,
          -3.23419554e-05, 6.31661078e-06, -8.07189790e-05,
          -3.38094469e-05, 5.37696633e-06, -6.70337758e-05,
          -1.86172365e-05, 3.14345307e-05, -5.29708268e-05,
          -2.10661638e-05, 3.87990367e-05, -1.97515292e-05,
          5.18735669e-06, 4.80616072e-05, -5.75846752e-06,
          2.23757233e-05, 8.25950992e-05, -1.58389976e-05,
          2.14070315e-05, 8.43522866e-05, -3.87027430e-05,
          -8.76951253e-06, 2.80305139e-05, -5.61250235e-05,
          -2.67782270e-05, 2.21726714e-05, -5.46262854e-05,
          -2.35738298e-05, 4.41821685e-05, -2.95034697e-05,
          4.16369812e-06, 6.03808076e-05, -4.41910961e-05,
          -1.20214872e-06, 6.73588002e-05, -4.76629903e-05,
          -7.12825204e-06, 6.36363911e-05, -3.67473076e-05,
          -5.87682553e-06, 3.81605096e-05, -1.30884055e-05,
          1.06224988e-05, 6.14831297e-05, -3.03695033e-05,
          -3.93617711e-06, 3.07649534e-05, -4.60495721e-05,
          -2.54286060e-05, 2.21153041e-05, -7.32556582e-05,
          -2.48604429e-05, 2.89665586e-05, -7.50490290e-05,
          -1.07919423e-05, 3.34163815e-05, -5.60257686e-05,
          -1.16917026e-05, 4.85758756e-05, -6.06140893e-05,
          -1.45923532e-05, 2.19142676e-05, -6.72501919e-05,
          -9.39012443e-06, 2.07350495e-05, -6.83521212e-05,
          -1.43828020e-05, 2.53294857e-05, -8.74797188e-05,
          -4.13578782e-05, -4.10903658e-06, -1.02178317e-04,
          -5.26481053e-05, -1.32096229e-05, -8.94382538e-05,
          -5.00380120e-05, -7.45532498e-06, -4.14190654e-05,
          -6.35091146e-06, 2.44193398e-05, -3.89123597e-05,
          -1.23789232e-06, 2.99138756e-05, -2.49093646e-05,
          5.90023410e-06, 4.25157741e-05, -3.83271436e-05,
          -1.04887622e-05, 1.51630002e-05, -1.54438403e-05,
          2.76296578e-06, 1.91219387e-05, -2.45925821e-05,
          -2.51698584e-05, -3.69912095e-06, -2.33204937e-05,
          -4.25141334e-05, -1.33772046e-05, -1.40389766e-05,
          -1.06026773e-05, 3.95172574e-05, -1.14446284e-05,
          8.09087123e-06, 6.22342413e-05, -2.65865801e-05,
          -2.95007931e-06, 3.67110079e-05, -2.69432421e-05,
          -5.77192895e-06, 3.01761866e-05, -3.17242884e-05,
          -1.50800488e-05, 3.15241014e-05, -2.27039709e-05,
          -9.99366057e-06, 3.02466469e-05, -5.22303162e-05,
          -2.79896449e-05, -6.75974161e-06, -6.95197086e-05,
          -4.51483684e-05, -1.58505791e-05, -7.76795059e-05,
          -5.68328906e-05, -2.52622176e-05, -5.93568075e-05,
          -4.85199598e-05, -6.65053562e-07, -6.59242505e-05,
          -4.68687140e-05, 1.60039071e-05, -5.90465497e-05,
          -3.67159919e-05, 1.56721235e-05, -5.58551801e-05,
          -4.32921443e-05, -2.66108691e-06, -4.66102974e-05,
          -1.75394434e-05, 2.10765684e-05, -4.92046165e-05,
          -3.50974406e-05, 6.08635082e-06, -4.40350013e-05,
          -3.53724790e-05, 5.42698490e-06, -5.32248196e-05,
          -3.77621909e-05, 2.87449730e-05, -4.26621300e-05,
          -1.96299025e-05, 4.61797281e-05, -9.25717977e-05,
          -5.01903924e-05, 9.20767707e-06, -9.78166718e-05,
          -5.66568960e-05, -1.97395730e-06, -9.04522676e-05,
          -4.87613252e-05, -2.12358009e-05, -8.60774526e-05,
          -6.02705695e-05, -2.53208655e-05, -6.77111602e-05,
          -6.99332159e-05, -3.10408395e-05, -6.65881016e-05,
          -6.80827143e-05, -2.59349508e-05, -8.01270799e-05,
          -8.86702255e-05, -9.48321303e-06, -7.97030370e-05,
          -7.99974368e-05, -4.77267395e-06, -6.50455186e-05,
          -8.90132796e-05, -1.58308212e-05, -5.36466796e-05,
          -8.09009580e-05, -2.27882792e-05, -5.58151842e-05,
          -7.23156991e-05, -2.50820358e-05, -2.65733433e-05,
          -3.91516369e-05, 6.43590101e-06, -4.67783211e-05,
          -4.88634723e-05, -2.19840949e-05, -2.66341576e-05,
          -3.39843391e-05, 2.42165243e-06, -3.19939500e-05,
          -4.06226754e-05, 2.27604032e-05, -4.37005219e-05,
          -2.79270425e-05, 3.60086015e-05, -8.20603382e-05,
          -4.53566317e-05, 9.92413425e-06, -6.81477031e-05,
          -4.84227785e-05, 1.04076171e-05, -7.07083091e-05,
          -6.94668706e-05, -4.03129252e-06, -5.21202637e-05,
          -5.52741840e-05, -7.33027264e-06, -7.58566966e-05,
          -8.49570060e-05, -1.29816108e-05, -8.24115705e-05,
          -9.92281712e-05, -2.53107846e-05, -8.68659190e-05,
          -8.50883735e-05, -2.27932742e-05, -8.57590712e-05,
          -7.56193622e-05, -1.52509629e-05, -7.77126043e-05,
          -7.90881968e-05, -4.24099526e-05, -8.53563470e-05,
          -8.56357510e-05, -3.69283589e-05, -7.79316470e-05,
          -7.51078987e-05, -1.84426281e-05, -7.42633492e-05,
          -5.95153178e-05, 2.22836945e-07, -9.11387979e-05,
          -8.55945473e-05, -3.40824408e-05, -4.79306436e-05,
          -6.26335168e-05, -1.69128562e-05, -6.79862860e-05,
          -7.46274309e-05, -1.13535662e-05, -5.91344287e-05,
          -7.23797857e-05, -1.17901873e-05, -5.06566903e-05,
          -5.15917127e-05, -1.45593094e-05, -3.02024437e-05,
          -2.87214607e-05, 4.57703936e-06, -4.44358238e-06,
          -3.63480794e-05, 1.41486289e-05, -1.37544603e-05,
          -4.37134404e-05, 8.14792475e-06, -3.35654186e-05,
          -3.64327170e-05, 2.78257758e-05, -3.54558906e-05,
          -3.53693940e-05, 3.06719085e-05, -7.27085499e-05,
          -5.82548782e-05, -1.12041289e-05, -7.06858627e-05,
          -5.72098288e-05, -2.75756029e-05, -3.64090920e-05,
          -5.17216795e-05, -1.35688142e-05, -1.12154730e-05,
          -4.69284860e-05, -3.01435830e-06, -2.05999622e-05,
          -5.39750472e-05, 1.07086453e-06, -1.40407183e-05,
          -4.36419614e-05, 2.20174861e-05, -4.02619953e-05,
          -5.02958101e-05, -9.41590952e-06, -5.46423726e-05,
          -5.92916440e-05, -2.18143887e-05, -5.43840906e-05,
          -5.52212186e-05, -2.18390633e-05, -4.91675273e-05,
          -2.75711682e-05, 6.24727409e-06, -6.86236599e-05,
          -3.97795884e-05, 1.09430075e-05, -4.77399190e-05,
          -1.59384490e-05, 2.41684938e-05, -3.74803021e-05,
          -2.74761369e-05, 2.66666320e-05, -4.63311189e-05,
          -4.77528192e-05, 1.50411834e-05, -4.19870485e-05,
          -4.75442685e-05, -8.19117190e-07, -5.41932313e-05,
          -6.33936288e-05, -2.16271128e-05, -7.33188645e-05,
          -8.22418733e-05, -2.36767628e-05, -7.96444729e-05,
          -9.06732676e-05, -4.12242443e-05, -7.20292301e-05,
          -9.94203438e-05, -4.52888962e-05, -2.59564877e-05,
          -6.23241649e-05, -7.82250299e-06, -4.27106461e-05,
          -5.11479775e-05, -1.60959498e-05, -3.87865293e-05,
          -3.36005614e-05, 1.49833181e-06, -4.48695173e-05,
          -4.00341669e-05, -5.29520730e-06, -2.78906173e-05,
          -4.27365849e-05, 2.04611547e-06, -5.27866541e-05,
          -4.78805450e-05, 1.26542898e-06, -7.22674813e-05,
          -5.51113444e-05, -4.79581422e-06, -6.53298339e-05,
          -4.43938770e-05, -4.34504727e-06, -6.50780858e-05,
          -4.17570373e-05, 1.21192807e-05, -5.30022990e-05,
          -4.24469254e-05, 1.22630581e-05, -6.74112671e-05,
          -4.42236378e-05, 4.32487332e-06, -6.04137967e-05,
          -5.13702726e-05, -1.51266331e-05, -4.36114060e-05,
          -5.20047106e-05, -1.47917053e-05, -5.59176697e-05,
          -5.37376618e-05, -1.69054583e-05, -5.01907525e-05,
          -5.00128263e-05, -1.91281706e-05, -3.97664335e-05,
          -5.29751705e-05, -4.44827456e-05, -2.85668266e-05,
          -5.50102523e-05, -3.93175178e-05, -9.50096546e-06,
          -4.32592060e-05, -1.16835163e-05, -9.13277290e-06,
          -2.75994080e-05, 6.38553411e-06, -2.76333139e-05,
          -3.90178793e-05, -1.24754370e-05, 3.04141304e-06,
          -2.52935752e-05, 9.95085611e-06, -1.89116199e-05,
          -4.65679441e-05, -1.88045760e-06, -3.61874700e-05,
          -4.23783968e-05, 9.15026521e-06, -4.97449691e-05,
          -3.86275715e-05, -1.92696780e-06, -4.12652771e-05,
          -3.10841897e-05, 5.91840580e-06, -2.53741891e-05,
          -2.79168307e-05, 1.23574846e-05, -4.52306776e-05,
          -4.95683998e-05, -9.62279501e-06, -4.27505802e-05,
          -5.67485840e-05, -6.32422280e-06, -5.66647795e-05,
          -7.23304256e-05, -1.31232991e-05, -6.01690153e-05,
          -6.74305993e-05, -1.05818253e-05, -3.74824667e-05,
          -5.52889505e-05, 2.25801713e-07, -2.69538596e-05,
          -3.14798490e-05, -6.66949745e-06, -1.97174741e-05,
          -2.56081894e-05, 1.11237141e-05, -2.42847709e-05,
          -2.79421874e-05, 3.80484948e-06, -2.58410018e-05,
          -1.83501197e-05, 1.46889970e-05, -3.46471716e-05,
          -1.08755858e-05, 2.49047243e-05, -1.39068716e-05,
          1.58545367e-06, 4.14394599e-05, -3.13239507e-05,
          -1.52210232e-05, 1.77679503e-05, -4.38670140e-05,
          -2.59967073e-05, 1.44193900e-05, -5.53116442e-05,
          -2.49744025e-05, -9.43310533e-06, -4.21018813e-05,
          -1.54402078e-05, 1.66493573e-05, -4.42895507e-05,
          -2.86344111e-05, 4.25155349e-06, -6.41190345e-05,
          -4.65360354e-05, -2.26508710e-05, -5.12734696e-05,
          -3.17444428e-05, -9.19137437e-06, -4.83183430e-05,
          -2.80535533e-05, -9.61049682e-06, -5.60424814e-05,
          -3.41198865e-05, -1.56491842e-05, -6.14633100e-05,
          -3.80775746e-05, -2.18981968e-05, -1.91877571e-05,
          -2.36458181e-05, -1.76527956e-05, -2.89070922e-05,
          -4.01508951e-05, -2.17640700e-05, -5.42781672e-05,
          -4.59590483e-05, -1.75843361e-05, -3.75742638e-05,
          -1.79752369e-05, 1.14955083e-05, -3.11002768e-05,
          1.71416468e-05, 4.07442421e-05, -3.33938588e-05,
          1.26900241e-05, 5.57282474e-05, -6.31718358e-05,
          -2.79834949e-05, 9.77346826e-06, -5.64367656e-05,
          -1.67838004e-06, 3.48927679e-05, -4.24287464e-05,
          1.02083013e-05, 2.94545916e-05, -5.31045007e-05,
          -1.59863284e-05, 8.90916851e-07, -4.01583566e-05,
          -2.73121132e-05, -1.49875186e-05, -2.50255289e-05,
          -1.78579412e-05, -1.68573861e-05, -3.48918184e-05,
          -2.06511977e-05, -1.40846823e-05, -4.17537522e-05,
          -2.77904328e-05, -1.71201918e-05, -5.00678252e-05,
          -2.49934965e-05, -6.92111234e-06, -5.85942034e-05,
          -2.83737099e-05, -3.08921199e-06, -3.12503544e-05,
          -1.85477420e-05, -9.73123224e-06, -5.37748856e-05,
          -3.91633912e-05, -2.71420031e-05, -6.93072798e-05,
          -3.90204332e-05, -1.96372930e-05, -5.09685233e-05,
          -2.64690352e-05, -1.45988497e-05, -6.89756416e-05,
          -2.00678551e-05, -1.74066354e-05, -6.92282192e-05,
          -2.91397191e-05, -1.66662212e-05, -5.79394764e-05,
          -2.79244450e-05, -1.48332992e-05, -5.57451749e-05,
          -2.33752235e-05, 2.39914152e-06, -6.33146919e-05,
          -3.26422196e-05, -1.86547750e-05, -8.59936263e-05,
          -3.61760976e-05, -2.17930628e-05, -9.12223913e-05,
          -3.03585748e-05, -2.95299305e-05, -8.59268694e-05,
          -2.94526653e-05, -3.24550892e-05, -6.80801386e-05,
          -2.54040660e-05, -2.23789157e-05, -7.47251543e-05,
          -3.86469910e-05, -4.04041966e-05, -5.82143366e-05,
          -4.50977568e-05, -2.90232856e-05, -5.32877384e-05,
          -4.97522778e-05, -2.16584795e-05, -5.79858352e-05,
          -6.38164784e-05, -2.94912898e-05, -8.25170209e-05,
          -7.91046623e-05, -4.00201898e-05, -9.38940138e-05,
          -6.17375044e-05, -2.67066134e-05, -1.14711307e-04,
          -7.38703384e-05, -3.50296541e-05, -1.30285684e-04,
          -9.10451345e-05, -4.58504037e-05, -1.29349806e-04,
          -9.49348832e-05, -3.39316284e-05, -1.37173833e-04,
          -9.19711529e-05, -3.30117400e-05, -1.58534458e-04,
          -1.04374521e-04, -4.82746436e-05, -1.39426294e-04,
          -1.04556253e-04, -5.53800783e-05, -1.29071166e-04,
          -7.83884243e-05, -3.79511766e-05, -1.23420396e-04,
          -7.80732953e-05, -1.45156500e-05, -1.11935624e-04,
          -6.52983945e-05, -1.42122808e-05, -1.48962557e-04,
          -8.54754471e-05, -6.28526177e-05, -1.93268177e-04,
          -1.18293086e-04, -1.03650156e-04, -1.78859074e-04,
          -1.22319892e-04, -1.07960055e-04, -1.70229207e-04,
          -1.31859677e-04, -1.15884919e-04, -9.49987589e-05,
          8.23670780e-05, -6.33885938e-05, -9.21085739e-05,
          8.58612621e-05, -6.43536332e-05, -9.06651694e-05,
          8.34941457e-05, -6.92976682e-05, -8.00531052e-05,
          7.98970141e-05, -6.73902978e-05, -1.08666420e-04,
          4.84252487e-05, -8.86247362e-05, -9.84230792e-05,
          4.15570903e-05, -9.76964293e-05, -1.19560762e-04,
          5.89470219e-05, -6.86189742e-05, -7.27564329e-05,
          1.01002697e-04, -3.73145303e-05, -8.89985022e-05,
          7.74185246e-05, -5.92949982e-05, -6.94295086e-05,
          9.19695885e-05, -4.96614120e-05, -1.04835010e-04,
          6.15608224e-05, -7.88218167e-05, -1.08522683e-04,
          7.69166509e-05, -5.75302474e-05, -1.29703520e-04,
          6.80717931e-05, -8.62693123e-05, -1.17820047e-04,
          6.97499709e-05, -9.45713691e-05, -1.02840953e-04,
          5.28744422e-05, -6.62260500e-05, -7.20824028e-05,
          6.65910702e-05, -5.58707325e-05, -6.08536866e-05,
          9.56777221e-05, -3.63883446e-05, -6.49392750e-05,
          1.00560726e-04, -3.62205319e-05, -6.99580050e-05,
          9.22532709e-05, -5.29083845e-05, -5.72784265e-05,
          9.47214066e-05, -5.09280399e-05, -6.49268040e-05,
          6.64637482e-05, -6.84633487e-05, -6.89371300e-05,
          5.11254984e-05, -6.92183894e-05, -9.51428883e-05,
          3.47560854e-05, -6.18720806e-05, -8.04800147e-05,
          6.20002102e-05, -2.81363391e-05, -8.28868651e-05,
          5.26538061e-05, -4.82396426e-05, -5.62661407e-05,
          6.54790856e-05, -4.65603298e-05, -9.64167266e-05,
          4.64781588e-05, -5.07179684e-05, -1.05034625e-04,
          4.24206191e-05, -5.50066397e-05, -9.54649877e-05,
          4.45642872e-05, -8.59079810e-05, -8.36372346e-05,
          5.86874376e-05, -7.91284037e-05, -9.80338154e-05,
          3.70791786e-05, -7.94361986e-05, -7.94923544e-05,
          5.51340454e-05, -6.39660357e-05, -4.71235944e-05,
          1.02459540e-04, -1.78669707e-05, -3.06970651e-05,
          1.10940789e-04, -1.85430827e-06, -1.89685416e-05,
          8.94113400e-05, -1.29871887e-05, -3.90561945e-06,
          1.00505960e-04, -1.92885509e-05, -1.76533613e-05,
          6.63343817e-05, -5.37145352e-05, -2.37424265e-05,
          4.05075407e-05, -6.07537877e-05, -8.72368473e-05,
          2.06831501e-05, -6.94515402e-05, -7.43457495e-05,
          3.31064330e-05, -4.95674940e-05, -9.50187532e-05,
          2.43247523e-05, -5.60384651e-05, -9.36832657e-05,
          1.81334362e-05, -5.79786210e-05, -1.20212433e-04,
          1.64677513e-05, -7.97006142e-05, -1.14989816e-04,
          3.08462877e-05, -6.52726885e-05, -9.92688147e-05,
          2.44121311e-05, -6.24693930e-05, -6.63367537e-05,
          5.19264504e-05, -3.80243655e-05, -6.71237940e-05,
          4.94940505e-05, -4.65913690e-05, -5.25409559e-05,
          4.83423246e-05, -3.85894127e-05, -2.97257011e-05,
          6.39693826e-05, -1.71310494e-05, -2.74014492e-05,
          7.95655433e-05, -9.49439084e-07, -5.37550732e-05,
          5.80646920e-05, -1.98027683e-05, -4.28486746e-05,
          5.77430510e-05, -3.61103012e-05, -5.92820434e-05,
          2.73880723e-05, -4.95892054e-05, -6.88536311e-05,
          -3.32233299e-06, -5.22431728e-05, -1.24419894e-04,
          -2.49739169e-05, -7.33848792e-05, -1.13265916e-04,
          1.68657834e-06, -4.06527070e-05, -8.84904366e-05,
          1.03875263e-05, -2.75254861e-05, -9.17915968e-05,
          4.83255462e-06, -4.23707315e-05, -1.24442871e-04,
          -1.21819239e-05, -7.86123564e-05, -6.75954434e-05,
          4.39580981e-05, -2.10706930e-05, -6.80675221e-05,
          5.48594762e-05, -4.55817244e-05, -6.23371816e-05,
          6.01943902e-05, -4.84474331e-05, -7.14833950e-05,
          4.20618744e-05, -4.24971222e-05, -4.97053006e-05,
          4.60407100e-05, -3.58125981e-05, -2.90381558e-05,
          6.54309697e-05, -2.95371319e-06, -3.70293492e-05,
          6.69536166e-05, 4.40707254e-06, -6.10732022e-05,
          4.62382704e-05, -4.19913849e-05, -7.46814476e-05,
          3.41071427e-05, -5.60116459e-05, -7.22705154e-05,
          3.26912923e-05, -4.92562067e-05, -6.99657248e-05,
          9.88161173e-06, -6.27882182e-05, -1.24521015e-04,
          -1.65358597e-05, -7.42583798e-05, -1.17419244e-04,
          -5.92323659e-06, -5.63529247e-05, -1.25620776e-04,
          -1.33178346e-05, -7.16589275e-05, -1.17858457e-04,
          -3.44792784e-06, -6.46380140e-05, -1.07647007e-04,
          6.97532732e-06, -5.82301909e-05, -8.74188408e-05,
          1.98122489e-05, -5.14222229e-05, -6.73356335e-05,
          1.85854096e-05, -3.65138621e-05, -6.12515360e-05,
          7.39952475e-06, -5.45137045e-05, -6.27730624e-05,
          -7.81127801e-06, -6.78156503e-05, -4.66082311e-05,
          -4.73918135e-06, -4.66598467e-05, -4.25357539e-05,
          6.35192328e-06, -3.40318802e-05, -4.85587989e-05,
          2.21954197e-05, -3.33982098e-05, -4.76729292e-05,
          2.14628180e-05, -4.36929222e-05, -5.46452829e-05,
          5.30641410e-06, -5.36504849e-05, -8.37488187e-05,
          -5.71962983e-06, -5.72348545e-05, -6.83140242e-05,
          -6.59726993e-06, -3.50371374e-05, -8.79193249e-05,
          -2.43198065e-05, -3.91140820e-05, -9.17546131e-05,
          -1.25620718e-05, -1.75883779e-05, -8.81533197e-05,
          1.56714862e-06, 6.08348137e-06, -7.12539841e-05,
          2.48663364e-05, 5.73634043e-06, -8.56649713e-05,
          2.23207098e-05, -1.97412483e-05, -4.05062383e-05,
          4.32823763e-05, -4.20940864e-07, -1.25725992e-05,
          3.38666505e-05, 7.64793640e-06, -4.65852427e-05,
          1.50250037e-06, -2.71599019e-05, -9.71790214e-05,
          -2.70935980e-05, -4.67979007e-05, -8.67261697e-05,
          -2.22957351e-05, -3.71985152e-05, -4.68389298e-05,
          -1.80145298e-06, -1.82913318e-05, -3.79633202e-05,
          6.74485273e-06, -1.53728215e-05, -3.73421717e-05,
          6.43104158e-06, -1.98795915e-05, -3.15605830e-05,
          1.29056598e-05, -3.46526775e-07, -4.58816066e-05,
          1.44008636e-05, 4.65679022e-06, -4.40309486e-05,
          2.05160850e-05, 1.22770316e-05, -5.99841405e-05,
          7.81324343e-06, -2.04661210e-05, -8.20770729e-05,
          -3.42158319e-06, -3.59815604e-05, -9.71637201e-05,
          -1.36696490e-05, -3.24274297e-05, -6.38163765e-05,
          1.47199205e-06, -2.53084454e-05, -4.56771631e-05,
          -1.71780459e-06, -2.88824031e-05, -3.45416775e-05,
          9.66623702e-06, -1.55212747e-05, -2.58354030e-05,
          1.68875777e-05, -2.11467941e-05, -2.66415955e-05,
          2.36802789e-05, -1.56490969e-05, -5.60892186e-05,
          -2.07481449e-07, -2.66096358e-05, -4.62013450e-05,
          -6.13430393e-06, -1.60478830e-05, -5.21280599e-05,
          -1.55259545e-06, -4.74716580e-06, -5.71592755e-05,
          7.05620096e-06, -8.28075099e-06, -4.94576052e-05,
          1.28475369e-06, -3.24552166e-05, -4.43123863e-05,
          3.96535961e-06, -2.92057939e-05, -2.66448806e-05,
          1.04442888e-05, -2.65791532e-05, -2.39321525e-05,
          5.71206010e-06, -3.56130549e-05, -4.74470653e-05,
          -7.35411368e-06, -2.31524245e-05, -4.66223610e-05,
          -7.95411688e-06, -7.02797252e-06, -5.09408455e-05,
          -2.06811801e-05, -7.09270068e-07, -2.82964411e-05,
          1.48598610e-05, 2.63673082e-05, -1.97093232e-05,
          3.24923167e-05, 4.23689635e-05, 1.46414266e-06, 4.10362882e-05,
          3.78764635e-05, -3.33062344e-05, 8.40147186e-06,
          -3.22942446e-06, -2.14104966e-05, 6.23738788e-06,
          7.27123506e-06, -9.39986785e-06, 1.14586937e-05,
          2.65830786e-05, 1.87715546e-06, 2.46718973e-05, 4.62796852e-05,
          -1.92988464e-05, 1.24638573e-05, 3.09973839e-05,
          -2.46328800e-05, 1.05349209e-05, 2.17828274e-05,
          -9.55938231e-06, 1.61265434e-05, 2.92320442e-06,
          -8.50996003e-07, 2.20749935e-05, 7.72525982e-06,
          -1.37524084e-05, 6.93437914e-06, -1.54764748e-05,
          -8.18963144e-06, 4.73191540e-06, -1.80622555e-05,
          -3.88046901e-05, 2.31795730e-06, -2.34461313e-05,
          -3.85864078e-05, -6.32384808e-06, -1.37201523e-05,
          -3.45577573e-05, 9.24473625e-06, 2.44027724e-05,
          -2.13325256e-05, 4.76692221e-05, 4.84390548e-05,
          -3.86966240e-05, 2.84512498e-05, 1.34230968e-05,
          -4.93936495e-05, 1.07997630e-05, -7.93531171e-07,
          -5.87315844e-05, -2.74123340e-05, -3.08509843e-05,
          -5.74227561e-05, -3.72723334e-05, -3.01160690e-05,
          -4.14834321e-05, -1.19947836e-05, 1.15598950e-05,
          -2.34532781e-05, 4.96356006e-06, 3.49283109e-05,
          -5.87360373e-05, -2.10102262e-05, -8.37236075e-06,
          -6.16381731e-05, -2.84156104e-05, -1.91862946e-05,
          -6.17653423e-05, -2.43485683e-05, -3.38164900e-05,
          -4.13424896e-05, 9.90302124e-06, -1.77036563e-05,
          -4.08827764e-05, -8.00607995e-06, -3.55491429e-05,
          -3.31931005e-05, -1.67594990e-05, -2.87406565e-05,
          -4.49809340e-05, -6.85562782e-06, -1.72323471e-05,
          -5.01857721e-05, -1.73439039e-05, -1.94533495e-05,
          -4.67558530e-05, -1.41145983e-05, -1.75949863e-05,
          -1.63147597e-05, 9.98333326e-06, 1.18638241e-06,
          -5.74225451e-05, -3.56001983e-05, -1.89335824e-05,
          -5.25983269e-05, -4.77320573e-05, -3.21711668e-05,
          -6.08083828e-05, -5.75309459e-05, -3.75182099e-05,
          -3.92568036e-05, -2.42177302e-05, 7.19720219e-06,
          -4.36027804e-05, -2.10710205e-05, 9.71199188e-06,
          -4.85274286e-05, -3.18392704e-05, 9.14364227e-06,
          -3.86154352e-05, -3.71721871e-05, 3.05244021e-06,
          -3.34708930e-05, -3.34140823e-05, -4.03144759e-06,
          -5.22113005e-05, -4.22829617e-05, -1.45129197e-05,
          -5.35262225e-05, -2.85756014e-05, -9.64887658e-06,
          -7.69755861e-05, -4.05706196e-05, -1.46113771e-05,
          -4.56612797e-05, -4.14420792e-05, -1.08524100e-05,
          -6.40042053e-05, -5.75081322e-05, -1.34322909e-05,
          -6.29951683e-05, -5.24413445e-05, -1.71255215e-05,
          -6.80577505e-05, -4.81839088e-05, -2.72150210e-05,
          -5.13549785e-05, -3.55686643e-05, -1.71743122e-05,
          -3.48211215e-05, -4.70393061e-05, -2.75586772e-05,
          -4.26384431e-05, -5.21244729e-05, -3.50528317e-05,
          -6.97242431e-05, -8.12042344e-05, -6.50946895e-05,
          -8.42733498e-05, -8.01867718e-05, -5.67153147e-05,
          -9.50598551e-05, -8.21223512e-05, -5.43327224e-05,
          -1.05305800e-04, -7.83484866e-05, -4.74106200e-05,
          -9.65377985e-05, -7.82748320e-05, -4.46488702e-05,
          -7.24232086e-05, -6.72709211e-05, -4.08558699e-05,
          -9.01852036e-05, -6.51011069e-05, -3.38081009e-05,
          -7.23235426e-05, -4.93206462e-05, -1.24952321e-05,
          -5.94025660e-05, -4.58502254e-05, -2.06258883e-05,
          -3.53722753e-05, -1.59229312e-05, 1.46981865e-05,
          -5.29988247e-05, -2.45580741e-05, 2.38620560e-05,
          -5.94525845e-05, -3.81712453e-05, 8.96856636e-06,
          -8.78246792e-05, -7.45945290e-05, -4.06831241e-05,
          -4.94186206e-05, -5.05830758e-05, -2.16538774e-05,
          -4.22350458e-05, -5.78482322e-05, -1.98713842e-05,
          -4.42203163e-05, -6.03597910e-05, -1.86385332e-05,
          -7.57534581e-05, -8.92406824e-05, -3.35267832e-05,
          -7.69813196e-05, -9.36351353e-05, -3.30323201e-05,
          -7.81637355e-05, -9.08440852e-05, -3.30562507e-05,
          -7.16297363e-05, -8.49218268e-05, -1.58572857e-05,
          -8.87104325e-05, -8.93912656e-05, -4.43732715e-05,
          -8.58239800e-05, -9.80714758e-05, -4.01042744e-05,
          -7.12572801e-05, -6.43635576e-05, -1.40580723e-05,
          -7.35624926e-05, -5.25948199e-05, -2.00131144e-05,
          -8.44140304e-05, -5.65568334e-05, -3.81599202e-05,
          -8.18513872e-05, -5.26585791e-05, -2.68171880e-05,
          -1.03728053e-04, -8.30489516e-05, -6.51879736e-06,
          -1.04547005e-04, -9.05230190e-05, -7.11345456e-06,
          -9.75252915e-05, -6.96477655e-05, 4.74033868e-06,
          -6.46122717e-05, -4.65539197e-05, 2.40539357e-05,
          -5.40619149e-05, -6.53945972e-05, -5.39324446e-06,
          -5.30989892e-05, -7.06020728e-05, -6.76190984e-06,
          -3.37072706e-05, -5.37800261e-05, -8.89095372e-06,
          -3.36719422e-05, -4.12003501e-05, 5.28493092e-06,
          -4.85067721e-05, -6.20486608e-05, 5.80679898e-06,
          -4.34904177e-05, -6.07954826e-05, 3.98569136e-06,
          -3.77228680e-05, -4.91278661e-05, -7.66031462e-06,
          -1.26480727e-05, -3.33079734e-05, 1.17609407e-05,
          -3.52638563e-05, -3.89993766e-05, -1.70453097e-06,
          -2.24706000e-05, -1.98439393e-05, 1.72822893e-05,
          -3.98039483e-05, -2.76860283e-05, 7.08165453e-06,
          -4.17888878e-05, -3.54333934e-05, -7.42471275e-06,
          -4.99116104e-05, -3.90532477e-05, 9.60405941e-06,
          -4.93199550e-05, -2.23336938e-05, 1.52065786e-05,
          -5.03649826e-05, -8.36878462e-06, 8.22527363e-06,
          -2.29453999e-05, -1.21505582e-05, 6.09206018e-06,
          -4.11922410e-05, -2.95652808e-05, -2.27697019e-05,
          -4.54134533e-05, -3.76188582e-05, -1.61317548e-05,
          -3.17892373e-05, -2.60755187e-05, 1.10996079e-05,
          -6.36781624e-05, -4.20323413e-05, -1.46763978e-06,
          -8.70306758e-05, -7.05216371e-05, -2.24596988e-05,
          -7.23660269e-05, -6.66994820e-05, -2.23131119e-05,
          -4.66178863e-05, -6.19075581e-05, -3.07957162e-05,
          -2.64034334e-05, -4.79513983e-05, -5.70792417e-06,
          -3.60661397e-05, -3.91801696e-05, 4.21715185e-06,
          -3.74323790e-05, -3.07598712e-05, 3.31973240e-07,
          -5.50744953e-05, -5.05474454e-05, -2.36242940e-05,
          -4.29592801e-05, -3.07811169e-05, 8.52541780e-06,
          -5.14731837e-05, -2.68095355e-05, 1.81371743e-05,
          -5.31840415e-05, -2.06075074e-05, 3.41478590e-05,
          -3.92198308e-05, -1.34547736e-05, 1.99425831e-05,
          -8.34729053e-06, 2.83659517e-07, 2.40513527e-05,
          -1.40004227e-06, -1.08604991e-05, 6.65866810e-06,
          -9.05074921e-06, -1.80166917e-05, -7.65669824e-07,
          -2.43940831e-05, -2.74589893e-05, -1.50961687e-05,
          -2.06769328e-05, -2.03058516e-05, -1.29518621e-05,
          -4.82995747e-05, -2.96832204e-05, -1.88517345e-06,
          -6.39153368e-05, -4.37553499e-05, -1.86313100e-05,
          -5.06078613e-05, -3.92439397e-05, -4.43297104e-05,
          -4.91906248e-05, -4.76055648e-05, -3.78834120e-05,
          -4.56800408e-05, -3.23411914e-05, -2.01748262e-05,
          -5.33426828e-05, -2.67763080e-05, -4.71825069e-06,
          -6.33040836e-05, -1.54239206e-05, -4.44679500e-07,
          -6.06496942e-05, -7.01561430e-06, 1.43280306e-06,
          -5.82394532e-05, -1.61713706e-05, 3.76285652e-06,
          -6.07190777e-05, -2.53445596e-05, -1.20361028e-05,
          -4.20840624e-05, -1.00711050e-05, -3.56830351e-05,
          -2.99799467e-05, -2.01477415e-05, -4.36719383e-05,
          1.76733565e-07, -2.15777127e-05, -3.82471262e-05,
          -1.27574749e-05, -1.86110119e-05, -4.39188916e-05,
          -3.62825631e-05, -2.93768117e-05, -5.18020206e-05,
          -3.69255831e-05, -3.82897852e-05, -4.97204783e-05,
          -6.01554020e-05, -6.11512150e-05, -3.13555938e-05,
          -6.64552135e-05, -6.77149001e-05, -3.39842045e-05,
          -2.46697582e-05, -3.25074543e-05, -4.17703959e-05,
          1.42626584e-06, -1.47319179e-05, -2.21932860e-05,
          2.95205482e-05, -3.15655257e-06, -1.46884386e-05,
          2.44787338e-06, -2.12723226e-05, -2.48811175e-05,
          -2.22819108e-05, -1.35310947e-05, -3.91804679e-05,
          -4.61666696e-06, 4.47554385e-06, -1.44910755e-05,
          -1.40109159e-05, -1.45462509e-05, -1.10454839e-05,
          -3.25181172e-05, -2.76099163e-05, -1.48210411e-05,
          -3.65620108e-05, -1.71558459e-05, -2.76565297e-05,
          -2.24654432e-05, -1.86225679e-05, -2.53713479e-05,
          -9.49520199e-06, -2.20600341e-05, -3.00768806e-05,
          -3.75066265e-05, -4.60775009e-05, -5.54211219e-05,
          -5.33522798e-05, -4.53962348e-05, -5.95615566e-05,
          -4.67952996e-05, -2.63019065e-05, -6.25155153e-05,
          -5.16462387e-05, -5.26630865e-05, -8.48000054e-05,
          -5.34461433e-05, -6.55484764e-05, -9.39473466e-05,
          -2.92784043e-05, -3.41584819e-05, -8.07715478e-05,
          -1.85642857e-05, -2.29188463e-05, -5.11506660e-05,
          -4.79841547e-05, -3.02151475e-05, -5.72655117e-05,
          -5.13379346e-05, -2.56290623e-05, -3.99861165e-05,
          -2.38860339e-05, 4.49023764e-06, -2.45160572e-05,
          -4.09773520e-06, 2.08317906e-05, 3.24795542e-06,
          -2.45097326e-05, -2.53399739e-05, -2.85763726e-05,
          -2.32726343e-05, -1.41833616e-05, -3.13736891e-05,
          -9.39349229e-06, -7.34966079e-06, -3.47505520e-05,
          -6.86985913e-07, 3.15395619e-06, -2.31037739e-05,
          -5.77624587e-06, -1.51913691e-05, -2.13845615e-05,
          -1.72151376e-05, -2.01646744e-05, -2.39560413e-05,
          -2.18614459e-05, -8.01782244e-06, -3.54125514e-05,
          -1.85727331e-05, -2.02293013e-05, -5.95933598e-05,
          -2.47772077e-05, -2.83553964e-05, -5.78032596e-05,
          -2.08943347e-05, -3.65568485e-05, -5.67696443e-05,
          -1.27903868e-05, -4.18845193e-05, -6.30051582e-05,
          -8.91998843e-06, -4.11971268e-05, -6.07914990e-05,
          -2.45067495e-05, -2.98485684e-05, -4.68588223e-05,
          -3.71673050e-05, -4.21030782e-05, -4.35383190e-05,
          -1.48255085e-05, -7.21738570e-06, -1.11325953e-05,
          -1.46244593e-05, 1.12068619e-05, 8.17734588e-07,
          -3.58483012e-05, -1.15817329e-05, -1.76415124e-05,
          -4.11578039e-05, -1.69926625e-05, -3.28561910e-05,
          -1.71836000e-05, -9.81873291e-06, -2.14885295e-05,
          4.36975078e-08, 1.47861010e-05, -1.05961702e-08,
          -1.43511261e-05, 7.80255868e-06, -1.27398116e-05,
          -1.39675412e-05, -6.81792380e-06, -1.68119750e-05,
          -3.28514034e-05, -1.98817270e-05, -2.68418262e-05,
          -7.18764204e-05, -5.49181714e-05, -5.92608412e-05,
          -6.86098720e-05, -3.79964767e-05, -5.01797876e-05,
          -4.47090279e-05, -1.75428140e-05, -3.52601746e-05,
          -4.53021676e-05, -1.01657215e-05, -4.47326711e-05,
          -5.23417111e-05, -2.86161921e-05, -6.34703974e-05,
          -3.15582656e-05, -9.05103025e-06, -5.38086351e-05,
          -4.08488959e-05, -1.46364146e-05, -4.96979919e-05,
          -6.34425087e-05, -3.85537496e-05, -4.83380536e-05,
          -4.88073929e-05, -3.93812625e-05, -3.34689285e-05,
          -5.65353912e-05, -3.32391392e-05, -3.56271557e-05,
          -6.48579589e-05, -1.22488718e-05, -1.71323281e-05,
          -6.13070806e-05, -1.28128413e-05, -1.90139745e-05,
          -5.40789151e-05, -8.17537966e-06, -2.00590548e-05,
          -5.96719437e-05, -3.46465131e-05, -3.74236442e-05,
          -6.42263549e-05, -2.63663896e-05, -3.68924848e-05,
          -1.09870671e-04, -4.22264384e-05, -4.28841522e-05,
          -1.32758709e-04, -7.29999956e-05, -6.58806312e-05,
          -1.44019563e-04, -6.54252435e-05, -7.32324625e-05,
          -1.42853998e-04, -6.69820438e-05, -6.25579924e-05 ]
   decision_functions:
      -
         sv_count: 1
         rho: -1.8347996133904381e+01
         alpha: [ 1. ]
         index: [ 0 ]
