%YAML:1.0
my_svm: !!opencv-ml-svm
   svm_type: NU_SVC
   kernel: { type:LINEAR }
   nu: 1.0000000000000000e-02
   term_criteria: { epsilon:2.2204460492503131e-16, iterations:10000 }
   var_all: 252
   var_count: 252
   class_count: 2
   class_labels: !!opencv-matrix
      rows: 1
      cols: 2
      dt: i
      data: [ -1, 1 ]
   sv_total: 1
   support_vectors:
      - [ -2.61561275e+00, -1.65455133e-01, 5.95934212e-01,
          -2.45756641e-01, 2.30705714e+00, -2.08705235e+00,
          -8.12383354e-01, 7.86061168e-01, -2.80884266e+00,
          7.04700530e-01, -1.37004924e+00, -2.14127398e+00,
          -2.69629508e-01, -1.33065772e+00, -1.74120617e+00,
          -3.43968487e+00, -5.06656504e+00, -1.02738404e+00,
          2.37054253e+00, -1.37905717e+00, -2.87765503e+00,
          2.05460221e-01, -9.33488011e-01, 1.12867653e+00,
          1.13479102e+00, 1.86572731e+00, -3.94013000e+00,
          7.90371776e-01, -7.20712006e-01, -8.52421165e-01,
          6.64158911e-02, 1.05743301e+00, 1.48247516e+00,
          -1.10474598e+00, -6.63739085e-01, -1.28503692e+00,
          -8.10855985e-01, -9.05956447e-01, 1.36279655e+00,
          -5.35246730e-02, 2.07727957e+00, -8.55083406e-01,
          -4.58089352e-01, 8.45427275e-01, 2.54931617e+00,
          2.87611067e-01, -2.40392542e+00, 5.96592426e-01,
          1.75099862e+00, -3.72247666e-01, -7.92092681e-01,
          -1.72357559e+00, -1.70469379e+00, -2.76380038e+00,
          -1.20571208e+00, 3.68908942e-01, -3.03338557e-01,
          -1.34437728e+00, -5.54213285e-01, 3.87321591e+00,
          2.26504421e+00, -3.43251252e+00, -2.41977310e+00,
          -1.29176939e+00, -2.32437801e+00, -3.53077197e+00,
          -4.44439024e-01, -8.77455413e-01, 3.59522074e-01,
          1.08798456e+00, 2.88343072e-01, -3.46290493e+00,
          3.78816366e-01, -5.36861718e-01, -3.68423909e-01,
          5.86756563e+00, 2.26494288e+00, 2.60746408e+00, 1.80294013e+00,
          5.29399216e-01, 2.60660696e+00, -3.62254691e+00,
          -1.55912507e+00, -6.25497222e-01, -6.32662237e-01,
          9.89058256e-01, -2.25189614e+00, 1.35794735e+00,
          1.38598293e-01, 1.53755236e+00, -1.70830691e+00,
          2.89260769e+00, -2.41913748e+00, 7.23472238e-01,
          -1.45618486e+00, 3.91978145e+00, -1.68864262e+00,
          -1.45191836e+00, -1.66323280e+00, -2.50493550e+00,
          9.60023165e-01, -2.39670205e+00, -2.06214714e+00,
          -1.69581580e+00, 2.31883168e+00, -1.60619915e+00,
          -4.05521822e+00, -2.60094094e+00, -2.19227839e+00,
          4.29971313e+00, 1.10477626e+00, 3.48886108e+00, 2.95479560e+00,
          -5.61187625e-01, -2.33629489e+00, 1.77993548e+00,
          -9.80656147e-01, -5.39104557e+00, 3.83551091e-01,
          -3.88089776e+00, 1.58687353e+00, 3.32445979e+00,
          3.78136039e-01, 5.31738460e-01, 1.95574534e+00,
          -9.26708341e-01, 2.10846686e+00, 2.42444992e+00,
          2.19784975e+00, 3.02451640e-01, 7.25067139e-01, 4.22111130e+00,
          3.64796352e+00, 1.19167650e+00, 8.48967195e-01, 1.82531035e+00,
          -5.91856301e-01, -2.54370713e+00, -2.64499688e+00,
          2.31278825e+00, 1.59053254e+00, 1.79230368e+00,
          -1.83625460e+00, -9.79823172e-01, -1.45864105e+00,
          3.72533154e+00, -1.72910333e+00, -9.28854525e-01,
          1.76865613e+00, -1.44574630e+00, -2.57066011e-01,
          8.13548446e-01, 1.85336483e+00, -2.91613650e+00,
          -1.23253429e+00, -4.05039787e+00, -1.69411778e-01,
          8.58925879e-01, 9.82108712e-01, -4.24709558e+00,
          -2.47091866e+00, 1.95127040e-01, 4.57304049e+00,
          -2.28568888e+00, 3.12245905e-01, -2.18065643e+00,
          4.55782235e-01, -1.57512784e+00, 1.40763676e+00,
          1.76213431e+00, -2.28854299e+00, -1.64689684e+00,
          -8.09679866e-01, 1.19919121e+00, 8.38576615e-01,
          -1.54183418e-01, -1.18023837e+00, -1.71860039e+00,
          -2.13726735e+00, -6.37895727e+00, -1.35819924e+00,
          -1.20489204e+00, -4.27763176e+00, -2.50002241e+00,
          -4.13776827e+00, -4.58991051e-01, -1.18848169e+00,
          -1.37941158e+00, -2.26985335e+00, -5.29088259e+00,
          1.36933446e+00, 1.95404696e+00, 1.95590186e+00,
          -3.79080057e+00, -4.95344973e+00, -2.78486848e+00,
          2.47179598e-01, -3.65941787e+00, 1.37608647e+00,
          -3.69121850e-01, 1.88068485e+00, -4.01137114e+00,
          -7.76609063e-01, 3.27513099e-01, -2.65022922e+00,
          -1.76330090e-01, -3.37529469e+00, -1.81171083e+00,
          -4.12689638e+00, -1.59878087e+00, 7.96819866e-01,
          -9.62833524e-01, 4.34389305e+00, -6.40601143e-02,
          -2.15873301e-01, -3.79893041e+00, -3.59049082e+00,
          5.50878572e+00, 4.41998291e+00, -7.34438449e-02,
          1.73018134e+00, 2.08575225e+00, 1.13921690e+00, 1.81050670e+00,
          4.06189084e-01, 4.76062089e-01, -1.27509987e+00,
          -8.79245400e-01, 5.41788161e-01, -2.39670181e+00,
          7.13973522e-01, 4.94212896e-01, 8.13096881e-01, 3.07851052e+00,
          -2.44312191e+00, -6.74253106e-02, -3.46950561e-01,
          8.39554787e-01, 2.75492692e+00, 2.13608885e+00, 1.07714295e+00,
          4.92661905e+00, -8.43306780e-01, 2.59814620e+00,
          2.35912538e+00, -2.50062299e+00, -6.13181412e-01,
          -3.61481023e+00, -4.60772514e+00, -2.79319906e+00,
          -2.62741327e+00, -2.73946613e-01 ]
   decision_functions:
      -
         sv_count: 1
         rho: -2.1187270385203476e+01
         alpha: [ 1. ]
         index: [ 0 ]
